tree
version=v4
num_class=21
num_tree_per_iteration=21
label_index=0
max_feature_idx=104
objective=multiclass num_class:21
feature_names=Column_0 Column_1 Column_2 Column_3 Column_4 Column_5 Column_6 Column_7 Column_8 Column_9 Column_10 Column_11 Column_12 Column_13 Column_14 Column_15 Column_16 Column_17 Column_18 Column_19 Column_20 Column_21 Column_22 Column_23 Column_24 Column_25 Column_26 Column_27 Column_28 Column_29 Column_30 Column_31 Column_32 Column_33 Column_34 Column_35 Column_36 Column_37 Column_38 Column_39 Column_40 Column_41 Column_42 Column_43 Column_44 Column_45 Column_46 Column_47 Column_48 Column_49 Column_50 Column_51 Column_52 Column_53 Column_54 Column_55 Column_56 Column_57 Column_58 Column_59 Column_60 Column_61 Column_62 Column_63 Column_64 Column_65 Column_66 Column_67 Column_68 Column_69 Column_70 Column_71 Column_72 Column_73 Column_74 Column_75 Column_76 Column_77 Column_78 Column_79 Column_80 Column_81 Column_82 Column_83 Column_84 Column_85 Column_86 Column_87 Column_88 Column_89 Column_90 Column_91 Column_92 Column_93 Column_94 Column_95 Column_96 Column_97 Column_98 Column_99 Column_100 Column_101 Column_102 Column_103 Column_104
feature_infos=[0:0.33020034432411194] [0.218536376953125:1.0892242193222046] [0.28623497486114502:1] [0.012516181915998459:0.98529046773910522] [0.0064298384822905064:0.96675783395767212] [0:0.27864405512809753] [0:0.71376502513885498] [0:0.99996626377105713] [-0.95029294490814209:1.0193270444869995] [-1.3383442163467407:0.8277428150177002] [0.040032714605331421:0.82754945755004883] [0.018008548766374588:0.51390314102172852] [0:0.519989013671875] [0:0.410003662109375] [0:0.4499969482421875] [0:357.14285278320312] [41.551876068115234:339.56484985351562] [0.39215686917304993:78.823532104492188] [2.8594210147857666:72.926551818847656] [7.843137264251709:100] [14.047616004943848:91.38519287109375] [0:0.33031439781188965] [0.086483590304851532:1.0893887281417847] [0.27406924962997437:1] [0.0093975551426410675:0.99251461029052734] [0.0048913075588643551:0.98755830526351929] [0:0.28712716698646545] [0:0.72593075037002563] [0:0.99967443943023682] [-3.35101318359375:1.7030746936798096] [-1.4022285938262939:1.3018780946731567] [0.060340750962495804:20.043811798095703] [0.016688311472535133:0.63392877578735352] [0:3.8800048828125] [-0.040008544921875:3.8800048828125] [-0.05999755859375:0.4499969482421875] [0:357.14285278320312] [41.551876068115234:339.56484985351562] [0.39215686917304993:78.823532104492188] [2.8594210147857666:72.926551818847656] [7.843137264251709:100] [14.047616004943848:91.38519287109375] [0.009839668869972229:0.32250696420669556] [0.029890147969126701:1.0678987503051758] [0.45867669582366943:0.99999332427978516] [0.0018586504738777876:0.99133509397506714] [0.0041981018148362637:0.99694377183914185] [4.8792585403134581e-06:0.24629181623458862] [6.6476472966314759e-06:0.54132330417633057] [6.0796737670898438e-06:0.99924761056900024] [-17.201431274414062:16.198139190673828] [-2.1220107078552246:1.594758152961731] [0.19961088895797729:81.140586853027344] [0.063580833375453949:2.0114972591400146] [0.0099945068359375:4.0200042724609375] [-0.07000732421875:4.0200042724609375] [-0.0800018310546875:0.6100006103515625] [0:357.14285278320312] [41.551876068115234:339.56484985351562] [0.39215686917304993:78.823532104492188] [2.8594210147857666:72.926551818847656] [7.843137264251709:100] [14.047616004943848:91.38519287109375] [0.011888991110026836:0.32520842552185059] [0.056837849318981171:1.0748013257980347] [0.4207901656627655:0.99998807907104492] [0.0034431845415383577:0.98284411430358887] [0.0052387691102921963:0.99374598264694214] [6.8803933572780807e-06:0.24173587560653687] [1.1948234714509454e-05:0.57920980453491211] [6.5565109252929688e-07:0.99611508846282959] [-10.746102333068848:17.801235198974609] [-3.2225465774536133:2.9970831871032715] [0.7493053674697876:84.101043701171875] [0.17288254201412201:5.4175400733947754] [0.0099945068359375:4.0399932861328125] [-0.0800018310546875:4.05999755859375] [-0.1300048828125:1.329986572265625] [0:357.14285278320312] [41.551876068115234:339.56484985351562] [0.39215686917304993:78.823532104492188] [2.8594210147857666:72.926551818847656] [7.843137264251709:100] [14.047616004943848:91.38519287109375] [0.011763644404709339:0.32770994305610657] [0.17729389667510986:1.0816779136657715] [0.35923510789871216:0.99998766183853149] [0.0092192823067307472:0.9831581711769104] [0.0042550638318061829:0.95885872840881348] [6.5370122683816589e-06:0.27153158187866211] [1.2307568795222323e-05:0.64076489210128784] [3.2782554626464844e-06:0.99899917840957642] [-13.774330139160156:13.438878059387207] [-7.1657166481018066:6.7863502502441406] [2.7563228607177734:69.952392578125] [0.69528341293334961:11.842926025390625] [0.0200042724609375:5.160003662109375] [-0.2299957275390625:5.1699981689453125] [-0.230010986328125:1.6999969482421875] [0:357.14285278320312] [41.551876068115234:339.56484985351562] [0.39215686917304993:78.823532104492188] [2.8594210147857666:72.926551818847656] [7.843137264251709:100] [14.047616004943848:91.38519287109375]
tree_sizes=241 1787 1792 241 241 1794 241 241 241 241 242 242 242 242 242 242 242 242 242 242 1784 224 1789 1790 224 224 1797 224 224 224 224 224 224 224 224 224 224 224 224 224 224 1788 224 1787 1792 224 224 1787 224 224 224 224 224 224 224 224 224 224 224 224 224 224 1784 224 1797 1789 224 224 1790 224 224 224 224 224 224 224 224 224 224 224 224 224 224 1784 224 1803 1799 224 224 1783 224 224 224 224 224 224 224 224 224 224 225 225 225 225 1782 225 1800 1791 225 225 1793 225 225 225 225 225 225 225 225 225 225 225 225 225 225 1790 225 1797 1796 225 225 1791 225 225 225 225 225 225 225 225 225 225 225 225 225 225 1793 225 1804 1791 225 225 1799 225 225 225 225 225 225 225 225 225 225 225 225 225 225 1794 225 1815 1801 225 225 1806 225 225 225 225 225 225 225 225 225 225 225 225 225 225 1799 225 1807 1803 225 225 1799 225 225 225 225 225 225 225 225 225 225 225 225 225 225 1792 225 1800 1795 225 225 1804 225 225 225 225 225 225 225 225 225 225 225 225 225 225 1806 225 1816 1813 225 225 1810 225 225 225 225 225 225 225 225 225 225 225 225 225 225 1803 225 1816 1822 225 225 1804 225 225 225 225 225 225 225 225 225 225 225 225 225 225 1809 225 1822 1812 225 225 1812 225 225 225 225 225 225 225 225 225 225 225 225 225 225 1802 225 1814 1824 225 225 1810 225 225 225 225 225 225 225 225 225 225 225 225 225 225 1810 225 1819 1806 225 225 1814 225 225 225 225 225 225 225 225 225 225 225 225 225 225 1810 225 1824 1814 225 225 1820 225 225 225 225 225 225 225 225 225 225 225 225 225 225 1804 225 1816 1814 225 225 1817 225 225 225 225 225 225 225 225 225 225 225 225 225 225 1817 225 1828 1820 225 225 1813 225 225 225 225 225 225 225 225 225 225 225 225 225 225 1811 225 1821 1805 225 225 1827 225 225 225 225 225 225 225 225 225 225 225 225 225 225 1823 225 1835 1820 225 225 1830 225 225 225 225 225 225 225 225 225 225 225 225 225 225 1837 225 1828 1816 225 225 1826 225 225 225 225 225 225 225 225 225 225 225 225 225 225 1832 225 1821 1818 225 225 1825 225 225 225 225 225 225 225 225 225 225 225 225 225 225 1834 225 1826 1814 225 225 1838 225 225 225 225 225 225 225 225 225 225 225 225 225 225 1840 225 1837 1851 225 225 1855 225 225 225 225 225 225 225 225 225 225 225 225 225 225 1838 225 1835 1816 225 225 1840 225 225 225 225 225 225 225 225 225 225 225 225 225 225 1856 225 1846 1842 225 225 1857 225 225 225 225 225 225 225 225 225 225 225 225 225 225 1850 225 1847 1846 225 225 1840 225 225 225 225 225 225 225 225 225 225 225 225 225 225 1848 225 1824 1839 225 225 1849 225 225 225 225 225 225 225 225 225 225 225 225 225 225 1848 225 1837 1832 225 225 1855 225 225 225 225 225 225 225 225 225 225 225 225 225 225 1866 225 1858 1837 225 225 1865 225 225 225 225 225 225 225 225 225 225 225 225 225 225 1877 225 1843 1841 225 225 1858 225 225 225 225 225 225 225 225 225 225 225 225 225 225 1861 225 1842 1845 225 225 1870 225 225 225 225 225 225 225 225 225 225 225 225 225 225 1868 225 1856 1853 225 225 1864 225 225 225 225 225 225 225 225 225 225 225 225 225 225 1867 225 1858 1842 225 225 1875 225 225 225 225 225 225 225 225 225 225 225 225 225 225 1886 225 1856 1863 225 225 1874 225 225 225 225 225 225 225 225 225 225 225 225 225 225 1881 225 1858 1846 225 225 1889 225 225 225 225 225 225 225 225 225 225 225 225 225 225 1895 225 1848 1854 225 225 1893 225 225 225 225 225 225 225 225 225 225 225 225 225 225 1894 225 1855 1846 225 225 1883 225 225 225 225 225 225 225 225 225 225 225 225 225 225 1888 225 1858 1857 225 225 1896 225 225 225 225 225 225 225 225 225 225 225 225 225 225 1889 225 1855 1859 225 225 1892 225 225 225 225 225 225 225 225 225 225 225 225 225 225 1894 225 1855 1862 225 225 1890 225 225 225 225 225 225 225 225 225 225 225 225 225 225 1909 225 1869 1854 225 225 1905 225 225 225 225 225 225 225 225 225 225 225 225 225 225 1906 225 1850 1863 225 225 1892 225 225 225 225 225 225 225 225 225 225 225 225 225 225 1905 225 1856 1859 225 225 1897 225 225 225 225 225 225 225 225 225 225 225 225 225 225 1910 225 1872 1879 225 225 1896 225 225 225 225 225 225 225 225 225 225 225 225 225 225 1906 225 1873 1877 225 225 1914 225 225 225 225 225 225 225 225 225 225 225 225 225 225 1922 225 1879 1872 225 225 1905 225 225 225 225 225 225 225 226 226 226 226 226 226 226 1920 226 1887 1873 226 226 1906 226 226 226 226 226 226 226 226 226 226 226 226 226 226 1926 226 1867 1875 226 226 1911 226 226 226 226 226 226 226 226 226 226 226 226 226 226 1939

Tree=0
num_leaves=1
num_cat=0
split_feature=
split_gain=
threshold=
decision_type=
left_child=
right_child=
leaf_value=-34.538776391283193
leaf_weight=0
leaf_count=0
internal_value=
internal_weight=
internal_count=
is_linear=0
shrinkage=1


Tree=1
num_leaves=16
num_cat=0
split_feature=96 89 86 19 75 16 20 89 16 91 97 49 70 15 16
split_gain=6507.23 732.859 500.622 188.778 124.475 123.14 108.506 86.6688 68.9523 62.3134 61.7885 48.7395 46.144 31.3205 24.9093
threshold=0.41500091552734381 0.0021550336387008433 0.99911832809448253 60.196079254150398 0.26999664306640631 162.1847839355469 66.48041152954103 0.0033431239426136021 74.404769897460952 0.026959806680679325 0.48999786376953131 0.034972280263900764 0.029195219278335575 141.62337493896487 76.575122833251967
decision_type=2 2 2 2 2 2 2 2 2 2 2 2 2 2 2
left_child=1 -1 4 5 6 8 7 9 -3 -2 -8 -4 -5 -7 -6
right_child=2 3 11 12 14 13 10 -9 -10 -11 -12 -13 -14 -15 -16
leaf_value=-0.64881443890167656 -0.62438962228208028 -0.80909380139427689 -0.6243896222820805 -0.70959187264673873 -1.3801000136496644 -1.2847070626081825 -0.66201454765678702 -1.5421783191809597 -1.4882816096257392 -1.5918877033459662 -1.5894689581433066 -1.3862943611198906 -1.4370880103757446 -0.62438962228208039 -1.6299983018336013
leaf_weight=401.23126214742661 7.4812502264976484 6.4968751966953269 22.837500691413883 30.515625923871994 16.143750488758087 3.9375001192092887 10.63125032186508 114.1875034570694 75.009377270936966 4.134375125169754 3.9375001192092887 3.9375001192092887 3.9375001192092887 10.63125032186508 1363.9500412940979
leaf_count=2038 38 33 116 155 82 20 54 580 381 21 20 20 20 54 6928
internal_value=-1.38629 -0.782732 -1.59373 -1.19438 -1.60882 -1.33842 -1.42939 -1.48923 -1.43414 -0.968753 -0.912678 -0.736434 -0.792734 -0.802854 -1.62708
internal_weight=0 531.759 1547.24 130.528 1520.47 96.075 140.372 125.803 81.5063 11.6156 14.5688 26.775 34.4531 14.5688 1380.09
internal_count=10560 2701 7859 663 7723 488 713 639 414 59 74 136 175 74 7010
is_linear=0
shrinkage=1


Tree=2
num_leaves=16
num_cat=0
split_feature=16 89 20 96 16 89 89 16 64 96 97 87 73 20 16
split_gain=5237.08 3182.91 234.174 126.559 76.4074 67.7618 57.6885 50.2304 46.6515 32.3788 26.6232 38.0159 18.7069 15.6718 13.13
threshold=170.54382324218753 0.0024460831191390757 61.355249404907234 0.78500366210937511 76.045074462890639 0.015010472387075426 0.0020125216105952863 78.251873016357436 0.39448380470275884 0.37000274658203131 0.17500305175781253 0.45801660418510443 1.7453162074089053 57.930383682250984 190.83828735351565
decision_type=2 2 2 2 2 2 2 2 2 2 2 2 2 2 2
left_child=1 6 4 -4 5 12 -1 -8 -2 10 13 -12 -3 -6 -10
right_child=8 2 3 -5 9 -7 7 -9 14 -11 11 -13 -14 -15 -16
leaf_value=-1.6142834922594822 -0.9630139506544404 -0.99010389692422951 -1.5581718611270734 -0.68414685670073216 -0.71500740029721899 -0.68328080982509953 -1.6402626073991606 -0.91148416155429879 -1.458856717199682 -0.64550582531659717 -0.72113943038846884 -1.5894689581433066 -1.4709504432129805 -1.1323261148406205 -1.6382192298954439
leaf_weight=223.25625675916672 4.1343751251697531 4.9218751490116146 19.490625590085987 10.040625303983687 41.934376269578934 13.584375411272047 6.4968751966953269 9.0562502741813642 16.537500500679016 435.68438819050789 4.1343751251697523 3.9375001192092896 9.4500002861022931 3.9375001192092887 1272.4031635224819
leaf_count=1134 21 25 99 51 213 69 33 46 84 2213 21 20 48 20 6463
internal_value=-1.38629 -0.979131 -0.713219 -1.261 -0.681965 -1.00355 -1.58834 -1.21591 -1.63377 -0.663603 -0.809768 -1.14471 -1.30628 -0.750829 -1.63592
internal_weight=0 785.925 547.116 29.5313 517.584 27.9563 238.809 15.5531 1293.08 489.628 53.9438 8.07188 14.3719 45.8719 1288.94
internal_count=10560 3992 2779 150 2629 142 1213 79 6568 2487 274 41 73 233 6547
is_linear=0
shrinkage=1


Tree=3
num_leaves=1
num_cat=0
split_feature=
split_gain=
threshold=
decision_type=
left_child=
right_child=
leaf_value=-34.538776391283193
leaf_weight=0
leaf_count=0
internal_value=
internal_weight=
internal_count=
is_linear=0
shrinkage=1


Tree=4
num_leaves=1
num_cat=0
split_feature=
split_gain=
threshold=
decision_type=
left_child=
right_child=
leaf_value=-34.538776391283193
leaf_weight=0
leaf_count=0
internal_value=
internal_weight=
internal_count=
is_linear=0
shrinkage=1


Tree=5
num_leaves=16
num_cat=0
split_feature=18 91 20 16 86 96 70 68 96 96 70 16 94 74 70
split_gain=3769.31 2476.84 880.204 477.857 516.092 318.839 237.762 178.08 291.613 140.875 134.348 90.5071 71.4448 40.9755 23.0081
threshold=19.085571289062504 0.041139364242553718 79.990291595458999 234.01702880859378 0.96781030297279369 1.439994812011719 0.042653828859329231 0.019305620342493061 1.2250061035156252 1.1800003051757815 0.13674831390380862 211.37001800537112 10.30788040161133 0.42012324929237371 0.027488321065902713
decision_type=2 2 2 2 2 2 2 2 2 2 2 2 2 2 2
left_child=1 9 7 -2 5 12 -6 13 -9 -1 -8 -10 -5 -3 -15
right_child=3 2 -4 4 6 -7 10 8 11 -11 -12 -13 -14 14 -16
leaf_value=-1.6321437423832399 -1.6352880632257996 -1.2427470914837815 -1.6267775677737126 -1.6402626073991606 -1.6402626073991606 -0.62438962228208039 -0.65476456203641165 -1.6303997628834608 -1.6402626073991606 -0.62438962228208039 -1.6402626073991606 -0.63836952574699435 -0.77677057004964234 -0.89731072276129598 -0.62861143209035919
leaf_weight=197.07188096642494 1125.7312840819359 4.5281251370906821 44.493751347064972 144.11250436306 14.56875044107437 14.175000429153441 59.259376794099808 20.278125613927841 3.9375001192092887 5.709375172853469 6.1031251847743979 42.918751299381256 3.9375001192092887 13.190625399351118 378.98438647389412
leaf_count=1001 5718 23 226 732 74 72 301 103 20 29 31 218 20 67 1925
internal_value=-1.38629 -1.0128 -0.777046 -1.58046 -1.32559 -1.53054 -0.909635 -0.695535 -0.996777 -1.60377 -0.746784 -0.722562 -1.6173 -0.644556 -0.637649
internal_weight=0 711.113 508.331 1367.89 242.156 162.225 79.9313 463.838 67.1344 202.781 65.3625 46.8563 148.05 396.703 392.175
internal_count=10560 3612 2582 6948 1230 824 406 2356 341 1030 332 238 752 2015 1992
is_linear=0
shrinkage=1


Tree=6
num_leaves=1
num_cat=0
split_feature=
split_gain=
threshold=
decision_type=
left_child=
right_child=
leaf_value=-34.538776391283193
leaf_weight=0
leaf_count=0
internal_value=
internal_weight=
internal_count=
is_linear=0
shrinkage=1


Tree=7
num_leaves=1
num_cat=0
split_feature=
split_gain=
threshold=
decision_type=
left_child=
right_child=
leaf_value=-34.538776391283193
leaf_weight=0
leaf_count=0
internal_value=
internal_weight=
internal_count=
is_linear=0
shrinkage=1


Tree=8
num_leaves=1
num_cat=0
split_feature=
split_gain=
threshold=
decision_type=
left_child=
right_child=
leaf_value=-34.538776391283193
leaf_weight=0
leaf_count=0
internal_value=
internal_weight=
internal_count=
is_linear=0
shrinkage=1


Tree=9
num_leaves=1
num_cat=0
split_feature=
split_gain=
threshold=
decision_type=
left_child=
right_child=
leaf_value=-34.538776391283193
leaf_weight=0
leaf_count=0
internal_value=
internal_weight=
internal_count=
is_linear=0
shrinkage=1


Tree=10
num_leaves=1
num_cat=0
split_feature=
split_gain=
threshold=
decision_type=
left_child=
right_child=
leaf_value=-34.538776391283193
leaf_weight=0
leaf_count=0
internal_value=
internal_weight=
internal_count=
is_linear=0
shrinkage=1


Tree=11
num_leaves=1
num_cat=0
split_feature=
split_gain=
threshold=
decision_type=
left_child=
right_child=
leaf_value=-34.538776391283193
leaf_weight=0
leaf_count=0
internal_value=
internal_weight=
internal_count=
is_linear=0
shrinkage=1


Tree=12
num_leaves=1
num_cat=0
split_feature=
split_gain=
threshold=
decision_type=
left_child=
right_child=
leaf_value=-34.538776391283193
leaf_weight=0
leaf_count=0
internal_value=
internal_weight=
internal_count=
is_linear=0
shrinkage=1


Tree=13
num_leaves=1
num_cat=0
split_feature=
split_gain=
threshold=
decision_type=
left_child=
right_child=
leaf_value=-34.538776391283193
leaf_weight=0
leaf_count=0
internal_value=
internal_weight=
internal_count=
is_linear=0
shrinkage=1


Tree=14
num_leaves=1
num_cat=0
split_feature=
split_gain=
threshold=
decision_type=
left_child=
right_child=
leaf_value=-34.538776391283193
leaf_weight=0
leaf_count=0
internal_value=
internal_weight=
internal_count=
is_linear=0
shrinkage=1


Tree=15
num_leaves=1
num_cat=0
split_feature=
split_gain=
threshold=
decision_type=
left_child=
right_child=
leaf_value=-34.538776391283193
leaf_weight=0
leaf_count=0
internal_value=
internal_weight=
internal_count=
is_linear=0
shrinkage=1


Tree=16
num_leaves=1
num_cat=0
split_feature=
split_gain=
threshold=
decision_type=
left_child=
right_child=
leaf_value=-34.538776391283193
leaf_weight=0
leaf_count=0
internal_value=
internal_weight=
internal_count=
is_linear=0
shrinkage=1


Tree=17
num_leaves=1
num_cat=0
split_feature=
split_gain=
threshold=
decision_type=
left_child=
right_child=
leaf_value=-34.538776391283193
leaf_weight=0
leaf_count=0
internal_value=
internal_weight=
internal_count=
is_linear=0
shrinkage=1


Tree=18
num_leaves=1
num_cat=0
split_feature=
split_gain=
threshold=
decision_type=
left_child=
right_child=
leaf_value=-34.538776391283193
leaf_weight=0
leaf_count=0
internal_value=
internal_weight=
internal_count=
is_linear=0
shrinkage=1


Tree=19
num_leaves=1
num_cat=0
split_feature=
split_gain=
threshold=
decision_type=
left_child=
right_child=
leaf_value=-34.538776391283193
leaf_weight=0
leaf_count=0
internal_value=
internal_weight=
internal_count=
is_linear=0
shrinkage=1


Tree=20
num_leaves=16
num_cat=0
split_feature=97 96 15 75 16 18 18 28 96 18 89 16 17 54 16
split_gain=3867.42 1893.61 1330.63 748.135 431.32 240.833 224.496 172.663 127.719 97.724 83.8439 68.7619 44.2735 27.9533 52.3636
threshold=0.56999969482421886 1.390007019042969 128.28571319580081 0.69499969482421886 223.94615173339847 15.080808639526369 58.293468475341804 0.20013996958732608 1.3249969482421877 60.350223541259773 0.0092857037670910376 268.13951110839849 67.039447784423842 0.45999908447265631 219.99259948730472
decision_type=2 2 2 2 2 2 2 2 2 2 2 2 2 2 2
left_child=3 2 -2 6 -5 7 12 -4 -6 -3 -7 -8 13 -1 -15
right_child=1 9 5 4 8 10 11 -9 -10 -11 -12 -13 -14 14 -16
leaf_value=-1.6305051906559758 -1.6287185962046484 -1.6336488509856379 -1.6402626073991606 -1.6402626073991606 -0.64184448456931542 -1.3632063387308659 -1.5894689581433066 -0.62438962228208039 -1.4915982681137343 -0.62438962228208039 -0.63918157274644372 -0.62438962228208039 -1.0597637587608291 -1.6402626073991606 -0.72597692079378862
leaf_weight=1270.8281634747982 69.300002098083496 151.20000457763672 17.521875530481342 32.287500977516174 57.290626734495163 6.4968751966953269 3.9375001192092887 10.828125327825544 8.0718752443790418 3.9375001192092887 419.14688768982887 11.812500357627867 5.5125001668930045 6.8906252086162549 3.9375001192092896
leaf_count=6455 352 768 89 164 291 33 20 55 41 20 2129 60 28 35 20
internal_value=-1.38629 -0.994361 -0.812429 -1.57615 -1.04221 -0.687827 -1.61616 -1.25226 -0.746784 -1.60803 -0.650233 -0.865659 -1.62535 -1.62778 -1.3078
internal_weight=0 678.431 523.294 1400.57 97.65 453.994 1302.92 28.35 65.3625 155.138 425.644 15.75 1287.17 1281.66 10.8281
internal_count=10560 3446 2658 7114 496 2306 6618 144 332 788 2162 80 6538 6510 55
is_linear=0
shrinkage=1


Tree=21
num_leaves=1
num_cat=0
split_feature=
split_gain=
threshold=
decision_type=
left_child=
right_child=
leaf_value=0
leaf_weight=0
leaf_count=0
internal_value=
internal_weight=
internal_count=
is_linear=0
shrinkage=1


Tree=22
num_leaves=16
num_cat=0
split_feature=96 86 89 75 19 68 18 16 16 97 97 16 86 97 94
split_gain=2893.28 253.654 177.199 102.904 73.0773 68.2625 52.4041 47.7161 49.6329 41.2005 27.2337 22.2507 53.3578 20.4048 29.2592
threshold=0.41500091552734381 0.99911832809448253 0.0020125216105952863 0.26999664306640631 61.764705657958991 0.0038392355199903254 20.507125854492191 162.1847839355469 78.251873016357436 0.51999664306640636 0.055000305175781257 79.112850189208999 0.97738495469093334 0.17500305175781253 11.363940715789797
decision_type=2 2 2 2 2 2 2 2 2 2 2 2 2 2 2
left_child=2 3 -1 5 7 9 -7 8 -4 10 -2 12 -5 -10 -15
right_child=1 -3 4 11 -6 6 -8 -9 13 -11 -12 -13 -14 14 -16
leaf_value=0.39064051988929832 -0.12117026526725153 0.3578074443861029 0.2869780491699217 -0.1891878479085134 0.36211278445917527 0.46872218761496331 -0.20504053244903619 0.3349576377969215 -0.14064748061822741 -0.24068026529188935 0.28427406583513348 -0.21914332126945502 0.57947929338436266 0.43037011198976372 -0.23867674624244195
leaf_weight=523.2027639746666 7.9793373942375174 34.121284008026123 17.406226545572281 15.113630279898645 42.603090658783913 4.9726619422435752 64.659130468964577 19.264510989189148 56.113624811172485 9.5186158120632154 39.09506943821907 1056.93859244138 4.7468034625053397 6.446761026978491 4.398542732000351
leaf_count=2001 48 136 75 87 170 23 399 79 316 55 188 6900 23 34 26
internal_value=0 -0.179924 0.336241 -0.195175 0.141607 -0.0243299 -0.156925 0.0509547 -0.0138964 0.138814 0.215549 -0.215202 -0.00547022 -0.0921098 0.159024
internal_weight=0 1237.15 669.436 1203.02 146.233 126.225 69.6318 103.63 84.3652 56.593 47.0744 1076.8 19.8604 66.9589 10.8453
internal_count=10560 7859 2701 7723 700 713 422 530 451 291 236 7010 110 376 60
is_linear=0
shrinkage=0.2


Tree=23
num_leaves=16
num_cat=0
split_feature=16 86 16 90 96 67 18 75 96 91 96 16 68 89 15
split_gain=2651.41 1093.64 85.3685 84.1807 29.1969 23.016 22.1673 33.7068 17.726 17.5879 12.8095 12.0954 29.0996 8.9657 18.8549
threshold=170.54382324218753 0.99678692221641552 77.658088684082045 0.010315395891666414 0.65000152587890636 0.85922750830650341 21.773214340209964 0.51000213623046886 0.69499969482421886 0.0033661425113677983 0.60500335693359386 190.83828735351565 0.012324948329478504 0.0064662140794098386 78.49002838134767
decision_type=2 2 2 2 2 2 2 2 2 2 2 2 2 2 2
left_child=1 2 3 -1 -3 11 7 -4 9 -5 -11 12 -2 14 -8
right_child=5 4 6 8 -6 -7 13 -9 -10 10 -12 -13 -14 -15 -16
leaf_value=-0.19834799834619574 -0.20663651437613659 -0.20927375896783082 -0.16368185399835633 0.46883838854286913 0.38931621005616956 0.15363997359873466 0.053085539455484942 0.40792333934025593 0.40419985480893666 -0.21135335288398865 0.23432328600548533 -0.22877810184744934 0.43766507125143295 0.3934560289649649 0.35588479323798333
leaf_weight=20.646119058132172 11.440959021449087 173.03016065061092 7.5185481309890774 4.2669217139482489 3.3219818472862235 6.4274432808160773 9.080616742372511 9.1466575562953931 24.609858751296997 5.7979402244091016 4.6472180187702179 982.21712318062782 3.7142117470502845 553.27210086584091 87.376491129398346
leaf_count=118 66 1119 36 20 16 30 41 35 95 28 19 6454 18 2121 344
internal_value=0 0.248767 0.357236 0.128672 -0.197998 -0.223611 0.377804 0.150042 0.300375 0.126701 -0.0130647 -0.226042 -0.0487318 0.383646 0.327379
internal_weight=0 902.715 726.362 59.9681 176.352 1003.8 666.394 16.6652 39.3219 14.7121 10.4452 997.372 15.1552 649.729 96.4571
internal_count=10560 3992 2857 280 1135 6568 2577 71 162 67 47 6538 84 2506 385
is_linear=0
shrinkage=0.2


Tree=24
num_leaves=1
num_cat=0
split_feature=
split_gain=
threshold=
decision_type=
left_child=
right_child=
leaf_value=0
leaf_weight=0
leaf_count=0
internal_value=
internal_weight=
internal_count=
is_linear=0
shrinkage=1


Tree=25
num_leaves=1
num_cat=0
split_feature=
split_gain=
threshold=
decision_type=
left_child=
right_child=
leaf_value=0
leaf_weight=0
leaf_count=0
internal_value=
internal_weight=
internal_count=
is_linear=0
shrinkage=1


Tree=26
num_leaves=16
num_cat=0
split_feature=18 91 16 20 89 70 94 70 96 68 96 16 20 74 76
split_gain=1864.99 912.236 331.453 280.977 240.472 100.344 92.0155 81.9771 69.6385 39.8174 112.226 29.617 21.6038 17.2185 13.9519
threshold=19.085571289062504 0.041139364242553718 233.01506042480472 79.990291595458999 0.028020177967846397 0.042653828859329231 10.30788040161133 0.1314155459403992 1.1800003051757815 0.019305620342493061 1.2250061035156252 211.37001800537112 54.946996688842781 0.39073054492473608 -0.014999389648437498
decision_type=2 2 2 2 2 2 2 2 2 2 2 2 2 2 2
left_child=1 8 14 9 5 -4 -6 12 -1 13 -11 -12 -7 -3 -2
right_child=2 3 4 -5 6 7 -8 -9 -10 10 11 -13 -14 -15 -16
leaf_value=-0.22163447821926671 0.13382660599393306 -0.019659551548874672 -0.23194822150297215 -0.21434018199485691 -0.21898164922357741 0.40142704402738821 0.39923976571589515 -0.17875608485646105 0.39864153151268128 -0.22428963162072743 -0.23380940845576659 0.3970708136054133 -0.044246716871592762 0.39450800682272785 -0.22773799704931089
leaf_weight=153.86498588323593 4.2900967001914969 4.0463211685419074 15.481276661157606 34.608006224036217 105.43913470208645 86.271730467677116 10.598117008805273 11.926276311278341 7.5975066721439353 16.54268915951252 3.140869438648223 56.880989730358124 4.5817247480154029 521.37125019729137 866.1391818895936
leaf_count=1001 26 19 101 226 684 332 42 73 29 103 20 218 21 1996 5669
internal_value=0 0.232135 -0.169119 0.339824 0.0420331 0.242737 -0.162517 0.314237 -0.192448 0.371683 0.236938 0.364058 0.378952 0.391318 -0.225956
internal_weight=0 798.053 1104.73 636.59 234.298 118.261 116.037 102.78 161.462 601.982 76.5645 60.0219 90.8535 525.418 870.429
internal_count=10560 3612 6948 2582 1253 527 726 426 1030 2356 341 238 353 2015 5695
is_linear=0
shrinkage=0.2


Tree=27
num_leaves=1
num_cat=0
split_feature=
split_gain=
threshold=
decision_type=
left_child=
right_child=
leaf_value=0
leaf_weight=0
leaf_count=0
internal_value=
internal_weight=
internal_count=
is_linear=0
shrinkage=1


Tree=28
num_leaves=1
num_cat=0
split_feature=
split_gain=
threshold=
decision_type=
left_child=
right_child=
leaf_value=0
leaf_weight=0
leaf_count=0
internal_value=
internal_weight=
internal_count=
is_linear=0
shrinkage=1


Tree=29
num_leaves=1
num_cat=0
split_feature=
split_gain=
threshold=
decision_type=
left_child=
right_child=
leaf_value=0
leaf_weight=0
leaf_count=0
internal_value=
internal_weight=
internal_count=
is_linear=0
shrinkage=1


Tree=30
num_leaves=1
num_cat=0
split_feature=
split_gain=
threshold=
decision_type=
left_child=
right_child=
leaf_value=0
leaf_weight=0
leaf_count=0
internal_value=
internal_weight=
internal_count=
is_linear=0
shrinkage=1


Tree=31
num_leaves=1
num_cat=0
split_feature=
split_gain=
threshold=
decision_type=
left_child=
right_child=
leaf_value=0
leaf_weight=0
leaf_count=0
internal_value=
internal_weight=
internal_count=
is_linear=0
shrinkage=1


Tree=32
num_leaves=1
num_cat=0
split_feature=
split_gain=
threshold=
decision_type=
left_child=
right_child=
leaf_value=0
leaf_weight=0
leaf_count=0
internal_value=
internal_weight=
internal_count=
is_linear=0
shrinkage=1


Tree=33
num_leaves=1
num_cat=0
split_feature=
split_gain=
threshold=
decision_type=
left_child=
right_child=
leaf_value=0
leaf_weight=0
leaf_count=0
internal_value=
internal_weight=
internal_count=
is_linear=0
shrinkage=1


Tree=34
num_leaves=1
num_cat=0
split_feature=
split_gain=
threshold=
decision_type=
left_child=
right_child=
leaf_value=0
leaf_weight=0
leaf_count=0
internal_value=
internal_weight=
internal_count=
is_linear=0
shrinkage=1


Tree=35
num_leaves=1
num_cat=0
split_feature=
split_gain=
threshold=
decision_type=
left_child=
right_child=
leaf_value=0
leaf_weight=0
leaf_count=0
internal_value=
internal_weight=
internal_count=
is_linear=0
shrinkage=1


Tree=36
num_leaves=1
num_cat=0
split_feature=
split_gain=
threshold=
decision_type=
left_child=
right_child=
leaf_value=0
leaf_weight=0
leaf_count=0
internal_value=
internal_weight=
internal_count=
is_linear=0
shrinkage=1


Tree=37
num_leaves=1
num_cat=0
split_feature=
split_gain=
threshold=
decision_type=
left_child=
right_child=
leaf_value=0
leaf_weight=0
leaf_count=0
internal_value=
internal_weight=
internal_count=
is_linear=0
shrinkage=1


Tree=38
num_leaves=1
num_cat=0
split_feature=
split_gain=
threshold=
decision_type=
left_child=
right_child=
leaf_value=0
leaf_weight=0
leaf_count=0
internal_value=
internal_weight=
internal_count=
is_linear=0
shrinkage=1


Tree=39
num_leaves=1
num_cat=0
split_feature=
split_gain=
threshold=
decision_type=
left_child=
right_child=
leaf_value=0
leaf_weight=0
leaf_count=0
internal_value=
internal_weight=
internal_count=
is_linear=0
shrinkage=1


Tree=40
num_leaves=1
num_cat=0
split_feature=
split_gain=
threshold=
decision_type=
left_child=
right_child=
leaf_value=0
leaf_weight=0
leaf_count=0
internal_value=
internal_weight=
internal_count=
is_linear=0
shrinkage=1


Tree=41
num_leaves=16
num_cat=0
split_feature=97 96 15 75 89 16 18 94 18 18 18 16 73 17 75
split_gain=1915.66 690.627 560.795 299.13 151.642 132.005 80.4691 61.6037 78.9933 49.5359 45.7745 34.1841 29.9539 26.5621 14.7449
threshold=0.51000213623046886 1.390007019042969 135.50000000000003 0.69499969482421886 0.0092857037670910376 225.2133712768555 57.543575286865241 10.30788040161133 49.079765319824226 60.350223541259773 10.066014766693117 264.76255798339849 2.3991818428039555 69.14215469360353 0.62000274658203136
decision_type=2 2 2 2 2 2 2 2 2 2 2 2 2 2 2
left_child=3 2 -2 6 12 -5 13 10 -9 -3 -6 -8 -4 14 -1
right_child=1 9 4 5 7 -7 11 8 -10 -11 -12 -13 -14 -15 -16
leaf_value=-0.22436001079892245 -0.2173205418969657 -0.22396733217562656 -0.23435409928783227 -0.22423977103112006 -0.13005364294037156 0.35776378255303876 -0.23190073986337159 -0.21230390633101615 0.41331729527533634 0.40401455726141633 0.39929474202360038 0.42212213031123524 0.43521552401672658 0.32880457404647778 -0.059556572984612234
leaf_weight=932.80125739425421 75.172403112053871 126.19946832954884 19.904583856463436 21.567750886082649 6.6084749698638907 56.226497873663902 4.4574340879917136 15.681902080774305 16.637792125344276 5.2327573597431174 582.32464483380318 11.301928147673605 3.0870119929313651 3.5339670032262793 22.233109593391418
leaf_count=6079 487 823 126 140 41 222 29 86 64 20 2234 44 15 15 135
internal_value=0 0.2226 0.299617 -0.180995 0.359935 0.196409 -0.211128 0.378601 0.109758 -0.198965 0.393355 0.237136 -0.144453 -0.218498 -0.220523
internal_weight=0 850.849 719.417 1052.12 644.244 77.7942 974.328 621.253 32.3197 131.432 588.933 15.7594 22.9916 958.568 955.034
internal_count=10560 3896 3053 6664 2566 362 6302 2425 150 843 2275 73 141 6229 6214
is_linear=0
shrinkage=0.2


Tree=42
num_leaves=1
num_cat=0
split_feature=
split_gain=
threshold=
decision_type=
left_child=
right_child=
leaf_value=0
leaf_weight=0
leaf_count=0
internal_value=
internal_weight=
internal_count=
is_linear=0
shrinkage=1


Tree=43
num_leaves=16
num_cat=0
split_feature=75 89 91 89 18 97 18 86 95 89 16 86 16 84 73
split_gain=1648.91 205.455 121.091 119.553 68.726 47.3362 23.7743 16.2732 12.9063 12.9262 12.4002 22.2268 12.1804 16.685 12.0581
threshold=0.24500274658203128 0.004339418141171337 0.028613775968551639 0.0064662140794098386 33.293941497802741 0.54499816894531261 18.399739265441898 0.93952926993370067 2.7873919010162358 0.0011343355872668328 79.112850189208999 0.94939205050468456 76.575122833251967 0.15992630273103717 1.7585483789443972
decision_type=2 2 2 2 2 2 2 2 2 2 2 2 2 2 2
left_child=1 8 3 -2 5 -3 7 -5 9 -1 11 -8 13 -4 -11
right_child=2 4 12 6 -6 -7 10 -9 -10 14 -12 -13 -14 -15 -16
leaf_value=0.2941658260497011 0.2636530592573203 0.32226737746785827 0.32608167478591471 -0.091747074009933982 -0.10823443579553677 -0.20352111960528482 -0.22693175972497004 0.54438589133226734 0.2930243612599483 0.16364414004101924 -0.17305855523649594 0.48283769248354552 -0.20903805879986523 -0.22746252983659018 -0.18960489857127602
leaf_weight=16.059121981263161 44.936310052871704 32.146339111030102 4.0462541282176954 3.0490083172917357 80.542014889419079 8.7034082785248739 3.8122035786509505 3.4048340320587158 536.30289865285158 11.520972162485124 88.763661406934261 3.2861064299941063 756.464853733778 4.7176504731178284 5.8167567998170844
leaf_count=65 214 143 17 25 528 64 27 15 2198 52 718 16 6409 33 36
internal_value=0 0.235175 -0.174362 -0.008274 -0.00106293 0.210243 -0.127702 0.243856 0.285512 0.164881 -0.152717 0.10165 -0.206322 0.0281063 0.0451301
internal_weight=0 691.092 912.481 147.252 121.392 40.8497 102.316 6.45384 569.7 33.3969 95.862 7.09831 765.229 8.7639 17.3377
internal_count=10560 3086 7474 1015 735 207 801 40 2351 153 761 43 6459 50 88
is_linear=0
shrinkage=0.2


Tree=44
num_leaves=16
num_cat=0
split_feature=16 86 20 96 64 91 89 15 19 16 84 8 34 75 92
split_gain=1614.34 575.161 49.2989 37.7539 22.902 20.8773 18.5851 41.0773 14.031 8.22302 8.31988 10.8979 5.96708 5.84164 4.51062
threshold=183.46051025390628 0.99678692221641552 60.354904174804695 0.77500152587890636 0.39448380470275884 0.049717903137207038 0.0064662140794098386 77.549716949462905 58.627450942993171 80.964458465576186 0.064146544784307494 0.069419693201780333 0.010002136230468752 0.13500213623046878 -1.5655064582824705
decision_type=2 2 2 2 2 2 2 2 2 2 2 2 2 2 2
left_child=1 2 6 8 -2 9 7 14 -4 -3 -11 -12 13 -9 -1
right_child=4 5 3 -5 -6 -7 -8 12 -10 10 11 -13 -14 -15 -16
leaf_value=-0.023733748177815386 0.20419740729202226 -0.21951947976668773 0.14762786557484883 0.27259016575396589 -0.21417057948471965 0.39808589796336213 0.29334170263611697 -0.031213508587301431 -0.20750448715105851 -0.16030064119399101 -0.091558078881797955 0.39018962773568988 0.26336378164659185 0.25473752728094462 -0.28749012225369536
leaf_weight=4.5760002732276917 5.2704130560159674 98.503372445702553 6.0084704458713558 17.694739252328873 753.40514279156923 2.4686622619628897 556.05805289745331 5.8391639292240125 17.157671950757504 30.419679842889309 5.8930367156863195 2.7570561692118645 78.511786431074142 5.5966383665800095 5.9864327758550626
leaf_count=25 21 825 28 72 6505 10 2247 23 111 254 46 20 317 22 34
internal_value=0 0.1915 0.265771 0.0526209 -0.211264 -0.178381 0.279036 0.19989 -0.115396 -0.188725 -0.111085 0.06199 0.243704 0.10873 -0.173222
internal_weight=0 837.471 697.429 40.8609 758.676 140.042 656.568 100.51 23.1661 137.573 39.0698 8.65009 89.9476 11.4358 10.5624
internal_count=10560 4034 2879 211 6526 1155 2668 421 139 1145 320 66 362 45 59
is_linear=0
shrinkage=0.2


Tree=45
num_leaves=1
num_cat=0
split_feature=
split_gain=
threshold=
decision_type=
left_child=
right_child=
leaf_value=0
leaf_weight=0
leaf_count=0
internal_value=
internal_weight=
internal_count=
is_linear=0
shrinkage=1


Tree=46
num_leaves=1
num_cat=0
split_feature=
split_gain=
threshold=
decision_type=
left_child=
right_child=
leaf_value=0
leaf_weight=0
leaf_count=0
internal_value=
internal_weight=
internal_count=
is_linear=0
shrinkage=1


Tree=47
num_leaves=16
num_cat=0
split_feature=18 91 16 20 89 20 94 97 96 85 96 74 70 70 97
split_gain=1123.92 508.649 217.159 162.982 129.557 54.8776 53.535 44.9722 44.0526 31.4609 72.3833 28.7431 13.2341 12.4684 18.3395
threshold=20.507125854492191 0.041139364242553718 233.01506042480472 80.629821777343764 0.028020177967846397 55.05430984497071 10.30788040161133 0.40000152587890631 1.1800003051757815 0.81320622563362133 1.254997253417969 0.47253991663455969 0.12490421533584596 0.032341867685318 1.2399978637695315
decision_type=2 2 2 2 2 2 2 2 2 2 2 2 2 2 2
left_child=1 8 -2 9 5 7 -6 -4 -1 13 -11 -12 -9 14 -3
right_child=2 3 4 -5 6 -7 -8 12 -10 10 11 -13 -14 -15 -16
leaf_value=-0.20674467725596407 -0.21438238341039706 -0.21482699509557557 -0.22918411623700954 -0.21180443095567836 -0.20425027417731073 -0.23217611239003566 0.28157562772761363 0.30775178239544765 0.30453498482747116 -0.18830882050788045 -0.2447411966915293 0.28785701953653925 -0.0035415731033182369 0.30219356000277986 0.33434186965839302
leaf_weight=124.37536250799894 652.07296358793974 4.6281388849019987 7.4429040998220435 28.577299639582634 76.805490605533123 11.039882995188234 10.287969529628752 74.093177489936352 7.1271118968725196 18.087039567530155 4.2992795407772055 70.80481044203043 5.8976177498698226 480.18640307337046 5.12698894739151
leaf_count=1049 5610 20 62 244 646 82 41 301 29 136 23 294 38 1965 20
internal_value=0 0.177818 -0.160058 0.254532 0.0308337 0.187994 -0.146862 0.241047 -0.179035 0.277386 0.170869 0.257369 0.284801 0.297646 0.0737989
internal_weight=0 743.212 837.64 611.71 185.567 98.4736 87.0935 87.4337 131.502 583.133 93.1911 75.1041 79.9908 489.942 9.75513
internal_count=10560 3780 6780 2702 1170 483 687 401 1078 2458 453 317 339 2005 40
is_linear=0
shrinkage=0.2


Tree=48
num_leaves=1
num_cat=0
split_feature=
split_gain=
threshold=
decision_type=
left_child=
right_child=
leaf_value=0
leaf_weight=0
leaf_count=0
internal_value=
internal_weight=
internal_count=
is_linear=0
shrinkage=1


Tree=49
num_leaves=1
num_cat=0
split_feature=
split_gain=
threshold=
decision_type=
left_child=
right_child=
leaf_value=0
leaf_weight=0
leaf_count=0
internal_value=
internal_weight=
internal_count=
is_linear=0
shrinkage=1


Tree=50
num_leaves=1
num_cat=0
split_feature=
split_gain=
threshold=
decision_type=
left_child=
right_child=
leaf_value=0
leaf_weight=0
leaf_count=0
internal_value=
internal_weight=
internal_count=
is_linear=0
shrinkage=1


Tree=51
num_leaves=1
num_cat=0
split_feature=
split_gain=
threshold=
decision_type=
left_child=
right_child=
leaf_value=0
leaf_weight=0
leaf_count=0
internal_value=
internal_weight=
internal_count=
is_linear=0
shrinkage=1


Tree=52
num_leaves=1
num_cat=0
split_feature=
split_gain=
threshold=
decision_type=
left_child=
right_child=
leaf_value=0
leaf_weight=0
leaf_count=0
internal_value=
internal_weight=
internal_count=
is_linear=0
shrinkage=1


Tree=53
num_leaves=1
num_cat=0
split_feature=
split_gain=
threshold=
decision_type=
left_child=
right_child=
leaf_value=0
leaf_weight=0
leaf_count=0
internal_value=
internal_weight=
internal_count=
is_linear=0
shrinkage=1


Tree=54
num_leaves=1
num_cat=0
split_feature=
split_gain=
threshold=
decision_type=
left_child=
right_child=
leaf_value=0
leaf_weight=0
leaf_count=0
internal_value=
internal_weight=
internal_count=
is_linear=0
shrinkage=1


Tree=55
num_leaves=1
num_cat=0
split_feature=
split_gain=
threshold=
decision_type=
left_child=
right_child=
leaf_value=0
leaf_weight=0
leaf_count=0
internal_value=
internal_weight=
internal_count=
is_linear=0
shrinkage=1


Tree=56
num_leaves=1
num_cat=0
split_feature=
split_gain=
threshold=
decision_type=
left_child=
right_child=
leaf_value=0
leaf_weight=0
leaf_count=0
internal_value=
internal_weight=
internal_count=
is_linear=0
shrinkage=1


Tree=57
num_leaves=1
num_cat=0
split_feature=
split_gain=
threshold=
decision_type=
left_child=
right_child=
leaf_value=0
leaf_weight=0
leaf_count=0
internal_value=
internal_weight=
internal_count=
is_linear=0
shrinkage=1


Tree=58
num_leaves=1
num_cat=0
split_feature=
split_gain=
threshold=
decision_type=
left_child=
right_child=
leaf_value=0
leaf_weight=0
leaf_count=0
internal_value=
internal_weight=
internal_count=
is_linear=0
shrinkage=1


Tree=59
num_leaves=1
num_cat=0
split_feature=
split_gain=
threshold=
decision_type=
left_child=
right_child=
leaf_value=0
leaf_weight=0
leaf_count=0
internal_value=
internal_weight=
internal_count=
is_linear=0
shrinkage=1


Tree=60
num_leaves=1
num_cat=0
split_feature=
split_gain=
threshold=
decision_type=
left_child=
right_child=
leaf_value=0
leaf_weight=0
leaf_count=0
internal_value=
internal_weight=
internal_count=
is_linear=0
shrinkage=1


Tree=61
num_leaves=1
num_cat=0
split_feature=
split_gain=
threshold=
decision_type=
left_child=
right_child=
leaf_value=0
leaf_weight=0
leaf_count=0
internal_value=
internal_weight=
internal_count=
is_linear=0
shrinkage=1


Tree=62
num_leaves=16
num_cat=0
split_feature=97 96 16 75 16 89 18 18 49 18 16 75 17 91 77
split_gain=1152.31 381.6 303.346 193.925 128.216 85.7773 55.9925 32.5794 49.6634 31.233 27.6301 24.2326 15.8116 15.3813 9.62826
threshold=0.51000213623046886 1.390007019042969 190.83828735351565 0.62000274658203136 224.42631530761722 0.0092857037670910376 56.94520568847657 14.859217643737795 0.28375315666198736 60.350223541259773 264.76255798339849 0.62000274658203136 71.60965728759767 0.28111755847930914 0.54000091552734386
decision_type=2 2 2 2 2 2 2 2 2 2 2 2 2 2 2
left_child=3 2 -2 6 -5 11 12 8 -7 -3 -8 -4 -1 -6 -9
right_child=1 9 5 4 13 7 10 14 -10 -11 -12 -13 -14 -15 -16
leaf_value=-0.20961258101835822 -0.21249418035461357 -0.20908669623070539 -0.22095535958849091 -0.22109114480358963 0.31060393774224693 -0.22248728091296727 -0.21816538832998122 0.30192808172552943 0.30117475253016951 0.3065465776146663 0.3374600422143994 0.41244778204744548 0.31305202573621949 -0.068514921207999027 0.096765500133902518
leaf_weight=711.9579309746623 56.169038541615009 96.837368942797184 17.310766398906711 30.774682074785233 55.228734210133553 12.380006261169912 5.2147691100835827 543.45919564366341 17.462758451700211 4.9384758025407782 11.419481948018072 2.8079067617654792 2.3227664381265631 4.6402189284563056 9.30648525059223
leaf_count=6065 468 823 143 250 224 101 45 2216 72 20 47 11 9 24 42
internal_value=0 0.176364 0.232038 -0.165247 0.110679 0.273464 -0.199465 0.287485 0.0839382 -0.184067 0.163274 -0.132553 -0.207913 0.28122 0.298474
internal_weight=0 760.672 658.896 821.559 90.6436 602.727 730.915 582.608 29.8428 101.776 16.6343 20.1187 714.281 59.869 552.766
internal_count=10560 3896 3053 6664 498 2585 6166 2431 173 843 92 154 6074 248 2258
is_linear=0
shrinkage=0.2


Tree=63
num_leaves=1
num_cat=0
split_feature=
split_gain=
threshold=
decision_type=
left_child=
right_child=
leaf_value=0
leaf_weight=0
leaf_count=0
internal_value=
internal_weight=
internal_count=
is_linear=0
shrinkage=1


Tree=64
num_leaves=16
num_cat=0
split_feature=91 89 18 97 15 86 75 16 16 16 17 89 96 98 17
split_gain=1013.16 239.311 54.9167 40.3314 18.1039 17.286 16.5041 22.4609 16.4929 30.088 17.8455 16.0264 11.8214 11.3973 10.2863
threshold=0.028613775968551639 0.004339418141171337 31.580686569213871 0.52500152587890636 78.49002838134767 0.99678692221641552 0.23000335693359378 281.99784851074224 78.251873016357436 143.74502563476565 51.16963195800782 0.0060763179790228614 0.36499786376953131 0.79499816894531261 32.197584152221687
decision_type=2 2 2 2 2 2 2 2 2 2 2 2 2 2 2
left_child=1 5 3 -3 11 8 7 13 -1 10 14 -4 -6 -2 -10
right_child=6 2 4 -5 12 -7 -8 -9 9 -11 -12 -13 -14 -15 -16
leaf_value=0.29975742179301229 -0.1768619143676621 0.26235927157265232 0.34833247581910332 -0.21092101498798221 -0.0094265981409332161 0.25077188105082665 -0.19361918034949491 0.36210705397676757 0.15162542277860699 0.28569147758780772 0.3399110761458965 -0.034487595030387307 -0.1776098920634058 0.29804022565246741 -0.15833855177992573
leaf_weight=19.392802491784096 17.142903067171581 33.320943295955658 5.4426999986171749 9.188242591917513 21.212766662240028 448.64182670414448 575.73049227148294 4.8036438375711432 5.3359289169311586 18.353266917169094 4.3364890068769446 22.283574163913727 78.881383955478668 2.2916328758001319 21.692117094993591
leaf_count=85 156 175 23 102 147 2160 6486 20 26 85 25 157 775 13 125
internal_value=0 0.168778 -0.0368618 0.160061 -0.102352 0.236429 -0.186813 -0.0251461 0.143319 0.0822996 -0.0367171 0.0406604 -0.141967 -0.120864 -0.0971449
internal_weight=0 688.082 170.33 42.5092 127.82 517.752 599.969 24.2382 69.1106 49.7178 31.3645 27.7263 100.094 19.4345 27.028
internal_count=10560 3885 1379 277 1102 2506 6675 189 346 261 176 180 922 169 151
is_linear=0
shrinkage=0.2


Tree=65
num_leaves=16
num_cat=0
split_feature=16 86 16 89 74 16 84 98 16 96 16 28 65 86 18
split_gain=1034.09 318.967 33.7614 30.8696 20.2939 16.7609 14.4161 10.8875 10.0109 21.5519 9.87151 9.76648 9.36032 8.08778 14.4111
threshold=162.1847839355469 0.99678692221641552 78.251873016357436 0.0044372207485139379 0.38745509088039404 82.452747344970717 0.064146544784307494 0.23999786376953128 190.83828735351565 0.77500152587890636 84.388645172119155 0.41525343060493475 0.9865424931049348 0.97867560386657726 24.265231132507328
decision_type=2 2 2 2 2 2 2 2 2 2 2 2 2 2 2
left_child=1 2 3 -1 11 -3 10 -5 9 -6 -7 -2 -11 -4 -15
right_child=4 5 13 7 8 6 -8 -9 -10 12 -12 -13 -14 14 -16
leaf_value=-0.22700657834436988 -0.08368910145341002 -0.2057450115058419 0.25262979007927855 -0.15206175886058695 -0.25649614178001329 0.28712035773245348 0.18145439560166862 0.18182985258384204 -0.20604772949323247 0.36261827906476662 -0.18488005889717882 0.36049380126608704 -0.063872433679441357 -0.10658079501238071 0.21077982603118139
leaf_weight=11.083715781569479 4.3174468725919715 77.321929596364498 377.96074482053518 4.351087123155593 9.8286595344543475 2.008530952036387 9.1722170263528806 38.222099088132381 553.39567209035158 4.8000767081975919 15.075212359428404 3.6573596298694611 3.6038338467478752 5.9439975023269644 154.19251231849194
leaf_count=92 38 869 1815 26 77 22 65 177 6436 20 163 14 25 34 687
internal_value=0 0.164912 0.221584 0.0703024 -0.196823 -0.158863 -0.0207982 0.147705 -0.201244 -0.0554285 -0.129387 0.120019 0.179727 0.23667 0.199
internal_weight=0 695.332 591.754 53.6569 579.603 103.578 26.256 42.5732 571.628 18.2326 17.0837 7.97481 8.40391 538.097 160.137
internal_count=10560 3950 2831 295 6610 1119 250 203 6558 122 185 52 45 2536 721
is_linear=0
shrinkage=0.2


Tree=66
num_leaves=1
num_cat=0
split_feature=
split_gain=
threshold=
decision_type=
left_child=
right_child=
leaf_value=0
leaf_weight=0
leaf_count=0
internal_value=
internal_weight=
internal_count=
is_linear=0
shrinkage=1


Tree=67
num_leaves=1
num_cat=0
split_feature=
split_gain=
threshold=
decision_type=
left_child=
right_child=
leaf_value=0
leaf_weight=0
leaf_count=0
internal_value=
internal_weight=
internal_count=
is_linear=0
shrinkage=1


Tree=68
num_leaves=16
num_cat=0
split_feature=18 91 16 20 89 96 70 70 96 85 96 74 49 86 97
split_gain=710.842 299.082 158.432 93.7336 85.3275 49.4502 39.0459 29.3034 28.9055 19.5651 50.6947 19.1109 14.8836 11.2826 6.40313
threshold=20.148297309875492 0.041139364242553718 230.1801452636719 80.629821777343764 0.028020177967846397 1.3249969482421877 0.042653828859329231 0.1314155459403992 1.1800003051757815 0.73505526781082164 1.1800003051757815 0.45415282249450689 0.4882339239120484 0.98101511597633373 0.66500091552734386
decision_type=2 2 2 2 2 2 2 2 2 2 2 2 2 2 2
left_child=1 8 -2 9 6 -6 -4 14 -1 -3 13 -12 -7 -11 -8
right_child=2 3 4 -5 5 12 7 -9 -10 10 11 -13 -14 -15 -16
leaf_value=-0.19368343535295474 -0.20707125218783326 0.25628017022048449 -0.21026512616474827 -0.20045511769676133 -0.21255882148563715 0.31761015393063763 0.26530710456751372 -0.14609354529527124 0.26038168700563141 -0.20156190249738726 -0.2306230196395429 0.23548405051881827 -0.12552112504287447 0.25900142216841221 0.021614665224767807
leaf_weight=92.165303267538548 477.28176222741604 365.23713625967503 10.246144331991671 20.786671735346317 61.453267365694046 10.756703712046145 63.725786373019218 8.4445791915059072 5.9712910354137412 16.105770155787472 3.6496167927980414 98.008202470839024 4.2217298746109 2.4514327198266974 4.6259673088788977
leaf_count=1037 5505 1780 119 240 699 50 309 76 29 137 22 481 38 12 26
internal_value=0 0.153491 -0.148869 0.215437 0.0210607 -0.133137 0.156461 0.20539 -0.166055 0.233245 0.16326 0.21875 0.192712 -0.140721 0.248814
internal_weight=0 604.375 640.756 506.239 163.474 76.4317 87.0425 76.7963 98.1366 485.452 120.215 101.658 14.9784 18.5572 68.3518
internal_count=10560 3738 6822 2672 1317 787 530 411 1066 2432 652 503 88 149 335
is_linear=0
shrinkage=0.2


Tree=69
num_leaves=1
num_cat=0
split_feature=
split_gain=
threshold=
decision_type=
left_child=
right_child=
leaf_value=0
leaf_weight=0
leaf_count=0
internal_value=
internal_weight=
internal_count=
is_linear=0
shrinkage=1


Tree=70
num_leaves=1
num_cat=0
split_feature=
split_gain=
threshold=
decision_type=
left_child=
right_child=
leaf_value=0
leaf_weight=0
leaf_count=0
internal_value=
internal_weight=
internal_count=
is_linear=0
shrinkage=1


Tree=71
num_leaves=1
num_cat=0
split_feature=
split_gain=
threshold=
decision_type=
left_child=
right_child=
leaf_value=0
leaf_weight=0
leaf_count=0
internal_value=
internal_weight=
internal_count=
is_linear=0
shrinkage=1


Tree=72
num_leaves=1
num_cat=0
split_feature=
split_gain=
threshold=
decision_type=
left_child=
right_child=
leaf_value=0
leaf_weight=0
leaf_count=0
internal_value=
internal_weight=
internal_count=
is_linear=0
shrinkage=1


Tree=73
num_leaves=1
num_cat=0
split_feature=
split_gain=
threshold=
decision_type=
left_child=
right_child=
leaf_value=0
leaf_weight=0
leaf_count=0
internal_value=
internal_weight=
internal_count=
is_linear=0
shrinkage=1


Tree=74
num_leaves=1
num_cat=0
split_feature=
split_gain=
threshold=
decision_type=
left_child=
right_child=
leaf_value=0
leaf_weight=0
leaf_count=0
internal_value=
internal_weight=
internal_count=
is_linear=0
shrinkage=1


Tree=75
num_leaves=1
num_cat=0
split_feature=
split_gain=
threshold=
decision_type=
left_child=
right_child=
leaf_value=0
leaf_weight=0
leaf_count=0
internal_value=
internal_weight=
internal_count=
is_linear=0
shrinkage=1


Tree=76
num_leaves=1
num_cat=0
split_feature=
split_gain=
threshold=
decision_type=
left_child=
right_child=
leaf_value=0
leaf_weight=0
leaf_count=0
internal_value=
internal_weight=
internal_count=
is_linear=0
shrinkage=1


Tree=77
num_leaves=1
num_cat=0
split_feature=
split_gain=
threshold=
decision_type=
left_child=
right_child=
leaf_value=0
leaf_weight=0
leaf_count=0
internal_value=
internal_weight=
internal_count=
is_linear=0
shrinkage=1


Tree=78
num_leaves=1
num_cat=0
split_feature=
split_gain=
threshold=
decision_type=
left_child=
right_child=
leaf_value=0
leaf_weight=0
leaf_count=0
internal_value=
internal_weight=
internal_count=
is_linear=0
shrinkage=1


Tree=79
num_leaves=1
num_cat=0
split_feature=
split_gain=
threshold=
decision_type=
left_child=
right_child=
leaf_value=0
leaf_weight=0
leaf_count=0
internal_value=
internal_weight=
internal_count=
is_linear=0
shrinkage=1


Tree=80
num_leaves=1
num_cat=0
split_feature=
split_gain=
threshold=
decision_type=
left_child=
right_child=
leaf_value=0
leaf_weight=0
leaf_count=0
internal_value=
internal_weight=
internal_count=
is_linear=0
shrinkage=1


Tree=81
num_leaves=1
num_cat=0
split_feature=
split_gain=
threshold=
decision_type=
left_child=
right_child=
leaf_value=0
leaf_weight=0
leaf_count=0
internal_value=
internal_weight=
internal_count=
is_linear=0
shrinkage=1


Tree=82
num_leaves=1
num_cat=0
split_feature=
split_gain=
threshold=
decision_type=
left_child=
right_child=
leaf_value=0
leaf_weight=0
leaf_count=0
internal_value=
internal_weight=
internal_count=
is_linear=0
shrinkage=1


Tree=83
num_leaves=16
num_cat=0
split_feature=97 96 16 75 89 16 18 16 94 18 18 75 17 95 85
split_gain=733.595 236.517 209.072 107.448 84.2414 69.8761 33.127 24.0162 23.8026 33.2181 22.7498 16.2216 10.4209 6.6395 12.1678
threshold=0.48999786376953131 1.4599990844726565 183.46051025390628 0.62000274658203136 0.0092857037670910376 225.72042083740237 56.158782958984382 264.76255798339849 10.30788040161133 36.473855972290046 9.7591114044189471 0.62000274658203136 71.60965728759767 6.1068708896636972 0.82195687294006359
decision_type=2 2 2 2 2 2 2 2 2 2 2 2 2 2 2
left_child=3 2 -2 6 11 -5 12 -8 10 -10 -6 -4 -1 -12 -15
right_child=1 -3 4 5 8 -7 7 -9 9 -11 13 -13 -14 14 -16
leaf_value=-0.2006193849826616 -0.20409317307148567 -0.20777206103224116 -0.21052114380848061 -0.21176100166414083 -0.13175240003562408 0.23240237788367218 -0.21037372203797344 0.30726884915646346 -0.21921751150231461 0.23503662263364139 0.26031761801816228 0.31465787074917329 0.23717421667942074 -0.18450495509395959 0.26096540984362587
leaf_weight=517.96837483346462 49.838321231305599 67.626618593931198 20.354046836495403 21.252142049372196 6.107939548790454 42.501925349235535 5.9277739599347106 9.0717050284147245 10.504606977105142 16.638737201690674 461.96498773992062 2.6599985510110846 2.1840095072984687 3.832921735942362 6.8108333498239517
leaf_count=5889 560 771 233 232 62 204 67 43 85 82 2259 11 9 20 33
internal_value=0 0.146147 0.187505 -0.161092 0.224407 0.0843424 -0.190331 0.102697 0.241432 0.0592381 0.251763 -0.14982 -0.198781 0.256719 0.100547
internal_weight=0 646.339 578.712 598.906 528.874 63.7541 535.152 14.9995 505.86 27.1433 478.717 23.014 520.152 472.609 10.6438
internal_count=10560 4116 3345 6444 2785 436 6008 110 2541 167 2374 244 5898 2312 53
is_linear=0
shrinkage=0.2


Tree=84
num_leaves=1
num_cat=0
split_feature=
split_gain=
threshold=
decision_type=
left_child=
right_child=
leaf_value=0
leaf_weight=0
leaf_count=0
internal_value=
internal_weight=
internal_count=
is_linear=0
shrinkage=1


Tree=85
num_leaves=16
num_cat=0
split_feature=91 89 18 97 97 75 6 74 97 20 42 96 96 86 19
split_gain=644.519 140.905 32.6473 23.2683 14.2651 19.828 18.0739 13.6912 13.9001 13.9433 17.1857 19.3901 14.0289 12.1519 11.1284
threshold=0.028613775968551639 0.004339418141171337 31.580686569213871 0.52500152587890636 0.28000640869140631 0.18000030517578128 0.21850487589836123 1.0544878840446474 0.23500061035156253 51.564664840698249 0.11652683466672899 0.35499572753906256 0.29000091552734381 0.99678692221641552 58.235294342041023
decision_type=2 2 2 2 2 2 2 2 2 2 2 2 2 2 2
left_child=1 13 3 -3 5 -2 -7 -4 9 10 11 -9 -11 14 -1
right_child=4 2 7 -5 -6 6 -8 8 -10 12 -12 -13 -14 -15 -16
leaf_value=0.052870496135585192 0.23200072094383023 0.20862021025633937 -0.16231907206867646 -0.20440408692264134 -0.19455321190973546 -0.14206523473860924 0.60275748510232807 0.12880998482126471 -0.16402743400517469 0.35989708550755117 -0.06786192363731347 0.84767759462282521 -0.065089753426325059 0.22185658443456691 0.22917612220291272
leaf_weight=35.428411208093166 6.3320607617497435 31.338163837790489 45.513516206294298 6.6061251759529105 336.69226189702749 102.24298708513379 1.3200084604322899 3.2059652879834157 17.957942493259907 3.4889521971344974 4.0372729450464249 2.8219605386257172 28.376085810363293 353.44919447600842 24.036353141069412
leaf_count=213 37 175 524 102 5180 1445 13 21 230 17 41 22 247 2160 133
internal_value=0 0.148475 -0.0223661 0.136712 -0.174132 -0.111565 -0.132572 -0.0796338 -0.0167951 0.0462618 0.25147 0.465346 -0.0185573 0.207783 0.124135
internal_weight=0 556.26 143.346 37.9443 446.587 109.895 103.563 105.402 59.8882 41.9302 10.0652 6.02793 31.865 412.914 59.4648
internal_count=10560 3885 1379 277 6675 1495 1458 1102 578 348 84 43 264 2506 346
is_linear=0
shrinkage=0.2


Tree=86
num_leaves=16
num_cat=0
split_feature=16 89 16 89 96 16 68 64 7 15 6 18 20 95 18
split_gain=669.523 192.138 30.2793 23.8816 14.5114 22.0418 12.7352 10.4914 8.47506 8.32398 7.2352 6.60641 6.44088 5.61024 14.2336
threshold=183.46051025390628 0.0014226480270735922 78.251873016357436 0.0044372207485139379 0.65000152587890636 149.56971740722659 0.023980755358934406 0.39448380470275884 0.0028150379657745366 65.891998291015639 0.15159794688224795 52.726562500000007 64.109508514404311 3.8731189966201787 43.253839492797859
decision_type=2 2 2 2 2 2 2 2 2 2 2 2 2 2 2
left_child=1 -1 3 -3 5 9 -7 -2 -5 -4 11 13 -10 -11 -15
right_child=7 2 4 8 -6 6 -8 -9 12 10 -12 -13 -14 14 -16
leaf_value=-0.17110823168108524 0.099812911258233245 -0.21303441776436857 -0.088512119776427645 -0.12770142050619276 0.23045772708046802 -0.31437589250612102 0.1637769708506743 -0.19698898695674291 0.18034261029747012 0.23193015656983809 -0.044870672743219028 -0.044477649697339139 -0.090927030037955991 0.074749481350811706 0.23271392992971524
leaf_weight=69.826555628329515 4.8199037611484519 11.805008620023726 4.7296626344323149 5.1263536959886542 257.26834701001644 6.0323723405599576 3.5330453217029572 409.67403132468462 29.683650560677052 81.218194484710693 5.5397788584232321 4.7895715460181227 3.9692447111010543 42.394203938543797 49.409429728984833
leaf_count=1043 21 147 31 27 1558 38 18 6505 150 449 29 25 26 229 264
internal_value=0 0.13987 0.182826 0.0360349 0.199149 0.158395 -0.137767 -0.193538 0.111856 0.173457 0.180215 0.187227 0.148347 0.193641 0.159767
internal_weight=0 575.325 505.499 50.5843 454.915 197.646 9.56542 414.494 38.7792 188.081 183.351 177.811 33.6529 173.022 91.8036
internal_count=10560 4034 2991 350 2641 1083 56 6526 203 1027 996 967 176 942 493
is_linear=0
shrinkage=0.2


Tree=87
num_leaves=1
num_cat=0
split_feature=
split_gain=
threshold=
decision_type=
left_child=
right_child=
leaf_value=0
leaf_weight=0
leaf_count=0
internal_value=
internal_weight=
internal_count=
is_linear=0
shrinkage=1


Tree=88
num_leaves=1
num_cat=0
split_feature=
split_gain=
threshold=
decision_type=
left_child=
right_child=
leaf_value=0
leaf_weight=0
leaf_count=0
internal_value=
internal_weight=
internal_count=
is_linear=0
shrinkage=1


Tree=89
num_leaves=16
num_cat=0
split_feature=18 91 16 20 89 96 70 20 96 85 96 18 74 49 70
split_gain=462.831 185.673 110.251 58.481 54.2001 33.188 23.9016 21.8041 19.2119 16.8499 38.078 23.9552 11.6289 10.0464 7.73353
threshold=20.507125854492191 0.041139364242553718 230.1801452636719 81.452026367187514 0.028020177967846397 1.3249969482421877 0.042653828859329231 55.05430984497071 1.1800003051757815 0.73505526781082164 1.3050003051757815 9.9016933441162127 0.55059805512428295 0.4882339239120484 0.13674831390380862
decision_type=2 2 2 2 2 2 2 2 2 2 2 2 2 2 2
left_child=1 8 -2 9 6 -6 -4 14 -1 -3 11 -11 -12 -7 -8
right_child=2 3 4 -5 5 13 7 -9 -10 10 12 -13 -14 -15 -16
leaf_value=-0.18240266556560725 -0.20121298138595908 0.22860258015098617 -0.20431605628532071 -0.20384913195532373 -0.20713321920254965 0.2662115538563668 0.23873508119094336 -0.21868357353184931 0.23576268170913398 0.1319713730614859 -0.11033476014416554 -0.25863664391147156 0.22499230640822609 -0.14135676645605758 -0.05925047946736825
leaf_weight=69.082710407674313 347.99056658521295 288.3965615555644 7.1770056374371043 14.584808249026535 44.062512464821339 9.351842172443865 51.035004064440727 4.9805606342852107 4.6933151334524146 11.636355146765711 4.3960815854370585 13.644119303673504 70.126742549240589 3.2633819356560698 3.7389814332127562
leaf_count=1049 5485 1791 115 233 691 50 313 54 29 74 32 151 421 37 35
internal_value=0 0.135891 -0.143579 0.189319 0.0186735 -0.125244 0.140543 0.181963 -0.155801 0.204091 0.133259 -0.0788436 0.205211 0.160779 0.218394
internal_weight=0 476.561 471.6 402.785 123.609 56.6777 66.9316 59.7545 73.776 388.2 99.8033 25.2805 74.5228 12.6152 54.774
internal_count=10560 3780 6780 2702 1295 778 517 402 1078 2469 678 225 453 87 348
is_linear=0
shrinkage=0.2


Tree=90
num_leaves=1
num_cat=0
split_feature=
split_gain=
threshold=
decision_type=
left_child=
right_child=
leaf_value=0
leaf_weight=0
leaf_count=0
internal_value=
internal_weight=
internal_count=
is_linear=0
shrinkage=1


Tree=91
num_leaves=1
num_cat=0
split_feature=
split_gain=
threshold=
decision_type=
left_child=
right_child=
leaf_value=0
leaf_weight=0
leaf_count=0
internal_value=
internal_weight=
internal_count=
is_linear=0
shrinkage=1


Tree=92
num_leaves=1
num_cat=0
split_feature=
split_gain=
threshold=
decision_type=
left_child=
right_child=
leaf_value=0
leaf_weight=0
leaf_count=0
internal_value=
internal_weight=
internal_count=
is_linear=0
shrinkage=1


Tree=93
num_leaves=1
num_cat=0
split_feature=
split_gain=
threshold=
decision_type=
left_child=
right_child=
leaf_value=0
leaf_weight=0
leaf_count=0
internal_value=
internal_weight=
internal_count=
is_linear=0
shrinkage=1


Tree=94
num_leaves=1
num_cat=0
split_feature=
split_gain=
threshold=
decision_type=
left_child=
right_child=
leaf_value=0
leaf_weight=0
leaf_count=0
internal_value=
internal_weight=
internal_count=
is_linear=0
shrinkage=1


Tree=95
num_leaves=1
num_cat=0
split_feature=
split_gain=
threshold=
decision_type=
left_child=
right_child=
leaf_value=0
leaf_weight=0
leaf_count=0
internal_value=
internal_weight=
internal_count=
is_linear=0
shrinkage=1


Tree=96
num_leaves=1
num_cat=0
split_feature=
split_gain=
threshold=
decision_type=
left_child=
right_child=
leaf_value=0
leaf_weight=0
leaf_count=0
internal_value=
internal_weight=
internal_count=
is_linear=0
shrinkage=1


Tree=97
num_leaves=1
num_cat=0
split_feature=
split_gain=
threshold=
decision_type=
left_child=
right_child=
leaf_value=0
leaf_weight=0
leaf_count=0
internal_value=
internal_weight=
internal_count=
is_linear=0
shrinkage=1


Tree=98
num_leaves=1
num_cat=0
split_feature=
split_gain=
threshold=
decision_type=
left_child=
right_child=
leaf_value=0
leaf_weight=0
leaf_count=0
internal_value=
internal_weight=
internal_count=
is_linear=0
shrinkage=1


Tree=99
num_leaves=1
num_cat=0
split_feature=
split_gain=
threshold=
decision_type=
left_child=
right_child=
leaf_value=0
leaf_weight=0
leaf_count=0
internal_value=
internal_weight=
internal_count=
is_linear=0
shrinkage=1


Tree=100
num_leaves=1
num_cat=0
split_feature=
split_gain=
threshold=
decision_type=
left_child=
right_child=
leaf_value=0
leaf_weight=0
leaf_count=0
internal_value=
internal_weight=
internal_count=
is_linear=0
shrinkage=1


Tree=101
num_leaves=1
num_cat=0
split_feature=
split_gain=
threshold=
decision_type=
left_child=
right_child=
leaf_value=0
leaf_weight=0
leaf_count=0
internal_value=
internal_weight=
internal_count=
is_linear=0
shrinkage=1


Tree=102
num_leaves=1
num_cat=0
split_feature=
split_gain=
threshold=
decision_type=
left_child=
right_child=
leaf_value=0
leaf_weight=0
leaf_count=0
internal_value=
internal_weight=
internal_count=
is_linear=0
shrinkage=1


Tree=103
num_leaves=1
num_cat=0
split_feature=
split_gain=
threshold=
decision_type=
left_child=
right_child=
leaf_value=0
leaf_weight=0
leaf_count=0
internal_value=
internal_weight=
internal_count=
is_linear=0
shrinkage=1


Tree=104
num_leaves=16
num_cat=0
split_feature=89 16 96 70 16 94 96 97 18 84 18 18 95 17 16
split_gain=478.984 293.411 149.446 78.1741 34.6165 16.9494 19.9622 14.9109 13.6678 10.3708 8.94294 8.00435 12.6473 5.23613 3.06591
threshold=0.021848091855645183 190.83828735351565 1.439994812011719 0.13674831390380862 221.53262329101565 10.30788040161133 1.3050003051757815 0.12999725341796878 60.685174942016609 0.15588269382715228 60.350223541259773 9.7591114044189471 3.3316292762756352 28.3075704574585 289.90306091308599
decision_type=2 2 2 2 2 2 2 2 2 2 2 2 2 2 2
left_child=3 -2 5 8 -5 7 -7 14 -1 -9 -4 12 -11 -6 -3
right_child=1 2 10 4 13 6 -8 9 -10 11 -12 -13 -14 -15 -16
leaf_value=-0.20188918110190773 -0.19892148390051778 -0.2393622230442165 -0.20370540422038413 -0.20444971422310032 -0.086662531026669168 0.24523382376396535 -0.1867300835159097 0.48723391445522246 0.24881536529334017 -0.29560953201739343 0.23552036250990105 0.23503820978461648 0.2103302204704042 0.2426345584967487 0.081982196403439511
leaf_weight=356.30340509861708 95.905814416706562 3.0294001102447501 38.167893517762423 10.738344646990297 2.0874250978231457 8.4756302833557147 8.6432752013206464 6.4026483744382849 2.7118715047836295 2.9477005265653116 1.9489150643348683 375.35015060380101 5.9973424226045609 25.857477337121964 1.9534279778599737
leaf_count=5500 1508 27 547 167 26 52 83 31 15 34 12 2344 41 154 19
internal_value=0 0.118867 0.18616 -0.169378 0.100756 0.221974 0.0271368 0.230404 -0.198485 0.234788 -0.182367 0.230582 0.0436056 0.218037 -0.113385
internal_weight=0 548.822 452.916 397.699 38.6832 412.8 17.1189 395.681 359.015 390.698 40.1168 384.295 8.94504 27.9449 4.98283
internal_count=10560 4698 3190 5862 347 2631 135 2496 5515 2450 559 2419 75 180 46
is_linear=0
shrinkage=0.2


Tree=105
num_leaves=1
num_cat=0
split_feature=
split_gain=
threshold=
decision_type=
left_child=
right_child=
leaf_value=0
leaf_weight=0
leaf_count=0
internal_value=
internal_weight=
internal_count=
is_linear=0
shrinkage=1


Tree=106
num_leaves=16
num_cat=0
split_feature=70 86 16 97 16 94 18 17 85 20 97 69 16 28 19
split_gain=410.413 81.8813 19.6053 18.1892 34.9202 14.0605 14.1457 17.7831 14.0175 12.4146 11.4587 12.1435 15.7296 16.9602 10.8064
threshold=0.027488321065902713 0.98818558454513561 79.112850189208999 0.47499847412109381 149.56971740722659 5.3257744312286386 45.98137283325196 21.07053375244141 0.7791525423526765 62.794712066650398 0.32499694824218756 0.0078762597404420393 162.1847839355469 0.064516037702560439 51.568626403808601
decision_type=2 2 2 2 2 2 2 2 2 2 2 2 2 2 2
left_child=1 3 8 4 9 6 7 -3 -2 -1 11 -4 -13 -14 -15
right_child=2 5 10 -5 -6 -7 -8 -9 -10 -11 -12 12 13 14 -16
leaf_value=-0.089721025240309116 0.26457706181857721 0.23028023370814044 -0.17802724045831991 -0.19287828809995319 0.28602080498254823 0.19254193636163683 0.30931328023259308 -0.15192130519853261 -0.20830836016781662 0.28209845379039084 -0.19011927077799079 -0.11549568351792974 0.51304358299051367 0.24507435312399994 -0.13787832870520988
leaf_weight=47.397073209285736 7.3763697817921621 7.1833770573139253 51.081815600395203 22.057007726281881 14.928928337991236 315.34838989377022 6.3609831854701033 15.117142047733067 3.7985735684633255 3.886462651193141 230.60752832889557 34.325846392661333 3.5146789476275435 4.9026382938027364 7.3909851722419262
leaf_count=582 47 55 980 444 85 2465 44 119 53 22 4886 591 28 39 120
internal_value=0 0.13626 -0.156722 -0.0355784 0.0168221 0.180352 0.0462331 -0.0288077 0.103834 -0.0615431 -0.165497 -0.109398 -0.0394711 0.125607 0.0148414
internal_weight=0 432.279 342.998 88.2695 66.2125 344.01 28.6615 22.3005 11.1749 51.2835 331.823 101.216 50.1341 15.8083 12.2936
internal_count=10560 3816 6744 1133 689 2683 218 174 100 604 6644 1758 778 187 159
is_linear=0
shrinkage=0.2


Tree=107
num_leaves=16
num_cat=0
split_feature=16 89 96 15 16 63 20 16 74 74 28 18 21 52 15
split_gain=438.09 114.891 26.3984 23.6224 12.8616 9.82643 9.56303 13.1058 9.02491 8.57086 7.3984 7.26059 7.25158 7.1253 6.56416
threshold=190.83828735351565 0.0014226480270735922 0.65000152587890636 74.558441162109389 143.74502563476565 0.15409185737371447 60.231290817260749 114.4677200317383 1.4851954579353335 0.38745509088039404 0.41525343060493475 53.134750366210945 0.058082941919565208 0.30406244099140173 82.875938415527358
decision_type=2 2 2 2 2 2 2 2 2 2 2 2 2 2 2
left_child=1 14 3 8 6 -6 11 -8 12 10 -2 13 -3 -5 -1
right_child=9 2 -4 4 5 -7 7 -9 -10 -11 -12 -13 -14 -15 -16
leaf_value=-0.18781722525112116 -0.21797004839427242 0.21692377986968656 0.20654815295460849 -0.10471616706356367 -0.29157154342010522 0.11484211883027085 -0.27061709674774531 0.23624994222611156 -0.2607045997924084 -0.19274289565739319 0.27167563236771802 -0.11085514681170459 -0.05964937555470215 0.17397953318815523 0.0011631190725560027
leaf_weight=43.643870957195759 2.1056077629327765 4.8567957170307698 215.42304187268019 3.7674744278192511 4.836737819015978 4.6844333708286285 4.9068262353539449 3.4930709078907967 6.9175180196762076 292.51675299927592 2.9830323904752731 3.869845423847436 17.297058772295713 141.05481856316328 8.8413816951215249
leaf_count=895 34 33 1684 22 30 27 44 16 62 6436 14 25 157 920 161
internal_value=0 0.12267 0.158245 0.10507 0.134096 -0.0916153 0.147776 -0.059838 -0.0612848 -0.188266 0.0690671 0.159505 0.000983835 0.166729 -0.155983
internal_weight=0 463.593 411.108 195.685 166.613 9.52117 157.092 8.3999 29.0714 297.605 5.08864 148.692 22.1539 144.822 52.4853
internal_count=10560 4076 3020 1336 1084 57 1027 60 252 6484 48 967 190 942 1056
is_linear=0
shrinkage=0.2


Tree=108
num_leaves=1
num_cat=0
split_feature=
split_gain=
threshold=
decision_type=
left_child=
right_child=
leaf_value=0
leaf_weight=0
leaf_count=0
internal_value=
internal_weight=
internal_count=
is_linear=0
shrinkage=1


Tree=109
num_leaves=1
num_cat=0
split_feature=
split_gain=
threshold=
decision_type=
left_child=
right_child=
leaf_value=0
leaf_weight=0
leaf_count=0
internal_value=
internal_weight=
internal_count=
is_linear=0
shrinkage=1


Tree=110
num_leaves=16
num_cat=0
split_feature=16 91 18 85 96 70 76 18 76 20 21 70 97 95 96
split_gain=306.33 106.315 68.4128 59.4553 108.058 23.5816 17.7115 12.0075 8.49435 8.28261 28.5236 5.29605 4.54468 4.53846 3.03991
threshold=230.1801452636719 0.034146338701248176 15.780468940734865 0.74198615550994884 1.3050003051757815 0.039411574602127082 0.48999786376953131 47.988630294799812 -0.014999389648437498 78.344451904296889 0.05023488216102124 0.02425363659858704 0.96499633789062511 2.2357287406921391 1.439994812011719
decision_type=2 2 2 2 2 2 2 2 2 2 2 2 2 2 2
left_child=2 9 5 7 13 -1 -7 11 -4 12 -11 -3 -2 -5 -6
right_child=1 3 8 4 14 6 -8 -9 -10 10 -12 -13 -14 -15 -16
leaf_value=-0.23800047788043008 -0.1969333043955678 -0.0088863488794280448 0.12399108435934077 0.13004653769083108 0.11368412324057303 0.21149359035157508 -0.27136951327981634 -0.2234161084720408 -0.1931798222482721 1.0796999514403764 -0.19966367765995419 0.21273489164994791 0.12232541077160664 -0.216062533954408 0.23296888366554389
leaf_weight=7.1800563819706431 44.364964965730906 4.3923192694783202 3.4207348488271228 1.5689285434782494 10.554444488137959 29.612546272575855 3.3859851993620387 2.5992386601865283 267.61658960022032 0.93775858730077688 2.715869702398777 239.12656509503722 1.8582223914563645 44.462863698601723 44.903244502842426
leaf_count=137 930 27 30 16 88 231 25 28 5709 20 59 1995 21 898 346
internal_value=0 0.111878 -0.153073 0.151058 0.0222506 0.0904749 0.161947 0.204174 -0.189177 -0.161185 0.128704 0.208738 -0.184099 -0.204266 0.210267
internal_weight=0 397.484 311.216 347.608 101.489 40.1786 32.9985 246.118 271.037 49.8768 3.65363 243.519 46.2232 46.0318 55.4577
internal_count=10560 4428 6132 3398 1348 393 256 2050 5739 1030 79 2022 951 914 434
is_linear=0
shrinkage=0.2


Tree=111
num_leaves=1
num_cat=0
split_feature=
split_gain=
threshold=
decision_type=
left_child=
right_child=
leaf_value=0
leaf_weight=0
leaf_count=0
internal_value=
internal_weight=
internal_count=
is_linear=0
shrinkage=1


Tree=112
num_leaves=1
num_cat=0
split_feature=
split_gain=
threshold=
decision_type=
left_child=
right_child=
leaf_value=0
leaf_weight=0
leaf_count=0
internal_value=
internal_weight=
internal_count=
is_linear=0
shrinkage=1


Tree=113
num_leaves=1
num_cat=0
split_feature=
split_gain=
threshold=
decision_type=
left_child=
right_child=
leaf_value=0
leaf_weight=0
leaf_count=0
internal_value=
internal_weight=
internal_count=
is_linear=0
shrinkage=1


Tree=114
num_leaves=1
num_cat=0
split_feature=
split_gain=
threshold=
decision_type=
left_child=
right_child=
leaf_value=0
leaf_weight=0
leaf_count=0
internal_value=
internal_weight=
internal_count=
is_linear=0
shrinkage=1


Tree=115
num_leaves=1
num_cat=0
split_feature=
split_gain=
threshold=
decision_type=
left_child=
right_child=
leaf_value=0
leaf_weight=0
leaf_count=0
internal_value=
internal_weight=
internal_count=
is_linear=0
shrinkage=1


Tree=116
num_leaves=1
num_cat=0
split_feature=
split_gain=
threshold=
decision_type=
left_child=
right_child=
leaf_value=0
leaf_weight=0
leaf_count=0
internal_value=
internal_weight=
internal_count=
is_linear=0
shrinkage=1


Tree=117
num_leaves=1
num_cat=0
split_feature=
split_gain=
threshold=
decision_type=
left_child=
right_child=
leaf_value=0
leaf_weight=0
leaf_count=0
internal_value=
internal_weight=
internal_count=
is_linear=0
shrinkage=1


Tree=118
num_leaves=1
num_cat=0
split_feature=
split_gain=
threshold=
decision_type=
left_child=
right_child=
leaf_value=0
leaf_weight=0
leaf_count=0
internal_value=
internal_weight=
internal_count=
is_linear=0
shrinkage=1


Tree=119
num_leaves=1
num_cat=0
split_feature=
split_gain=
threshold=
decision_type=
left_child=
right_child=
leaf_value=0
leaf_weight=0
leaf_count=0
internal_value=
internal_weight=
internal_count=
is_linear=0
shrinkage=1


Tree=120
num_leaves=1
num_cat=0
split_feature=
split_gain=
threshold=
decision_type=
left_child=
right_child=
leaf_value=0
leaf_weight=0
leaf_count=0
internal_value=
internal_weight=
internal_count=
is_linear=0
shrinkage=1


Tree=121
num_leaves=1
num_cat=0
split_feature=
split_gain=
threshold=
decision_type=
left_child=
right_child=
leaf_value=0
leaf_weight=0
leaf_count=0
internal_value=
internal_weight=
internal_count=
is_linear=0
shrinkage=1


Tree=122
num_leaves=1
num_cat=0
split_feature=
split_gain=
threshold=
decision_type=
left_child=
right_child=
leaf_value=0
leaf_weight=0
leaf_count=0
internal_value=
internal_weight=
internal_count=
is_linear=0
shrinkage=1


Tree=123
num_leaves=1
num_cat=0
split_feature=
split_gain=
threshold=
decision_type=
left_child=
right_child=
leaf_value=0
leaf_weight=0
leaf_count=0
internal_value=
internal_weight=
internal_count=
is_linear=0
shrinkage=1


Tree=124
num_leaves=1
num_cat=0
split_feature=
split_gain=
threshold=
decision_type=
left_child=
right_child=
leaf_value=0
leaf_weight=0
leaf_count=0
internal_value=
internal_weight=
internal_count=
is_linear=0
shrinkage=1


Tree=125
num_leaves=16
num_cat=0
split_feature=97 16 18 89 20 96 91 16 16 76 94 77 18 86 88
split_gain=322.691 124.446 99.0267 49.3223 34.0169 28.7043 26.7961 19.0278 9.79941 7.95764 7.04258 6.14003 5.74026 12.7217 4.21868
threshold=0.39000701904296881 190.83828735351565 15.080808639526369 0.0092857037670910376 79.990291595458999 1.439994812011719 0.1282567381858826 227.08184051513675 230.1801452636719 0.44499969482421881 6.2703979015350351 0.60499572753906261 54.534997940063484 0.96391797065734874 0.73358121514320385
decision_type=2 2 2 2 2 2 2 2 2 2 2 2 2 2 2
left_child=6 -2 4 9 -3 11 12 -8 -7 -4 -9 14 -1 -14 -5
right_child=1 2 3 5 -6 8 7 10 -10 -11 -12 -13 13 -15 -16
leaf_value=-0.19484753508863192 -0.19108863684199265 -0.19089763640639015 -0.20028689859386392 0.21291808683912841 0.20789664546200953 0.2698839437938913 -0.20250345718497076 -0.034836947069217847 -0.20744263282096953 0.2427951541318869 0.30379430948654962 -0.096185601067548809 0.31290594223973872 -0.20313514419677517 0.32837173277137499
leaf_weight=248.84758232720196 50.12603197991848 42.035430867224932 14.666883882135155 281.09529507160187 10.74214121699333 2.1377098858356467 7.2015642002224949 3.4254190549254409 8.8128411434590799 1.8228533715009678 8.6859362460672838 2.5073564425110808 2.8933858275413495 5.6274791061878204 13.256666369736193
leaf_count=5206 1057 878 331 2347 88 17 147 28 162 11 56 20 18 113 81
internal_value=0 0.104976 0.144333 0.18568 -0.109729 0.203733 -0.172271 0.0549407 -0.114261 -0.151307 0.20802 0.215463 -0.18932 -0.0279058 0.218118
internal_weight=0 427.203 377.077 324.3 52.7776 307.81 276.681 19.3129 10.9506 16.4897 12.1114 296.859 257.368 8.52086 294.352
internal_count=10560 4992 3935 2969 966 2627 5568 231 179 342 84 2448 5337 131 2428
is_linear=0
shrinkage=0.2


Tree=126
num_leaves=1
num_cat=0
split_feature=
split_gain=
threshold=
decision_type=
left_child=
right_child=
leaf_value=0
leaf_weight=0
leaf_count=0
internal_value=
internal_weight=
internal_count=
is_linear=0
shrinkage=1


Tree=127
num_leaves=16
num_cat=0
split_feature=91 84 84 16 15 97 84 16 91 7 70 33 94 43 18
split_gain=258.936 55.6385 19.3218 16.7657 22.3185 14.4691 15.1602 28.9198 14.5927 14.0727 14.0674 11.3965 11.1017 9.68238 10.2512
threshold=0.028613775968551639 0.077774163335561766 0.16856097429990771 162.1847839355469 77.847488403320327 0.28000640869140631 0.10069540515542032 114.4677200317383 0.17180502414703372 0.17527991533279422 0.02425363659858704 0.12500000000000003 10.202736377716066 0.79413920640945446 52.340141296386726
decision_type=2 2 2 2 2 2 2 2 2 2 2 2 2 2 2
left_child=1 -1 3 4 12 6 10 -8 9 11 -2 -9 -3 14 -6
right_child=5 2 -4 -5 13 -7 7 8 -10 -11 -12 -13 -14 -15 -16
leaf_value=0.18576394965245113 0.49272460926924561 0.19696398443579932 -0.11600862001936459 0.24409876448445927 -0.083784772220595646 -0.17907761810284936 -0.14557941307437675 0.36589469516832696 -0.092366628362864189 0.77852223779917207 -0.19624623738820396 -0.095411941169282297 -0.11748703924090989 0.24237649080072945 0.29161903744947881
leaf_weight=205.13389375805855 1.2315286546945561 32.112814713269472 30.821438120678067 17.239686418324709 55.217751618474722 176.97673091851175 20.164189547300339 6.8988946154713648 4.6498743221163741 2.2273079119622698 31.660245824605227 3.106882069259882 5.2212009094655505 4.4402253217995158 3.0714844167232505
leaf_count=2173 6 222 610 149 630 5180 449 59 62 26 840 53 38 44 19
internal_value=0 0.118316 0.02491 0.0619364 0.0305521 -0.148642 -0.0716273 0.0161108 0.209226 0.323863 -0.17045 0.222655 0.152988 -0.0423166 -0.0640033
internal_weight=0 353.258 148.125 117.303 100.063 246.916 69.9389 37.0471 16.883 12.2331 32.8918 10.0058 37.334 62.7295 58.2892
internal_count=10560 3885 1712 1102 953 6675 1495 649 200 138 846 112 260 693 649
is_linear=0
shrinkage=0.2


Tree=128
num_leaves=16
num_cat=0
split_feature=16 89 16 74 16 89 96 20 95 74 15 44 89 30 13
split_gain=288.497 65.7563 22.2522 11.8757 13.4513 11.7046 11.5718 8.61505 14.0179 15.33 6.8143 11.1243 12.8357 6.5206 6.53545
threshold=162.1847839355469 0.0011479380191303792 78.251873016357436 0.4879837185144425 219.99259948730472 0.0044372207485139379 0.65000152587890636 44.670684814453132 4.1286661624908456 1.0740979313850405 84.161254882812514 0.99814400076866161 0.0067010314669460067 -0.14551629871129987 0.014999389648437502
decision_type=2 2 2 2 2 2 2 2 2 2 2 2 2 2 2
left_child=1 -1 5 4 -2 -3 7 8 -4 -10 11 12 -9 14 -13
right_child=3 2 6 -5 -6 -7 -8 10 9 -11 -12 13 -14 -15 -16
leaf_value=-0.14726972297789739 0.2547722737730011 -0.20590982394245527 0.12591789447832327 -0.18608000965849575 -0.16111349056893939 0.058167307793780265 0.20112402184006514 -0.18688711021339866 0.091688740946553424 -0.33993587377222451 0.19892542025076274 0.22632768784372012 0.11142902435879554 0.26624449399807809 -0.16061601266414188
leaf_weight=34.948627032339573 5.3349646851420385 8.6176762096583825 25.922580972313881 213.86475020833313 7.4618936721235514 30.385208480060101 142.70759799331427 9.0491753406822699 6.4822418913245183 6.686813659965992 54.95550861954689 3.5261745043098953 15.917864728718994 16.045855231583118 3.4584143906831741
leaf_count=951 34 177 191 6377 199 203 1528 66 47 39 464 24 131 108 21
internal_value=0 0.11336 0.141494 -0.174882 0.0122678 -0.000180459 0.1609 0.120488 0.0405554 -0.127476 0.150839 0.0957811 0.00330587 0.196032 0.0347328
internal_weight=0 358.704 323.755 226.662 12.7969 39.0029 284.752 142.045 39.0916 13.1691 102.953 47.9975 24.967 23.0304 6.98459
internal_count=10560 3950 2999 6610 233 380 2619 1091 277 86 814 350 197 153 45
is_linear=0
shrinkage=0.2


Tree=129
num_leaves=1
num_cat=0
split_feature=
split_gain=
threshold=
decision_type=
left_child=
right_child=
leaf_value=0
leaf_weight=0
leaf_count=0
internal_value=
internal_weight=
internal_count=
is_linear=0
shrinkage=1


Tree=130
num_leaves=1
num_cat=0
split_feature=
split_gain=
threshold=
decision_type=
left_child=
right_child=
leaf_value=0
leaf_weight=0
leaf_count=0
internal_value=
internal_weight=
internal_count=
is_linear=0
shrinkage=1


Tree=131
num_leaves=16
num_cat=0
split_feature=18 91 16 20 89 96 89 96 97 20 18 74 74 96 70
split_gain=205.615 75.4643 53.2749 23.8275 23.0424 15.7687 12.195 28.9926 12.0625 12.6987 10.3067 10.1632 10.0688 8.9086 6.58188
threshold=20.507125854492191 0.041139364242553718 230.1801452636719 81.452026367187514 0.028020177967846397 1.3249969482421877 0.011861459817737343 1.3050003051757815 0.40000152587890631 55.05430984497071 9.9016933441162127 0.95510005950927745 0.47253991663455969 1.1800003051757815 0.038311004638671882
decision_type=2 2 2 2 2 2 2 2 2 2 2 2 2 2 2
left_child=1 13 -2 6 8 -6 14 10 -4 -10 11 -8 -9 -1 -3
right_child=2 3 4 -5 5 -7 7 12 9 -11 -12 -13 -14 -15 -16
leaf_value=-0.15894568809367671 -0.19160623863151427 -0.12817600874206342 -0.24049123056968358 -0.19683713465924496 -0.20085620830883211 0.11242600606199303 0.18268662508544617 -0.20235236830562178 0.19288856792406953 -0.20557759010242022 -0.26343733682322318 -0.27342066079380811 0.1947704953552471 0.21297059792219164 0.20956728001120717
leaf_weight=38.52212518453598 184.35432741604745 2.3449778109788886 3.4331186916679135 7.2682178337126961 22.874861309304837 8.9376601688563806 6.1441600956022757 2.6810770649462929 31.446629628539085 3.5614847652614108 9.1863619685173017 2.8655330017209053 53.797871068120003 2.7608281150460234 146.37336448580027
leaf_count=1049 5485 18 99 233 691 87 53 27 344 74 154 24 558 29 1635
internal_value=0 0.114963 -0.13513 0.159535 0.0130693 -0.11284 0.171129 0.105184 0.117267 0.152351 -0.114369 0.0376217 0.175919 -0.134074 0.204242
internal_weight=0 271.945 254.608 230.662 70.2538 31.8125 223.393 74.675 38.4412 35.0081 18.1961 9.00969 56.4789 41.283 148.718
internal_count=10560 3780 6780 2702 1295 778 2469 816 517 418 231 77 585 1078 1653
is_linear=0
shrinkage=0.2


Tree=132
num_leaves=1
num_cat=0
split_feature=
split_gain=
threshold=
decision_type=
left_child=
right_child=
leaf_value=0
leaf_weight=0
leaf_count=0
internal_value=
internal_weight=
internal_count=
is_linear=0
shrinkage=1


Tree=133
num_leaves=1
num_cat=0
split_feature=
split_gain=
threshold=
decision_type=
left_child=
right_child=
leaf_value=0
leaf_weight=0
leaf_count=0
internal_value=
internal_weight=
internal_count=
is_linear=0
shrinkage=1


Tree=134
num_leaves=1
num_cat=0
split_feature=
split_gain=
threshold=
decision_type=
left_child=
right_child=
leaf_value=0
leaf_weight=0
leaf_count=0
internal_value=
internal_weight=
internal_count=
is_linear=0
shrinkage=1


Tree=135
num_leaves=1
num_cat=0
split_feature=
split_gain=
threshold=
decision_type=
left_child=
right_child=
leaf_value=0
leaf_weight=0
leaf_count=0
internal_value=
internal_weight=
internal_count=
is_linear=0
shrinkage=1


Tree=136
num_leaves=1
num_cat=0
split_feature=
split_gain=
threshold=
decision_type=
left_child=
right_child=
leaf_value=0
leaf_weight=0
leaf_count=0
internal_value=
internal_weight=
internal_count=
is_linear=0
shrinkage=1


Tree=137
num_leaves=1
num_cat=0
split_feature=
split_gain=
threshold=
decision_type=
left_child=
right_child=
leaf_value=0
leaf_weight=0
leaf_count=0
internal_value=
internal_weight=
internal_count=
is_linear=0
shrinkage=1


Tree=138
num_leaves=1
num_cat=0
split_feature=
split_gain=
threshold=
decision_type=
left_child=
right_child=
leaf_value=0
leaf_weight=0
leaf_count=0
internal_value=
internal_weight=
internal_count=
is_linear=0
shrinkage=1


Tree=139
num_leaves=1
num_cat=0
split_feature=
split_gain=
threshold=
decision_type=
left_child=
right_child=
leaf_value=0
leaf_weight=0
leaf_count=0
internal_value=
internal_weight=
internal_count=
is_linear=0
shrinkage=1


Tree=140
num_leaves=1
num_cat=0
split_feature=
split_gain=
threshold=
decision_type=
left_child=
right_child=
leaf_value=0
leaf_weight=0
leaf_count=0
internal_value=
internal_weight=
internal_count=
is_linear=0
shrinkage=1


Tree=141
num_leaves=1
num_cat=0
split_feature=
split_gain=
threshold=
decision_type=
left_child=
right_child=
leaf_value=0
leaf_weight=0
leaf_count=0
internal_value=
internal_weight=
internal_count=
is_linear=0
shrinkage=1


Tree=142
num_leaves=1
num_cat=0
split_feature=
split_gain=
threshold=
decision_type=
left_child=
right_child=
leaf_value=0
leaf_weight=0
leaf_count=0
internal_value=
internal_weight=
internal_count=
is_linear=0
shrinkage=1


Tree=143
num_leaves=1
num_cat=0
split_feature=
split_gain=
threshold=
decision_type=
left_child=
right_child=
leaf_value=0
leaf_weight=0
leaf_count=0
internal_value=
internal_weight=
internal_count=
is_linear=0
shrinkage=1


Tree=144
num_leaves=1
num_cat=0
split_feature=
split_gain=
threshold=
decision_type=
left_child=
right_child=
leaf_value=0
leaf_weight=0
leaf_count=0
internal_value=
internal_weight=
internal_count=
is_linear=0
shrinkage=1


Tree=145
num_leaves=1
num_cat=0
split_feature=
split_gain=
threshold=
decision_type=
left_child=
right_child=
leaf_value=0
leaf_weight=0
leaf_count=0
internal_value=
internal_weight=
internal_count=
is_linear=0
shrinkage=1


Tree=146
num_leaves=16
num_cat=0
split_feature=89 16 96 70 18 90 96 15 65 55 18 18 77 97 95
split_gain=220.154 149.648 68.8543 23.4985 12.4375 24.2585 9.56267 8.21507 6.55424 5.79455 4.64471 3.8985 3.34212 3.15028 2.32602
threshold=0.01608810015022755 190.83828735351565 1.439994812011719 0.13674831390380862 20.758144378662113 0.06307885050773622 0.90499877929687511 219.27922058105472 0.98966008424758922 0.35499572753906256 61.025959014892585 60.350223541259773 0.63500213623046886 0.24500274658203128 3.0364600419998173
decision_type=2 2 2 2 2 2 2 2 2 2 2 2 2 2 2
left_child=3 9 4 10 5 -3 -7 -5 14 -2 -1 -4 13 -6 -8
right_child=1 2 11 7 12 6 8 -9 -10 -11 -12 -13 -14 -15 -16
leaf_value=-0.1979524843406118 -0.19567181660903976 -0.21292466640249691 -0.19265383383040555 -0.20060491875088063 -0.0098063027572809474 -0.25895046917317893 0.048854614136878756 0.20799288112417741 -0.18298501206248388 0.39104684638225373 0.20343082395421863 0.20886961144036401 -0.032353514512521657 0.21623681287268015 0.21320397873911429
leaf_weight=177.06991311907768 60.816005814820528 8.3007382545620185 21.932702807709578 2.5953586753457776 2.4985897894948712 2.0789842624217263 3.8053143266588441 8.1457334384322149 1.8952101934701193 0.68085546046495338 1.1607473120093335 1.0118671059608448 2.2409731745719901 190.206906568259 36.337455209344625
leaf_count=5206 1817 95 595 73 20 17 47 79 42 22 11 12 20 2103 401
internal_value=0 0.0924202 0.156485 -0.178025 0.187227 0.100741 0.159758 0.109264 0.180465 -0.189176 -0.195338 -0.174946 0.210482 0.213306 0.197625
internal_weight=0 331.806 270.309 188.972 247.364 52.4177 44.117 10.7411 42.038 61.4969 178.231 22.9446 194.946 192.705 40.1428
internal_count=10560 5191 3352 5369 2745 602 507 152 490 1839 5217 607 2143 2123 448
is_linear=0
shrinkage=0.2


Tree=147
num_leaves=1
num_cat=0
split_feature=
split_gain=
threshold=
decision_type=
left_child=
right_child=
leaf_value=0
leaf_weight=0
leaf_count=0
internal_value=
internal_weight=
internal_count=
is_linear=0
shrinkage=1


Tree=148
num_leaves=16
num_cat=0
split_feature=91 89 18 16 97 20 21 84 16 67 15 70 42 87 16
split_gain=161.056 35.5347 14.9409 13.0431 12.6256 12.6209 12.7037 11.7207 16.9054 9.86287 12.1208 9.40868 9.02364 8.69663 8.62338
threshold=0.028613775968551639 0.0014226480270735922 21.773214340209964 78.251873016357436 0.28000640869140631 46.260110855102546 0.091871190816164031 0.10069540515542032 114.4677200317383 0.43192443251609808 280.52632141113287 0.02425363659858704 0.081052478402853026 0.68124181032180797 76.575122833251967
decision_type=2 2 2 2 2 2 2 2 2 2 2 2 2 2 2
left_child=1 -1 -3 -4 7 6 -5 11 -9 10 -10 -2 -11 -8 -6
right_child=4 2 3 5 14 -7 13 8 9 12 -12 -13 -14 -15 -16
leaf_value=0.1778915173291083 0.38727959079938229 0.19433551475663724 0.12339201030912568 0.26433837607038307 0.16813925280955733 -0.081592262733298782 -0.053677999589109363 -0.1255093571844216 0.5582157837940005 0.35957122718780599 0.036870112491053708 -0.19208298637554005 -0.094369989947715172 0.33306342748090279 -0.17790558024604447
leaf_weight=137.45575530081987 1.1804789900779749 20.368760317564011 30.304114442318678 9.7201098091900331 2.9482131078839293 60.581547936424613 20.081386549398307 15.652005314826967 4.2230273932218578 2.3795502576976997 3.0882292781025171 22.332358246669173 6.6379386503249407 2.6304382123053065 125.4804619057104
leaf_count=2001 6 241 273 98 30 936 307 449 35 18 59 840 88 29 5150
internal_value=0 0.105194 0.0356488 0.00943801 -0.135517 -0.0276886 0.0730013 -0.0558 0.0230122 0.165378 0.338003 -0.162996 0.0254168 -0.00888638 -0.169962
internal_weight=0 281.142 143.686 123.318 183.922 93.0135 32.4319 55.4936 31.9808 16.3287 7.31126 23.5128 9.01749 22.7118 128.429
internal_count=10560 3885 1884 1643 6675 1370 434 1495 649 200 94 846 106 336 5180
is_linear=0
shrinkage=0.2


Tree=149
num_leaves=16
num_cat=0
split_feature=16 16 89 96 16 2 18 20 89 98 20 28 15 89 18
split_gain=186.119 41.3725 17.7537 16.4926 11.0174 10.2762 10.0557 11.0149 13.2653 10.9842 9.09539 8.43678 12.6848 8.48056 32.8938
threshold=190.83828735351565 78.251873016357436 0.0044372207485139379 0.65000152587890636 162.1847839355469 0.78324672579765331 54.534997940063484 51.564664840698249 0.0040694954805076131 0.41500091552734381 67.108325958251967 0.010382562875747682 80.559684753417983 0.0020125216105952863 46.625474929809577
decision_type=2 2 2 2 2 2 2 2 2 2 2 2 2 2 2
left_child=1 2 -1 4 5 -3 7 8 -7 -10 11 13 -13 14 -9
right_child=-2 3 -4 -5 -6 6 -8 10 9 -11 -12 12 -14 -15 -16
leaf_value=-0.19896864022415905 -0.17524369900908512 -0.37068815980362574 0.038104683797258093 0.18628637635901885 -0.24541448409036049 -0.11790078924020271 -0.24877966954609132 0.81003689027966763 0.12927153715997652 -0.26960872907951355 -0.20462617278343087 -0.1251894312019492 0.17209051818511106 0.2018765161091729 -0.19883086480146228
leaf_weight=22.971731515601277 154.98136574961245 1.8909894227981556 28.08030791580677 111.17277782782912 3.9860812760889521 15.060166105628012 3.2421139832586041 3.8287155833095303 38.91152323782444 2.9724454283714286 2.5992154460400334 7.3692175243049851 25.99054922349751 26.324443310499191 1.9516852255910633
leaf_count=805 6484 13 203 1578 76 170 63 63 376 22 56 79 295 214 63
internal_value=0 0.0952335 -0.0685705 0.129324 0.082111 0.0921427 0.098967 0.107986 0.0430799 0.100964 0.162288 0.176856 0.106421 0.250044 0.469404
internal_weight=0 296.352 51.052 245.3 134.127 130.141 128.25 125.008 56.9441 41.884 68.0638 65.4646 33.3598 32.1048 5.7804
internal_count=10560 4076 1008 3068 1490 1414 1401 1338 568 398 770 714 374 340 126
is_linear=0
shrinkage=0.2


Tree=150
num_leaves=1
num_cat=0
split_feature=
split_gain=
threshold=
decision_type=
left_child=
right_child=
leaf_value=0
leaf_weight=0
leaf_count=0
internal_value=
internal_weight=
internal_count=
is_linear=0
shrinkage=1


Tree=151
num_leaves=1
num_cat=0
split_feature=
split_gain=
threshold=
decision_type=
left_child=
right_child=
leaf_value=0
leaf_weight=0
leaf_count=0
internal_value=
internal_weight=
internal_count=
is_linear=0
shrinkage=1


Tree=152
num_leaves=16
num_cat=0
split_feature=16 91 18 85 96 76 20 20 49 18 18 75 17 42 70
split_gain=140.14 42.914 34.6155 26.5579 49.6437 11.1048 8.70677 32.1808 8.50432 7.74949 5.55821 3.73695 13.1071 9.16611 3.78895
threshold=230.1801452636719 0.037492185831069953 9.9016933441162127 0.74198615550994884 1.3050003051757815 1.0000000180025095e-35 78.344451904296889 78.96195220947267 0.05325558781623841 21.050136566162113 47.988630294799812 0.51999664306640636 14.379290103912355 0.080372456461191191 0.02425363659858704
decision_type=2 2 2 2 2 2 2 2 2 2 2 2 2 2 2
left_child=2 6 8 10 -5 9 -2 -8 -1 -4 11 14 -13 -14 -3
right_child=1 3 5 4 -6 -7 7 -9 -10 -11 -12 12 13 -15 -16
leaf_value=-0.23425457574650457 -0.17049923813484535 -0.020634088031637698 0.20649028058218777 -0.19836263643956312 0.17828934773075286 -0.18577716383722787 1.2568326650022827 -0.20207382079178862 0.20182244764052976 -0.19679781234686244 -0.20736470567229418 0.20634894646048557 -0.63767437483646416 -0.0090887867939765457 0.20436208268274159
leaf_weight=2.0693739838898173 25.215900911018256 3.0759669840335837 5.0598854199051839 24.307899761945009 32.999487228691578 145.48525696154684 0.82272806391119901 2.2830728609114885 13.195861820131539 3.0576282031834126 1.4546475261449803 11.685401152819397 1.3275623861700285 3.0825647711753845 112.1268871538341
leaf_count=63 958 27 59 909 429 5724 21 62 178 108 28 169 14 46 1765
internal_value=0 0.0980902 -0.144529 0.132315 0.018526 -0.173075 -0.131581 0.184391 0.142707 0.0545835 0.181435 0.185743 0.0954738 -0.198309 0.198355
internal_weight=0 218.382 168.868 190.06 57.3074 153.603 28.3217 3.1058 15.2652 8.11751 132.753 131.298 16.0955 4.41013 115.203
internal_count=10560 4428 6132 3387 1338 5891 1041 83 241 167 2049 2021 229 60 1792
is_linear=0
shrinkage=0.2


Tree=153
num_leaves=1
num_cat=0
split_feature=
split_gain=
threshold=
decision_type=
left_child=
right_child=
leaf_value=0
leaf_weight=0
leaf_count=0
internal_value=
internal_weight=
internal_count=
is_linear=0
shrinkage=1


Tree=154
num_leaves=1
num_cat=0
split_feature=
split_gain=
threshold=
decision_type=
left_child=
right_child=
leaf_value=0
leaf_weight=0
leaf_count=0
internal_value=
internal_weight=
internal_count=
is_linear=0
shrinkage=1


Tree=155
num_leaves=1
num_cat=0
split_feature=
split_gain=
threshold=
decision_type=
left_child=
right_child=
leaf_value=0
leaf_weight=0
leaf_count=0
internal_value=
internal_weight=
internal_count=
is_linear=0
shrinkage=1


Tree=156
num_leaves=1
num_cat=0
split_feature=
split_gain=
threshold=
decision_type=
left_child=
right_child=
leaf_value=0
leaf_weight=0
leaf_count=0
internal_value=
internal_weight=
internal_count=
is_linear=0
shrinkage=1


Tree=157
num_leaves=1
num_cat=0
split_feature=
split_gain=
threshold=
decision_type=
left_child=
right_child=
leaf_value=0
leaf_weight=0
leaf_count=0
internal_value=
internal_weight=
internal_count=
is_linear=0
shrinkage=1


Tree=158
num_leaves=1
num_cat=0
split_feature=
split_gain=
threshold=
decision_type=
left_child=
right_child=
leaf_value=0
leaf_weight=0
leaf_count=0
internal_value=
internal_weight=
internal_count=
is_linear=0
shrinkage=1


Tree=159
num_leaves=1
num_cat=0
split_feature=
split_gain=
threshold=
decision_type=
left_child=
right_child=
leaf_value=0
leaf_weight=0
leaf_count=0
internal_value=
internal_weight=
internal_count=
is_linear=0
shrinkage=1


Tree=160
num_leaves=1
num_cat=0
split_feature=
split_gain=
threshold=
decision_type=
left_child=
right_child=
leaf_value=0
leaf_weight=0
leaf_count=0
internal_value=
internal_weight=
internal_count=
is_linear=0
shrinkage=1


Tree=161
num_leaves=1
num_cat=0
split_feature=
split_gain=
threshold=
decision_type=
left_child=
right_child=
leaf_value=0
leaf_weight=0
leaf_count=0
internal_value=
internal_weight=
internal_count=
is_linear=0
shrinkage=1


Tree=162
num_leaves=1
num_cat=0
split_feature=
split_gain=
threshold=
decision_type=
left_child=
right_child=
leaf_value=0
leaf_weight=0
leaf_count=0
internal_value=
internal_weight=
internal_count=
is_linear=0
shrinkage=1


Tree=163
num_leaves=1
num_cat=0
split_feature=
split_gain=
threshold=
decision_type=
left_child=
right_child=
leaf_value=0
leaf_weight=0
leaf_count=0
internal_value=
internal_weight=
internal_count=
is_linear=0
shrinkage=1


Tree=164
num_leaves=1
num_cat=0
split_feature=
split_gain=
threshold=
decision_type=
left_child=
right_child=
leaf_value=0
leaf_weight=0
leaf_count=0
internal_value=
internal_weight=
internal_count=
is_linear=0
shrinkage=1


Tree=165
num_leaves=1
num_cat=0
split_feature=
split_gain=
threshold=
decision_type=
left_child=
right_child=
leaf_value=0
leaf_weight=0
leaf_count=0
internal_value=
internal_weight=
internal_count=
is_linear=0
shrinkage=1


Tree=166
num_leaves=1
num_cat=0
split_feature=
split_gain=
threshold=
decision_type=
left_child=
right_child=
leaf_value=0
leaf_weight=0
leaf_count=0
internal_value=
internal_weight=
internal_count=
is_linear=0
shrinkage=1


Tree=167
num_leaves=16
num_cat=0
split_feature=89 15 96 70 77 91 16 18 20 97 15 63 75 55 97
split_gain=150.03 99.4734 43.1434 16.6723 9.19381 8.11583 6.82067 5.85367 14.2603 6.59737 5.68705 5.39633 5.22928 4.29086 3.44687
threshold=0.01608810015022755 147.4825134277344 1.439994812011719 0.13674831390380862 0.54000091552734386 0.16540560126304629 183.46051025390628 17.720529556274418 70.162128448486342 0.18000030517578128 219.27922058105472 0.17232909798622134 0.87000274658203136 0.35499572753906256 0.77500152587890636
decision_type=2 2 2 2 2 2 2 2 2 2 2 2 2 2 2
left_child=3 13 4 14 6 12 -3 8 -8 -9 -5 -10 -6 -2 -1
right_child=1 2 -4 10 5 -7 7 9 11 -11 -12 -13 -14 -15 -16
leaf_value=-0.19634963154046736 -0.18744582535994464 -0.20341531093171469 -0.16879942766631281 -0.20009719836725523 -0.37412515164129262 0.20962135237949192 -0.17506556706325493 -0.22435111148509659 -0.12384164889463406 0.20836002801489042 0.19509822737812585 0.22547540151444689 2.8123406798754111e-05 0.26018839943846422 0.138713857287806
leaf_weight=126.86349052097648 45.129321342334151 1.7854601629078377 15.899506598711012 1.9024326987564544 2.5427886694669706 4.0698018744587898 5.8105910345912006 1.4230585247278202 1.9937963150441671 146.86857867985964 6.2144626341760159 15.686973512172697 3.6232669577002525 0.8731311596930017 1.2400966882705677
leaf_count=5196 1833 52 578 73 15 51 94 16 48 2230 79 212 39 23 21
internal_value=0 0.086192 0.147268 -0.175494 0.174609 -0.00958414 0.185471 0.189513 0.0967537 0.204208 0.102473 0.186084 -0.154267 -0.17895 -0.193106
internal_weight=0 245.706 199.704 136.22 183.804 10.2359 173.568 171.783 23.4914 148.292 8.1169 17.6808 6.16606 46.0025 128.104
internal_count=10560 5191 3335 5369 2757 105 2652 2600 354 2246 152 260 54 1856 5217
is_linear=0
shrinkage=0.2


Tree=168
num_leaves=1
num_cat=0
split_feature=
split_gain=
threshold=
decision_type=
left_child=
right_child=
leaf_value=0
leaf_weight=0
leaf_count=0
internal_value=
internal_weight=
internal_count=
is_linear=0
shrinkage=1


Tree=169
num_leaves=16
num_cat=0
split_feature=70 84 16 90 97 16 26 15 5 97 96 88 17 95 52
split_gain=102.464 20.4723 12.5182 14.2021 10.4418 17.1802 7.96837 9.5106 9.25723 7.91002 10.9805 9.51049 7.20952 8.09245 7.10663
threshold=0.027488321065902713 0.077774163335561766 83.032035827636733 0.026892883703112606 0.47499847412109381 149.56971740722659 0.072922926396131529 78.49002838134767 0.0028297696262598042 0.32499694824218756 0.46500396728515631 0.50572738051414501 42.960353851318366 3.4864070415496831 0.5296171009540559
decision_type=2 2 2 2 2 2 2 2 2 2 2 2 2 2 2
left_child=1 -1 3 -2 5 6 7 8 14 11 -11 12 13 -4 -3
right_child=2 4 9 -5 -6 -7 -8 -9 -10 10 -12 -13 -14 -15 -16
leaf_value=0.15716350287807188 0.34763220073075218 0.15968112088725245 -0.082583662153467297 -0.11783970060738752 -0.17214180437317483 0.24086102578301741 0.3871428407837797 -0.061571522651049031 0.18753712054674199 0.33974472064364103 -0.17720727232827149 -0.14512717695388525 -0.14344031178724367 0.21666015313037118 -0.099377482031440478
leaf_weight=115.36443432047963 4.8178922273218614 6.2744399812072542 5.7660419549793032 5.7526217456907034 8.9105617385357601 16.351883416995406 2.2441813107579938 40.655768634751439 16.886572737246752 1.6752153784036625 86.937362138181925 28.248971201479435 6.6952432952821246 9.6891776649281365 13.036040429025887
leaf_count=2154 43 48 241 156 445 198 21 651 169 33 4808 1067 219 177 130
internal_value=0 0.0990998 -0.1155 0.0943159 0.0349131 0.0542426 0.0156626 0.00481495 0.0793788 -0.131455 -0.167434 -0.0681949 0.0299186 0.105018 -0.0152031
internal_weight=0 219.724 149.583 10.5705 104.359 95.4489 79.097 76.8528 36.1971 139.012 88.6126 50.3994 22.1505 15.4552 19.3105
internal_count=10560 3816 6744 199 1662 1217 1019 998 347 6545 4841 1704 637 418 178
is_linear=0
shrinkage=0.2


Tree=170
num_leaves=16
num_cat=0
split_feature=16 16 89 67 96 16 95 18 17 89 20 77 67 3 70
split_gain=117.463 27.5007 14.0616 11.8988 11.7262 9.20693 8.10789 13.4545 13.8047 14.2408 34.5995 7.70073 7.36719 6.50609 6.43841
