tree
version=v4
num_class=21
num_tree_per_iteration=21
label_index=0
max_feature_idx=104
objective=multiclass num_class:21
feature_names=Column_0 Column_1 Column_2 Column_3 Column_4 Column_5 Column_6 Column_7 Column_8 Column_9 Column_10 Column_11 Column_12 Column_13 Column_14 Column_15 Column_16 Column_17 Column_18 Column_19 Column_20 Column_21 Column_22 Column_23 Column_24 Column_25 Column_26 Column_27 Column_28 Column_29 Column_30 Column_31 Column_32 Column_33 Column_34 Column_35 Column_36 Column_37 Column_38 Column_39 Column_40 Column_41 Column_42 Column_43 Column_44 Column_45 Column_46 Column_47 Column_48 Column_49 Column_50 Column_51 Column_52 Column_53 Column_54 Column_55 Column_56 Column_57 Column_58 Column_59 Column_60 Column_61 Column_62 Column_63 Column_64 Column_65 Column_66 Column_67 Column_68 Column_69 Column_70 Column_71 Column_72 Column_73 Column_74 Column_75 Column_76 Column_77 Column_78 Column_79 Column_80 Column_81 Column_82 Column_83 Column_84 Column_85 Column_86 Column_87 Column_88 Column_89 Column_90 Column_91 Column_92 Column_93 Column_94 Column_95 Column_96 Column_97 Column_98 Column_99 Column_100 Column_101 Column_102 Column_103 Column_104
feature_infos=[0:0.3292161226272583] [0.218536376953125:1.0865166187286377] [0.31862783432006836:1] [0.012516181915998459:0.98935264348983765] [0.0037359213456511497:0.96675783395767212] [0:0.26597931981086731] [0:0.68137216567993164] [0:0.99996626377105713] [-0.88437807559967041:0.9813002347946167] [-1.3383442163467407:0.8277428150177002] [0.040148518979549408:0.82754945755004883] [0.0174843929708004:0.51390314102172852] [0:0.519989013671875] [0:0.410003662109375] [0:0.4499969482421875] [0:357] [34.724117279052734:339.67361450195312] [0.39215686917304993:80.769233703613281] [2.862929105758667:72.926551818847656] [8.6274509429931641:100] [14.431967735290527:91.38519287109375] [0:0.32900092005729675] [0.086483590304851532:1.0852230787277222] [0.3092726469039917:1] [0.0093975551426410675:0.98784852027893066] [0.0062195351347327232:0.98755830526351929] [0:0.28354644775390625] [0:0.6907273530960083] [0:0.99967443943023682] [-3.35101318359375:1.7030746936798096] [-1.1729397773742676:1.3018780946731567] [0.052957244217395782:20.043811798095703] [0.016688311472535133:0.51386398077011108] [0:3.8800048828125] [-0.040008544921875:3.8800048828125] [-0.04998779296875:0.4499969482421875] [0:357] [34.724117279052734:339.67361450195312] [0.39215686917304993:80.769233703613281] [2.862929105758667:72.926551818847656] [8.6274509429931641:100] [14.431967735290527:91.38519287109375] [0:0.32250696420669556] [0.029890147969126701:1.0678987503051758] [0.45867669582366943:1] [0.0018586504738777876:0.99133509397506714] [0.0041981018148362637:0.99694377183914185] [0:0.22323077917098999] [0:0.54132330417633057] [0:0.99924761056900024] [-17.201431274414062:16.135261535644531] [-1.7248959541320801:1.594758152961731] [0.19592750072479248:81.140586853027344] [0.062143407762050629:2.0114970207214355] [0:4.0200042724609375] [-0.07000732421875:4.0200042724609375] [-0.0800018310546875:0.6100006103515625] [0:357] [34.724117279052734:339.67361450195312] [0.39215686917304993:80.769233703613281] [2.862929105758667:72.926551818847656] [8.6274509429931641:100] [14.431967735290527:91.38519287109375] [0.01426418125629425:0.32520842552185059] [0.056837849318981171:1.0748013257980347] [0.4207901656627655:0.99998044967651367] [0.0034431845415383577:0.9817812442779541] [0.0052387691102921963:0.99374598264694214] [1.3188597222324461e-05:0.24173587560653687] [1.9596584024839103e-05:0.57920980453491211] [3.2782554626464844e-06:0.99611508846282959] [-5.0500278472900391:17.801235198974609] [-3.2225465774536133:2.9970831871032715] [0.59840363264083862:84.101043701171875] [0.1728825569152832:6.2001333236694336] [0.0099945068359375:4.0399932861328125] [-0.1699981689453125:4.05999755859375] [-0.1599884033203125:1.5099945068359375] [0:357] [34.724117279052734:339.67361450195312] [0.39215686917304993:80.769233703613281] [2.862929105758667:72.926551818847656] [8.6274509429931641:100] [14.431967735290527:91.38519287109375] [0.012118346989154816:0.32770994305610657] [0.19208337366580963:1.0816779136657715] [0.35923510789871216:0.99998712539672852] [0.0092192823067307472:0.99251234531402588] [0.0042550638318061829:0.95885872840881348] [7.2239772634929977e-06:0.27153158187866211] [1.2891301594208926e-05:0.64076489210128784] [2.9802322387695312e-07:0.99899917840957642] [-13.774330139160156:13.438878059387207] [-7.1657166481018066:6.7863502502441406] [2.7563228607177734:69.952400207519531] [0.99319267272949219:11.215913772583008] [0.029998779296875:5.160003662109375] [-0.3799896240234375:5.1399993896484375] [-0.230010986328125:1.6999969482421875] [0:357] [34.724117279052734:339.67361450195312] [0.39215686917304993:80.769233703613281] [2.862929105758667:72.926551818847656] [8.6274509429931641:100] [14.431967735290527:91.38519287109375]
tree_sizes=241 1791 1786 241 241 1784 241 241 241 241 242 242 242 242 242 242 242 242 242 242 1781 224 1792 1785 224 224 1796 224 224 224 224 224 224 224 224 224 224 224 224 224 224 1788 224 1803 1788 224 224 1793 224 224 224 224 224 224 224 224 224 224 224 224 224 224 1786 224 1792 1791 224 224 1795 224 224 224 224 224 224 224 224 224 224 224 224 224 224 1786 224 1801 1788 224 224 1790 224 224 224 224 224 224 224 224 224 224 225 225 225 225 1782 225 1793 1789 225 225 1794 225 225 225 225 225 225 225 225 225 225 225 225 225 225 1796 225 1796 1798 225 225 1791 225 225 225 225 225 225 225 225 225 225 225 225 225 225 1793 225 1804 1795 225 225 1791 225 225 225 225 225 225 225 225 225 225 225 225 225 225 1798 225 1810 1816 225 225 1795 225 225 225 225 225 225 225 225 225 225 225 225 225 225 1800 225 1803 1810 225 225 1795 225 225 225 225 225 225 225 225 225 225 225 225 225 225 1796 225 1809 1801 225 225 1802 225 225 225 225 225 225 225 225 225 225 225 225 225 225 1796 225 1813 1805 225 225 1813 225 225 225 225 225 225 225 225 225 225 225 225 225 225 1800 225 1799 1811 225 225 1802 225 225 225 225 225 225 225 225 225 225 225 225 225 225 1807 225 1814 1811 225 225 1811 225 225 225 225 225 225 225 225 225 225 225 225 225 225 1800 225 1822 1803 225 225 1811 225 225 225 225 225 225 225 225 225 225 225 225 225 225 1815 225 1825 1811 225 225 1804 225 225 225 225 225 225 225 225 225 225 225 225 225 225 1815 225 1839 1818 225 225 1821 225 225 225 225 225 225 225 225 225 225 225 225 225 225 1815 225 1821 1818 225 225 1817 225 225 225 225 225 225 225 225 225 225 225 225 225 225 1818 225 1831 1810 225 225 1826 225 225 225 225 225 225 225 225 225 225 225 225 225 225 1818 225 1820 1811 225 225 1831 225 225 225 225 225 225 225 225 225 225 225 225 225 225 1822 225 1826 1813 225 225 1830 225 225 225 225 225 225 225 225 225 225 225 225 225 225 1819 225 1827 1822 225 225 1834 225 225 225 225 225 225 225 225 225 225 225 225 225 225 1821 225 1831 1817 225 225 1848 225 225 225 225 225 225 225 225 225 225 225 225 225 225 1831 225 1818 1827 225 225 1840 225 225 225 225 225 225 225 225 225 225 225 225 225 225 1836 225 1823 1841 225 225 1842 225 225 225 225 225 225 225 225 225 225 225 225 225 225 1843 225 1840 1836 225 225 1838 225 225 225 225 225 225 225 225 225 225 225 225 225 225 1840 225 1839 1816 225 225 1848 225 225 225 225 225 225 225 225 225 225 225 225 225 225 1841 225 1829 1842 225 225 1858 225 225 225 225 225 225 225 225 225 225 225 225 225 225 1854 225 1843 1842 225 225 1856 225 225 225 225 225 225 225 225 225 225 225 225 225 225 1857 225 1859 1835 225 225 1856 225 225 225 225 225 225 225 225 225 225 225 225 225 225 1864 225 1845 1840 225 225 1866 225 225 225 225 225 225 225 225 225 225 225 225 225 225 1873 225 1845 1837 225 225 1854 225 225 225 225 225 225 225 225 225 225 225 225 225 225 1869 225 1845 1844 225 225 1871 225 225 225 225 225 225 225 225 225 225 225 225 225 225 1868 225 1847 1858 225 225 1880 225 225 225 225 225 225 225 225 225 225 225 225 225 225 1875 225 1852 1842 225 225 1881 225 225 225 225 225 225 225 225 225 225 225 225 225 225 1869 225 1860 1860 225 225 1884 225 225 225 225 225 225 225 225 225 225 225 225 225 225 1881 225 1842 1845 225 225 1893 225 225 225 225 225 225 225 225 225 225 225 225 225 225 1880 225 1856 1857 225 225 1877 225 225 225 225 225 225 225 225 225 225 225 225 225 225 1884 225 1861 1846 225 225 1891 225 225 225 225 225 225 225 225 225 225 225 225 225 225 1883 225 1845 1850 225 225 1892 225 225 225 225 225 225 225 225 225 225 225 225 225 225 1892 225 1870 1864 225 225 1894 225 225 225 225 225 225 225 225 225 225 225 225 225 225 1894 225 1852 1861 225 225 1889 225 225 225 225 225 225 225 225 225 225 225 225 225 225 1895 225 1883 1846 225 225 1898 225 225 225 225 225 225 225 225 225 225 225 225 225 225 1904 225 1863 1851 225 225 1891 225 225 225 225 225 225 225 225 225 225 225 225 225 225 1904 225 1864 1861 225 225 1907 225 225 225 225 225 225 225 225 225 225 225 225 225 225 1908 225 1858 1864 225 225 1900 225 225 225 225 225 225 225 225 225 225 225 225 225 225 1927 225 1862 1850 225 225 1907 225 225 225 225 225 225 225 225 225 225 225 225 225 225 1912 225 1862 1860 225 225 1910 225 225 225 225 225 225 225 226 226 226 226 226 226 226 1915 226 1860 1861 226 226 1907 226 226 226 226 226 226 226 226 226 226 226 226 226 226 1927 226 1868 1883 226 226 1917 226 226 226 226 226 226 226 226 226 226 226 226 226 226 1923

Tree=0
num_leaves=1
num_cat=0
split_feature=
split_gain=
threshold=
decision_type=
left_child=
right_child=
leaf_value=-34.538776391283193
leaf_weight=0
leaf_count=0
internal_value=
internal_weight=
internal_count=
is_linear=0
shrinkage=1


Tree=1
num_leaves=16
num_cat=0
split_feature=96 89 89 19 16 84 15 16 75 15 95 54 84 95 89
split_gain=6574.69 600.351 475.092 141.97 138.858 138.538 102.547 91.5749 66.6349 125.857 50.1662 40.1208 36.0044 31.6655 55.5187
threshold=0.39000701904296881 0.0022987327538430695 0.00044108687143307185 60.196079254150398 76.788936614990249 0.13598603010177615 210.97837829589847 78.019027709960952 0.24500274658203128 290.88461303710943 2.4145385026931767 0.14500427246093753 0.08713437989354135 2.9531892538070683 0.0010622132103890183
decision_type=2 2 2 2 2 2 2 2 2 2 2 2 2 2 2
left_child=1 13 -2 6 5 -4 7 -3 9 12 -5 -11 -6 14 -1
right_child=2 3 4 10 8 -7 -8 -9 -10 11 -12 -13 -14 -15 -16
leaf_value=-0.63708803459604402 -0.65260831631311045 -0.81974981172767281 -0.73571816859628103 -1.3964530909710613 -1.0382638014038539 -1.5323822903955768 -0.70253369806031729 -1.4624094735062594 -1.6253822143777272 -0.64647381761071254 -0.70364212466710085 -1.3983880871331891 -1.574722414810962 -0.63774231661852998 -1.2463526743945785
leaf_weight=15.75000047683716 21.262500643730164 10.237500309944151 14.371875435113905 4.9218751490116111 5.31562516093254 22.246875673532486 10.237500309944151 66.346877008676529 1397.8125423192978 9.0562502741813642 27.759375840425491 4.1343751251697531 85.443752586841583 374.45626133680344 9.6468752920627576
leaf_count=80 108 52 73 25 27 113 52 337 7100 46 141 21 434 1902 49
internal_value=-1.38629 -0.769954 -1.59153 -1.16329 -1.60451 -1.21971 -1.29703 -1.3765 -1.61389 -1.45941 -0.807981 -0.882148 -1.5433 -0.6524 -0.868514
internal_weight=0 519.356 1559.64 119.503 1538.38 36.6188 86.8219 76.5844 1501.76 103.95 32.6813 13.1906 90.7594 399.853 25.3969
internal_count=10560 2638 7922 607 7814 186 441 389 7628 528 166 67 461 2031 129
is_linear=0
shrinkage=1


Tree=2
num_leaves=16
num_cat=0
split_feature=16 89 16 96 89 16 18 64 15 20 96 84 98 20 95
split_gain=5261.06 3146.96 164.833 122.844 106.902 95.3866 44.1782 40.2252 37.2154 37.4207 22.5462 20.0145 18.9832 17.2713 17.2308
threshold=169.7458419799805 0.0033498608972877268 78.019027709960952 0.61499786376953136 0.0014226469793356957 78.42661285400392 16.41200160980225 0.39156413078308111 75.519714355468764 44.381204605102546 0.24500274658203128 0.15892861783504489 0.23999786376953128 56.96721267700196 3.1296882629394536
decision_type=2 2 2 2 2 2 2 2 2 2 2 2 2 2 2
left_child=1 4 3 12 -1 -6 -4 -2 -7 -10 14 -5 -3 -11 -8
right_child=7 2 6 11 5 8 10 -9 9 13 -12 -13 -14 -15 -16
leaf_value=-1.6280843098752795 -1.0113888547076348 -1.6210951925856307 -1.3355007118640365 -1.1135136521532674 -1.6314289292677078 -1.5207481385618571 -0.75137374542171531 -1.6362295187424123 -1.4370880103757446 -0.74794174209361741 -0.65650540716930927 -0.67569633870213497 -1.2339134133523286 -1.1487111629876701 -1.2847070626081827
leaf_weight=197.07188096642494 4.1343751251697531 10.434375315904619 3.9375001192092887 5.3156251609325436 22.640625685453415 6.6937502026557913 6.3000001907348615 1289.3344140350819 5.906250178813937 14.568750441074373 473.2875143289566 19.490625590085983 9.8437502980232221 6.1031251847743979 3.9375001192092896
leaf_count=1001 21 53 20 27 115 34 32 6549 30 74 2404 99 50 31 20
internal_value=-1.38629 -0.978036 -0.702129 -1.068 -1.55883 -1.31475 -0.66829 -1.63423 -1.09927 -0.993114 -0.662857 -0.769514 -1.43314 -0.866264 -0.956502
internal_weight=0 785.531 532.547 45.0844 252.984 55.9125 487.463 1293.47 33.2719 26.5781 483.525 24.8063 20.2781 20.6719 10.2375
internal_count=10560 3990 2705 229 1285 284 2476 6570 169 135 2456 126 103 105 52
is_linear=0
shrinkage=1


Tree=3
num_leaves=1
num_cat=0
split_feature=
split_gain=
threshold=
decision_type=
left_child=
right_child=
leaf_value=-34.538776391283193
leaf_weight=0
leaf_count=0
internal_value=
internal_weight=
internal_count=
is_linear=0
shrinkage=1


Tree=4
num_leaves=1
num_cat=0
split_feature=
split_gain=
threshold=
decision_type=
left_child=
right_child=
leaf_value=-34.538776391283193
leaf_weight=0
leaf_count=0
internal_value=
internal_weight=
internal_count=
is_linear=0
shrinkage=1


Tree=5
num_leaves=16
num_cat=0
split_feature=18 91 20 16 90 96 70 68 96 96 70 16 94 74 18
split_gain=3793.6 2480.32 863.695 486.6 559.18 306.817 197.837 158.039 274.213 140.254 129.853 69.5216 63.2563 55.1301 18.9293
threshold=18.895339012146 0.042838186025619514 79.921276092529311 235.50540161132815 0.032422443851828582 1.439994812011719 0.042239248752594001 0.019377340562641624 1.2250061035156252 1.1849975585937502 0.1352631747722626 216.74015045166018 10.302023887634279 0.39073054492473608 42.668724060058601
decision_type=2 2 2 2 2 2 2 2 2 2 2 2 2 2 2
left_child=1 9 7 -2 6 12 -5 13 -9 -1 14 -10 -6 -3 -8
right_child=3 2 -4 4 5 -7 10 8 11 -11 -12 -13 -14 -15 -16
leaf_value=-1.6300322651522616 -1.633591936337393 -1.3862943611198906 -1.6218757660395755 -1.6402626073991606 -1.6402626073991606 -0.62438962228208039 -0.62794162572654577 -1.6294554479830214 -1.4635890447701032 -0.62438962228208039 -1.6402626073991606 -0.63869769249499708 -0.82756421930549651 -0.63415269093014537 -1.0815324655847665
leaf_weight=195.49688091874123 1139.3156594932079 3.9375001192092887 43.50937631726265 11.615625351667402 141.55312928557396 13.584375411272047 56.306251704692841 18.506250560283661 4.5281251370906821 5.709375172853469 5.9062501788139334 41.934376269578934 3.9375001192092887 389.22188678383827 3.9375001192092887
leaf_count=993 5787 20 221 59 719 69 286 94 23 29 30 213 20 1977 20
internal_value=-1.38629 -1.00826 -0.770312 -1.57937 -1.31853 -1.53339 -0.879001 -0.689437 -0.978406 -1.6015 -0.745327 -0.71909 -1.61827 -0.641685 -0.657588
internal_weight=0 702.844 501.638 1376.16 236.841 159.075 77.7656 458.128 64.9688 201.206 66.15 46.4625 145.491 393.159 60.2438
internal_count=10560 3570 2548 6990 1203 808 395 2327 330 1022 336 236 739 1997 306
is_linear=0
shrinkage=1


Tree=6
num_leaves=1
num_cat=0
split_feature=
split_gain=
threshold=
decision_type=
left_child=
right_child=
leaf_value=-34.538776391283193
leaf_weight=0
leaf_count=0
internal_value=
internal_weight=
internal_count=
is_linear=0
shrinkage=1


Tree=7
num_leaves=1
num_cat=0
split_feature=
split_gain=
threshold=
decision_type=
left_child=
right_child=
leaf_value=-34.538776391283193
leaf_weight=0
leaf_count=0
internal_value=
internal_weight=
internal_count=
is_linear=0
shrinkage=1


Tree=8
num_leaves=1
num_cat=0
split_feature=
split_gain=
threshold=
decision_type=
left_child=
right_child=
leaf_value=-34.538776391283193
leaf_weight=0
leaf_count=0
internal_value=
internal_weight=
internal_count=
is_linear=0
shrinkage=1


Tree=9
num_leaves=1
num_cat=0
split_feature=
split_gain=
threshold=
decision_type=
left_child=
right_child=
leaf_value=-34.538776391283193
leaf_weight=0
leaf_count=0
internal_value=
internal_weight=
internal_count=
is_linear=0
shrinkage=1


Tree=10
num_leaves=1
num_cat=0
split_feature=
split_gain=
threshold=
decision_type=
left_child=
right_child=
leaf_value=-34.538776391283193
leaf_weight=0
leaf_count=0
internal_value=
internal_weight=
internal_count=
is_linear=0
shrinkage=1


Tree=11
num_leaves=1
num_cat=0
split_feature=
split_gain=
threshold=
decision_type=
left_child=
right_child=
leaf_value=-34.538776391283193
leaf_weight=0
leaf_count=0
internal_value=
internal_weight=
internal_count=
is_linear=0
shrinkage=1


Tree=12
num_leaves=1
num_cat=0
split_feature=
split_gain=
threshold=
decision_type=
left_child=
right_child=
leaf_value=-34.538776391283193
leaf_weight=0
leaf_count=0
internal_value=
internal_weight=
internal_count=
is_linear=0
shrinkage=1


Tree=13
num_leaves=1
num_cat=0
split_feature=
split_gain=
threshold=
decision_type=
left_child=
right_child=
leaf_value=-34.538776391283193
leaf_weight=0
leaf_count=0
internal_value=
internal_weight=
internal_count=
is_linear=0
shrinkage=1


Tree=14
num_leaves=1
num_cat=0
split_feature=
split_gain=
threshold=
decision_type=
left_child=
right_child=
leaf_value=-34.538776391283193
leaf_weight=0
leaf_count=0
internal_value=
internal_weight=
internal_count=
is_linear=0
shrinkage=1


Tree=15
num_leaves=1
num_cat=0
split_feature=
split_gain=
threshold=
decision_type=
left_child=
right_child=
leaf_value=-34.538776391283193
leaf_weight=0
leaf_count=0
internal_value=
internal_weight=
internal_count=
is_linear=0
shrinkage=1


Tree=16
num_leaves=1
num_cat=0
split_feature=
split_gain=
threshold=
decision_type=
left_child=
right_child=
leaf_value=-34.538776391283193
leaf_weight=0
leaf_count=0
internal_value=
internal_weight=
internal_count=
is_linear=0
shrinkage=1


Tree=17
num_leaves=1
num_cat=0
split_feature=
split_gain=
threshold=
decision_type=
left_child=
right_child=
leaf_value=-34.538776391283193
leaf_weight=0
leaf_count=0
internal_value=
internal_weight=
internal_count=
is_linear=0
shrinkage=1


Tree=18
num_leaves=1
num_cat=0
split_feature=
split_gain=
threshold=
decision_type=
left_child=
right_child=
leaf_value=-34.538776391283193
leaf_weight=0
leaf_count=0
internal_value=
internal_weight=
internal_count=
is_linear=0
shrinkage=1


Tree=19
num_leaves=1
num_cat=0
split_feature=
split_gain=
threshold=
decision_type=
left_child=
right_child=
leaf_value=-34.538776391283193
leaf_weight=0
leaf_count=0
internal_value=
internal_weight=
internal_count=
is_linear=0
shrinkage=1


Tree=20
num_leaves=16
num_cat=0
split_feature=97 96 15 75 16 18 18 28 96 18 16 17 54 15 89
split_gain=3862.57 1830.66 1328.31 831.835 427.726 251.083 220.492 167.211 140.039 102.263 70.361 53.9395 30.0807 50.0168 29.072
threshold=0.58499908447265636 1.390007019042969 133.09523773193362 0.69499969482421886 223.36171722412112 58.099981307983406 15.203258991241457 0.1992723345756531 1.3249969482421877 60.335601806640632 268.40147399902349 67.024555206298842 0.45999908447265631 227.47093200683597 0.0093113053590059298
decision_type=2 2 2 2 2 2 2 2 2 2 2 2 2 2 2
left_child=3 2 -2 5 -5 11 7 -4 -6 -3 -7 12 -1 -14 -8
right_child=1 9 6 4 8 10 14 -9 -10 -11 -12 -13 13 -15 -16
leaf_value=-1.6292390735548519 -1.6284843698905569 -1.6332950286260668 -1.6402626073991606 -1.6402626073991606 -0.64373958390335806 -1.5894689581433066 -1.1831197640964746 -0.62438962228208039 -1.4856732400987354 -0.62438962228208039 -0.62438962228208039 -0.9760379632841466 -1.6402626073991606 -0.72597692079378862 -0.63706974595612942
leaf_weight=1288.1531639993191 67.921877056360245 143.5218793451786 16.143750488758091 31.106250941753387 62.01562687754631 3.9375001192092922 3.9375001192092887 10.828125327825544 9.0562502741813642 4.1343751251697531 12.993750393390654 5.1187501549720755 6.103125184774397 3.9375001192092896 410.09063741564751
leaf_count=6543 345 729 82 158 315 20 20 55 46 21 66 26 31 20 2083
internal_value=-1.38629 -0.985047 -0.805164 -1.57151 -1.02173 -1.61406 -0.678358 -1.23243 -0.751022 -1.60505 -0.848827 -1.624 -1.62655 -1.28172 -0.642263
internal_weight=0 656.578 508.922 1422.42 102.178 1320.24 441 26.9719 71.0719 147.656 16.9313 1303.31 1298.19 10.0406 414.028
internal_count=10560 3335 2585 7225 519 6706 2240 137 361 750 86 6620 6594 51 2103
is_linear=0
shrinkage=1


Tree=21
num_leaves=1
num_cat=0
split_feature=
split_gain=
threshold=
decision_type=
left_child=
right_child=
leaf_value=0
leaf_weight=0
leaf_count=0
internal_value=
internal_weight=
internal_count=
is_linear=0
shrinkage=1


Tree=22
num_leaves=16
num_cat=0
split_feature=96 86 89 91 86 96 16 16 84 17 15 97 98 16 98
split_gain=2924.7 196.258 178.055 87.0124 94.9229 62.6123 42.5598 63.7871 40.9941 38.003 37.3267 29.2304 25.2244 20.3097 30.9236
threshold=0.41500091552734381 0.99912732839584362 0.0022987327538430695 0.019676595926284794 0.99265757203102123 0.24500274658203128 161.70371246337893 79.134162902832045 0.072086576372385039 12.739475250244142 77.041248321533217 0.54999542236328136 0.49500274658203131 77.402061462402358 0.43999481201171881
decision_type=2 2 2 2 2 2 2 2 2 2 2 2 2 2 2
left_child=2 3 -1 4 9 -4 7 -7 -8 11 12 -2 -11 14 -5
right_child=1 -3 5 13 -6 6 8 -9 -10 10 -12 -13 -14 -15 -16
leaf_value=0.38762203698313197 0.4852906085519153 0.35145941494843219 0.32621491199665459 0.40697012264806154 0.4059252645108492 0.27141760835833278 -0.23998064832080415 -0.14110019789940204 0.46020940228564272 0.44936171882737919 -0.18775783774119001 -0.23103893501752967 -0.11384158145095401 -0.2167174229106652 -0.1658600942447597
leaf_weight=536.81365221738815 7.1540894955396634 26.942876666784286 45.861219763755798 5.2152312695980099 16.665910273790359 20.725046321749687 4.2950121313333538 54.217876940965652 15.115395024418829 6.6022612452507001 89.944422170519829 3.3435297310352325 6.1382484138011932 1054.5698628649116 13.599459394812582
leaf_count=2061 34 109 201 22 73 84 25 313 61 34 572 22 36 6832 81
internal_value=0 -0.182383 0.335203 -0.194337 -0.0397025 0.134516 0.0413395 -0.0270207 0.305276 -0.10532 -0.142375 0.257137 0.178016 -0.213043 -0.00707768
internal_weight=0 1230.18 677.028 1203.23 129.848 140.215 94.3533 74.9429 19.4104 113.183 102.685 10.4976 12.7405 1073.38 18.8147
internal_count=10560 7815 2745 7706 771 684 483 397 86 698 642 56 70 6935 103
is_linear=0
shrinkage=0.2


Tree=23
num_leaves=16
num_cat=0
split_feature=16 89 20 96 89 16 89 15 74 67 84 71 15 15 20
split_gain=2670.32 1048.6 74.2291 49.5809 31.5007 33.0149 29.6005 48.0109 22.2418 20.2651 16.8883 13.731 10.5415 10.051 9.72257
threshold=169.7458419799805 0.0023461490636691455 61.423025131225593 0.78500366210937511 0.0011469793389551344 79.554443359375014 0.012342794332653286 78.52396392822267 1.4258398413658144 0.86028248071670543 0.11367972567677499 -1.4361312985420225 77.736873626708999 68.418750762939467 50.678627014160163
decision_type=2 2 2 2 2 2 2 2 2 2 2 2 2 2 2
left_child=1 4 6 12 -1 -6 7 10 14 -2 11 -3 -4 -12 -7
right_child=9 2 3 -5 5 8 -8 -9 -10 -11 13 -13 -14 -15 -16
leaf_value=-0.22291087375462051 -0.22651530664633324 0.25960895217342961 -0.26089136944546248 0.36649001089284061 -0.23303933872078503 0.0027972265119059181 0.39488330861855214 0.35010618719161796 -0.21279623636781653 0.13512202059987455 -0.03174968190452989 -0.16246705934097394 0.10919455714719523 0.32037049064470685 0.35226707350440256
leaf_weight=143.62059397995472 998.71736162900925 4.0859237760305431 13.088621959090238 11.26357129216194 16.272761553525925 4.3351835906505647 515.84161774814129 144.24681666493416 5.2774016857147208 6.2368538975715628 4.4237193316221264 12.561209306120871 4.0254997313022605 12.144277632236479 11.995538145303724
leaf_count=942 6541 20 71 44 105 22 1978 562 30 29 20 69 19 51 57
internal_value=0 0.249595 0.357668 0.0406249 -0.18012 -0.0178836 0.370644 0.300188 0.144147 -0.224271 0.083401 -0.0588714 -0.173842 0.226353 0.259496
internal_weight=0 903.183 721.681 28.3777 181.501 37.8809 693.304 177.462 21.6081 1004.95 33.2151 16.6471 17.1141 16.568 16.3307
internal_count=10560 3990 2834 134 1156 214 2700 722 109 6570 160 89 90 71 79
is_linear=0
shrinkage=0.2


Tree=24
num_leaves=1
num_cat=0
split_feature=
split_gain=
threshold=
decision_type=
left_child=
right_child=
leaf_value=0
leaf_weight=0
leaf_count=0
internal_value=
internal_weight=
internal_count=
is_linear=0
shrinkage=1


Tree=25
num_leaves=1
num_cat=0
split_feature=
split_gain=
threshold=
decision_type=
left_child=
right_child=
leaf_value=0
leaf_weight=0
leaf_count=0
internal_value=
internal_weight=
internal_count=
is_linear=0
shrinkage=1


Tree=26
num_leaves=16
num_cat=0
split_feature=18 91 16 20 89 70 94 70 96 68 96 16 64 97 95
split_gain=1878.27 915.676 337.415 291.764 249.332 95.3149 93.7182 82.6972 60.5586 43.5463 107.706 38.9023 18.5646 17.9733 9.06307
threshold=19.244885444641117 0.038188517093658454 233.23142242431643 79.921276092529311 0.027499565854668621 0.042239248752594001 10.374829769134523 0.1319786608219147 1.1849975585937502 0.017159976996481422 1.2250061035156252 212.87005615234378 0.39156413078308111 0.69499969482421886 6.0554189682006845
decision_type=2 2 2 2 2 2 2 2 2 2 2 2 2 2 2
left_child=1 8 -2 9 5 -4 14 13 -1 12 -11 -12 -3 -7 -6
right_child=2 3 4 -5 6 7 -8 -9 -10 10 11 -13 -14 -15 -16
leaf_value=-0.22198387661221505 -0.22670587506438933 -0.052078279991174148 -0.23181813120642525 -0.21005754165149415 -0.23021047281459858 0.40753481767990718 0.40716675443562811 -0.17697475624094872 0.39910514569485456 -0.18452069902778617 -0.25000187877334967 0.40218342629794401 0.39722885268083002 0.0035830648168865458 0.087187309970319052
leaf_weight=152.66448894143105 873.06404750049114 3.7047222405672064 14.229899570345877 36.433831691741943 101.76230165362358 84.845615744590759 10.514410018920897 11.78832173347473 6.5489193499088278 18.697011277079582 3.8990391492843619 59.280598640441895 517.81818453967571 4.647161826491355 3.7304670363664618
leaf_count=989 5706 18 93 237 665 327 42 73 25 111 21 228 1983 22 20
internal_value=0 0.232762 -0.169784 0.339562 0.0448726 0.25287 -0.162235 0.320968 -0.196437 0.372749 0.237148 0.361935 0.394037 0.386558 -0.218987
internal_weight=0 799.047 1104.58 639.833 231.518 115.511 116.007 101.281 159.213 603.4 81.8766 63.1796 521.523 89.4928 105.493
internal_count=10560 3612 6948 2598 1242 515 727 422 1014 2361 360 249 2001 349 685
is_linear=0
shrinkage=0.2


Tree=27
num_leaves=1
num_cat=0
split_feature=
split_gain=
threshold=
decision_type=
left_child=
right_child=
leaf_value=0
leaf_weight=0
leaf_count=0
internal_value=
internal_weight=
internal_count=
is_linear=0
shrinkage=1


Tree=28
num_leaves=1
num_cat=0
split_feature=
split_gain=
threshold=
decision_type=
left_child=
right_child=
leaf_value=0
leaf_weight=0
leaf_count=0
internal_value=
internal_weight=
internal_count=
is_linear=0
shrinkage=1


Tree=29
num_leaves=1
num_cat=0
split_feature=
split_gain=
threshold=
decision_type=
left_child=
right_child=
leaf_value=0
leaf_weight=0
leaf_count=0
internal_value=
internal_weight=
internal_count=
is_linear=0
shrinkage=1


Tree=30
num_leaves=1
num_cat=0
split_feature=
split_gain=
threshold=
decision_type=
left_child=
right_child=
leaf_value=0
leaf_weight=0
leaf_count=0
internal_value=
internal_weight=
internal_count=
is_linear=0
shrinkage=1


Tree=31
num_leaves=1
num_cat=0
split_feature=
split_gain=
threshold=
decision_type=
left_child=
right_child=
leaf_value=0
leaf_weight=0
leaf_count=0
internal_value=
internal_weight=
internal_count=
is_linear=0
shrinkage=1


Tree=32
num_leaves=1
num_cat=0
split_feature=
split_gain=
threshold=
decision_type=
left_child=
right_child=
leaf_value=0
leaf_weight=0
leaf_count=0
internal_value=
internal_weight=
internal_count=
is_linear=0
shrinkage=1


Tree=33
num_leaves=1
num_cat=0
split_feature=
split_gain=
threshold=
decision_type=
left_child=
right_child=
leaf_value=0
leaf_weight=0
leaf_count=0
internal_value=
internal_weight=
internal_count=
is_linear=0
shrinkage=1


Tree=34
num_leaves=1
num_cat=0
split_feature=
split_gain=
threshold=
decision_type=
left_child=
right_child=
leaf_value=0
leaf_weight=0
leaf_count=0
internal_value=
internal_weight=
internal_count=
is_linear=0
shrinkage=1


Tree=35
num_leaves=1
num_cat=0
split_feature=
split_gain=
threshold=
decision_type=
left_child=
right_child=
leaf_value=0
leaf_weight=0
leaf_count=0
internal_value=
internal_weight=
internal_count=
is_linear=0
shrinkage=1


Tree=36
num_leaves=1
num_cat=0
split_feature=
split_gain=
threshold=
decision_type=
left_child=
right_child=
leaf_value=0
leaf_weight=0
leaf_count=0
internal_value=
internal_weight=
internal_count=
is_linear=0
shrinkage=1


Tree=37
num_leaves=1
num_cat=0
split_feature=
split_gain=
threshold=
decision_type=
left_child=
right_child=
leaf_value=0
leaf_weight=0
leaf_count=0
internal_value=
internal_weight=
internal_count=
is_linear=0
shrinkage=1


Tree=38
num_leaves=1
num_cat=0
split_feature=
split_gain=
threshold=
decision_type=
left_child=
right_child=
leaf_value=0
leaf_weight=0
leaf_count=0
internal_value=
internal_weight=
internal_count=
is_linear=0
shrinkage=1


Tree=39
num_leaves=1
num_cat=0
split_feature=
split_gain=
threshold=
decision_type=
left_child=
right_child=
leaf_value=0
leaf_weight=0
leaf_count=0
internal_value=
internal_weight=
internal_count=
is_linear=0
shrinkage=1


Tree=40
num_leaves=1
num_cat=0
split_feature=
split_gain=
threshold=
decision_type=
left_child=
right_child=
leaf_value=0
leaf_weight=0
leaf_count=0
internal_value=
internal_weight=
internal_count=
is_linear=0
shrinkage=1


Tree=41
num_leaves=16
num_cat=0
split_feature=97 96 15 75 16 89 18 94 18 16 18 18 73 98 17
split_gain=1926.31 661.549 585.659 306.49 129.029 127.991 92.4782 59.5399 78.3409 51.9614 44.1325 39.6989 32.0621 28.5899 23.2377
threshold=0.51999664306640636 1.409996032714844 133.09523773193362 0.69499969482421886 224.26956939697268 0.0093113053590059298 56.641967773437507 10.374829769134523 49.057355880737312 265.09785461425787 10.053304672241213 60.335601806640632 2.3958754539489751 0.98000335693359386 67.024555206298842
decision_type=2 2 2 2 2 2 2 2 2 2 2 2 2 2 2
left_child=3 2 -2 6 -5 12 14 10 -9 -8 -7 -3 -4 -6 -1
right_child=1 11 5 4 13 7 9 8 -10 -11 -12 -13 -14 -15 -16
leaf_value=-0.22076985586236175 -0.22152400022980087 -0.22375308760482504 -0.23429295840093431 -0.23251358709550699 0.39276299015086674 -0.11017563098143737 -0.23329753426665076 -0.22987794237314715 0.41008368042241089 0.44285433287821196 0.39885920611641257 0.40279458145613289 0.45606758412589826 -0.10685304696303521 0.20294243844876425
leaf_weight=959.94243393093348 76.986966177821159 118.83693677186966 17.44051089882851 20.514870718121529 53.703940406441689 6.8935968577861777 6.8848766982555416 14.528603330254557 16.164122179150581 13.38402485847473 581.03196424245834 4.1876497268676749 3.1818470656871787 5.0087095350027075 5.2054599970579138
leaf_count=6242 501 773 111 133 206 42 44 83 62 53 2231 16 14 27 22
internal_value=0 0.226018 0.299611 -0.179178 0.199271 0.362374 -0.209606 0.378714 0.107154 0.213181 0.392891 -0.202426 -0.127776 0.350141 -0.218485
internal_weight=0 839.252 716.228 1064.64 79.2275 639.241 985.417 618.618 30.6927 20.2689 587.926 123.025 20.6224 58.7126 965.148
internal_count=10560 3833 3044 6727 366 2543 6361 2418 145 97 2273 789 125 233 6264
is_linear=0
shrinkage=0.2


Tree=42
num_leaves=1
num_cat=0
split_feature=
split_gain=
threshold=
decision_type=
left_child=
right_child=
leaf_value=0
leaf_weight=0
leaf_count=0
internal_value=
internal_weight=
internal_count=
is_linear=0
shrinkage=1


Tree=43
num_leaves=16
num_cat=0
split_feature=96 33 89 89 16 91 19 70 18 84 84 18 91 18 86
split_gain=1660.19 137.067 90.8746 84.2876 48.6451 36.8807 34.3273 33.9258 29.5479 25.3425 15.1844 16.1403 13.398 33.0927 22.1338
threshold=0.41500091552734381 0.079994201660156264 0.0035762214101850991 0.014645634684711696 161.70371246337893 0.054662019014358527 59.01960754394532 0.041201949119567878 11.897500514984133 0.043258592486381538 0.10951491445302965 31.458126068115238 0.047547876834869392 16.206782341003422 0.99790748953819286
decision_type=2 2 2 2 2 2 2 2 2 2 2 2 2 2 2
left_child=2 3 5 7 6 -1 -4 10 -5 -3 -2 -12 13 -11 -15
right_child=1 9 4 8 -6 -7 -8 -9 -10 12 11 -13 -14 14 -16
leaf_value=0.2873600164078477 0.31698619200774591 0.35277604923050943 -0.097819792964482177 0.30701556556929188 0.33961158573475203 -0.23898877323278184 0.21706533249593016 -0.17846491987045049 -0.15052538571363988 0.18335252617561174 0.39426722147904392 -0.029505285478281802 -0.20960895267442883 -0.18382559682089811 0.34442337443261001
leaf_weight=545.66277572512627 37.481650575995445 3.3577940687537184 51.257364481687546 6.0836750864982596 20.173982620239258 5.3773867040872565 18.974689498543739 8.7713371366262418 78.442558780312538 11.494173295795916 5.0365141406655338 12.561389371752737 671.34409740567207 127.1528809145093 3.2539644986391059
leaf_count=2227 159 14 316 34 81 35 86 71 641 76 24 86 5689 1008 13
internal_value=0 -0.163413 0.251732 0.0134191 0.0658814 0.282224 -0.0127469 0.186856 -0.117594 -0.195543 0.245032 0.0917783 -0.197807 -0.14197 -0.170645
internal_weight=0 964.98 641.446 148.377 90.406 551.04 70.2321 63.8509 84.5262 816.603 55.0796 17.5979 813.245 141.901 130.407
internal_count=10560 7815 2745 1015 483 2262 402 340 675 6800 269 110 6786 1097 1021
is_linear=0
shrinkage=0.2


Tree=44
num_leaves=16
num_cat=0
split_feature=16 89 20 70 89 16 64 89 16 94 20 19 15 96 16
split_gain=1619.73 531.262 40.9442 28.7929 27.9989 23.806 18.5691 18.0682 23.9179 15.1701 15.0256 18.0889 10.6766 9.93638 8.86942
threshold=169.7458419799805 0.0023461490636691455 61.423025131225593 0.089631170034408583 0.0011469793389551344 79.554443359375014 0.39156413078308111 0.01353015471249819 77.402061462402358 9.7311048507690447 46.816436767578132 60.588235855102546 72.075950622558608 0.29499816894531256 188.23663330078128
decision_type=2 2 2 2 2 2 2 2 2 2 2 2 2 2 2
left_child=1 4 7 -4 -1 -6 -2 8 9 -3 -7 13 -10 -12 -8
right_child=6 2 3 -5 5 10 14 -9 12 -11 11 -13 -14 -15 -16
leaf_value=-0.20710028246519388 0.16358498264713894 -0.1400212979598858 -0.11999637380221642 0.33421839166621858 -0.21923297409838202 -0.2342123852619265 -0.037323730545006352 0.2957761634722072 -0.019628956840064594 0.26025445515616069 0.46310523571115908 -0.13328547358971621 0.25466613046559256 0.10089932460234785 -0.21488914160390693
leaf_weight=109.22212100028992 5.2956607341766349 11.189717069268228 18.07963734865189 8.0760575681924802 12.367458716034887 3.7432020157575634 11.423542283475397 480.45716539025307 5.883119821548461 5.7249956205487242 8.1299495771527308 4.6065155565738669 161.38293927907944 4.8290321677923194 750.30583476275206
leaf_count=942 21 68 102 32 105 25 84 1937 24 30 37 26 641 21 6465
internal_value=0 0.193086 0.2657 0.0202509 -0.157942 0.00149149 -0.209632 0.275359 0.222099 -0.00454297 0.129599 0.207127 0.245019 0.328133 -0.212226
internal_weight=0 833.692 690.794 26.1557 142.898 33.6762 767.025 664.638 184.181 16.9147 21.3087 17.5655 167.266 12.959 761.729
internal_count=10560 3990 2834 134 1156 214 6570 2700 763 98 109 84 665 58 6549
is_linear=0
shrinkage=0.2


Tree=45
num_leaves=1
num_cat=0
split_feature=
split_gain=
threshold=
decision_type=
left_child=
right_child=
leaf_value=0
leaf_weight=0
leaf_count=0
internal_value=
internal_weight=
internal_count=
is_linear=0
shrinkage=1


Tree=46
num_leaves=1
num_cat=0
split_feature=
split_gain=
threshold=
decision_type=
left_child=
right_child=
leaf_value=0
leaf_weight=0
leaf_count=0
internal_value=
internal_weight=
internal_count=
is_linear=0
shrinkage=1


Tree=47
num_leaves=16
num_cat=0
split_feature=18 91 16 20 89 94 20 96 97 63 96 16 76 74 95
split_gain=1127.87 501.915 221.711 163.94 136.46 55.4178 53.6783 43.6508 41.4898 32.1064 77.1161 22.4135 16.9741 12.0927 7.22527
threshold=20.314744949340824 0.042838186025619514 233.23142242431643 80.600383758544936 0.027499565854668621 10.374829769134523 55.009481430053718 1.1849975585937502 0.40000152587890631 0.15966819226741794 1.2250061035156252 212.87005615234378 0.47499847412109381 0.39073054492473608 6.0554189682006845
decision_type=2 2 2 2 2 2 2 2 2 2 2 2 2 2 2
left_child=1 7 -2 9 6 14 8 -1 -4 13 -11 -12 -10 -3 -6
right_child=2 3 4 -5 5 -7 -8 -9 12 10 11 -13 -14 -15 -16
leaf_value=-0.20412059681720734 -0.21419244648949529 -0.040990824896808636 -0.22281787203541598 -0.21226372383453668 -0.21912855750275595 0.28904929050829886 -0.22695895175428818 0.30477626759126442 0.3068041113209467 -0.21136805141505233 -0.23368970668864031 0.30046474698853881 -0.13305893841185834 0.29958439895399519 0.06998441079866094
leaf_weight=123.64570476859808 656.81403011083603 4.2052552849054328 6.9401368722319594 28.550657451152802 74.137201875448227 10.252273187041281 10.756198406219481 7.1308927983045569 77.064563177525997 17.485230527818203 3.3386839032173148 53.396206736564636 3.6766544282436362 500.15132251381874 3.6267786026000968
leaf_count=1037 5640 20 58 242 637 41 82 29 316 132 23 216 28 2039 20
internal_value=0 0.17903 -0.159553 0.255585 0.0329227 -0.148022 0.194711 -0.176372 0.246439 0.278671 0.155856 0.269031 0.286774 0.296745 -0.205645
internal_weight=0 737.904 843.268 607.127 186.454 88.0163 98.4376 130.777 87.6814 578.577 74.2201 56.7349 80.7412 504.357 77.764
internal_count=10560 3738 6822 2672 1182 698 484 1066 402 2430 371 239 344 2059 657
is_linear=0
shrinkage=0.2


Tree=48
num_leaves=1
num_cat=0
split_feature=
split_gain=
threshold=
decision_type=
left_child=
right_child=
leaf_value=0
leaf_weight=0
leaf_count=0
internal_value=
internal_weight=
internal_count=
is_linear=0
shrinkage=1


Tree=49
num_leaves=1
num_cat=0
split_feature=
split_gain=
threshold=
decision_type=
left_child=
right_child=
leaf_value=0
leaf_weight=0
leaf_count=0
internal_value=
internal_weight=
internal_count=
is_linear=0
shrinkage=1


Tree=50
num_leaves=1
num_cat=0
split_feature=
split_gain=
threshold=
decision_type=
left_child=
right_child=
leaf_value=0
leaf_weight=0
leaf_count=0
internal_value=
internal_weight=
internal_count=
is_linear=0
shrinkage=1


Tree=51
num_leaves=1
num_cat=0
split_feature=
split_gain=
threshold=
decision_type=
left_child=
right_child=
leaf_value=0
leaf_weight=0
leaf_count=0
internal_value=
internal_weight=
internal_count=
is_linear=0
shrinkage=1


Tree=52
num_leaves=1
num_cat=0
split_feature=
split_gain=
threshold=
decision_type=
left_child=
right_child=
leaf_value=0
leaf_weight=0
leaf_count=0
internal_value=
internal_weight=
internal_count=
is_linear=0
shrinkage=1


Tree=53
num_leaves=1
num_cat=0
split_feature=
split_gain=
threshold=
decision_type=
left_child=
right_child=
leaf_value=0
leaf_weight=0
leaf_count=0
internal_value=
internal_weight=
internal_count=
is_linear=0
shrinkage=1


Tree=54
num_leaves=1
num_cat=0
split_feature=
split_gain=
threshold=
decision_type=
left_child=
right_child=
leaf_value=0
leaf_weight=0
leaf_count=0
internal_value=
internal_weight=
internal_count=
is_linear=0
shrinkage=1


Tree=55
num_leaves=1
num_cat=0
split_feature=
split_gain=
threshold=
decision_type=
left_child=
right_child=
leaf_value=0
leaf_weight=0
leaf_count=0
internal_value=
internal_weight=
internal_count=
is_linear=0
shrinkage=1


Tree=56
num_leaves=1
num_cat=0
split_feature=
split_gain=
threshold=
decision_type=
left_child=
right_child=
leaf_value=0
leaf_weight=0
leaf_count=0
internal_value=
internal_weight=
internal_count=
is_linear=0
shrinkage=1


Tree=57
num_leaves=1
num_cat=0
split_feature=
split_gain=
threshold=
decision_type=
left_child=
right_child=
leaf_value=0
leaf_weight=0
leaf_count=0
internal_value=
internal_weight=
internal_count=
is_linear=0
shrinkage=1


Tree=58
num_leaves=1
num_cat=0
split_feature=
split_gain=
threshold=
decision_type=
left_child=
right_child=
leaf_value=0
leaf_weight=0
leaf_count=0
internal_value=
internal_weight=
internal_count=
is_linear=0
shrinkage=1


Tree=59
num_leaves=1
num_cat=0
split_feature=
split_gain=
threshold=
decision_type=
left_child=
right_child=
leaf_value=0
leaf_weight=0
leaf_count=0
internal_value=
internal_weight=
internal_count=
is_linear=0
shrinkage=1


Tree=60
num_leaves=1
num_cat=0
split_feature=
split_gain=
threshold=
decision_type=
left_child=
right_child=
leaf_value=0
leaf_weight=0
leaf_count=0
internal_value=
internal_weight=
internal_count=
is_linear=0
shrinkage=1


Tree=61
num_leaves=1
num_cat=0
split_feature=
split_gain=
threshold=
decision_type=
left_child=
right_child=
leaf_value=0
leaf_weight=0
leaf_count=0
internal_value=
internal_weight=
internal_count=
is_linear=0
shrinkage=1


Tree=62
num_leaves=16
num_cat=0
split_feature=97 15 96 75 89 16 18 16 18 49 75 16 17 98 75
split_gain=1160.27 382.41 331.805 163.442 128.549 114.676 47.4148 35.108 32.9624 55.7918 23.98 21.5891 11.9833 10.7834 9.76707
threshold=0.48999786376953131 140.4347839355469 1.474998474121094 0.62000274658203136 0.0093113053590059298 225.54280090332034 55.821569442749031 265.09785461425787 15.203258991241457 0.29047986865043646 0.62000274658203136 188.23663330078128 69.346591949462905 0.71499633789062511 0.68999481201171886
decision_type=2 2 2 2 2 2 2 2 2 2 2 2 2 2 2
left_child=3 -2 4 6 10 -5 12 -8 9 -6 -3 -10 -1 -13 -7
right_child=1 2 -4 5 8 14 7 -9 11 -11 -12 13 -14 -15 -16
leaf_value=-0.21136892411619571 -0.20643117535698161 -0.21918476277790433 -0.21650756531590312 -0.22011832310964261 -0.2234810634064413 0.58615938991162109 -0.21932416218932727 0.34159423049499082 -0.27778874407471266 0.30349141797489165 0.37191544070938798 0.30156063499147184 0.1907092374105207 0.054898644413066758 0.26848450597556861
leaf_weight=696.35405087471008 94.828659676015377 24.888591915369037 62.88271290063858 26.860076613724232 13.446046516299246 4.251821666955947 7.4992722272872951 11.025652348995207 2.6126300171017638 19.974210202693939 3.0856404900550833 562.24476356059313 2.9776029884815207 7.1799952089786521 43.258695185184479
leaf_count=5913 805 212 533 227 111 20 63 45 14 82 12 2293 12 37 181
internal_value=0 0.170359 0.221673 -0.172052 0.265173 0.11018 -0.201291 0.114523 0.284539 0.0914734 -0.153985 0.295819 -0.209657 0.29845 0.296914
internal_weight=0 791.143 696.315 792.227 633.432 74.3706 717.857 18.5249 605.458 33.4203 27.9742 572.037 699.332 569.425 47.5105
internal_count=10560 4099 3294 6461 2761 428 6033 108 2537 193 224 2344 5925 2330 201
is_linear=0
shrinkage=0.2


Tree=63
num_leaves=1
num_cat=0
split_feature=
split_gain=
threshold=
decision_type=
left_child=
right_child=
leaf_value=0
leaf_weight=0
leaf_count=0
internal_value=
internal_weight=
internal_count=
is_linear=0
shrinkage=1


Tree=64
num_leaves=16
num_cat=0
split_feature=75 84 91 86 17 97 16 89 53 16 97 16 69 89 95
split_gain=1012.05 133.609 47.486 46.6547 36.0032 32.214 26.353 16.991 15.746 14.0672 34.1584 13.5508 15.0026 10.8947 14.9276
threshold=0.26999664306640631 0.08713437989354135 0.027205646038055423 0.98965686559677135 26.461100578308109 0.62500000000000011 79.554443359375014 0.007225228939205409 0.31099832057952886 154.3211364746094 0.28000640869140631 77.402061462402358 0.021120096556842331 0.0011248221271671357 2.5981370210647587
decision_type=2 2 2 2 2 2 2 2 2 2 2 2 2 2 2
left_child=1 13 3 -2 5 -3 7 -6 -9 -8 -11 12 -4 -1 -15
right_child=2 4 11 -5 6 -7 9 8 -10 10 -12 -13 -14 14 -16
leaf_value=0.25417460245609641 -0.1168414037870472 0.27724175139461155 0.27658075321392034 0.20664618608800545 0.25168359453745442 -0.21140420131716153 -0.13628340630998856 0.28565827111455827 -0.18480509062460285 0.3495009815779595 -0.19459183746113562 -0.19342759570492474 -0.21498890956737826 -0.025560328665770335 0.2093421118412529
leaf_weight=379.65661734342575 72.775809817016125 31.220998950302601 5.2037064507603628 23.622288428246975 17.833493381738666 6.5242609083652487 64.066724963486195 4.0492243915796271 9.5735607743263227 8.7225232310593146 9.8020614832639676 561.2645028270781 4.750708632171154 12.491124972701071 80.941822595894337
leaf_count=1838 699 157 27 131 76 71 540 22 65 44 101 6300 46 68 375
internal_value=0 0.186734 -0.167413 -0.037571 0.0234679 0.192779 -0.0325676 0.123214 -0.044965 -0.0918995 0.0616008 -0.189325 0.0419809 0.239118 0.177938
internal_weight=0 624.882 667.617 96.3981 151.793 37.7453 114.048 31.4563 13.6228 82.5913 18.5246 571.219 9.95442 473.09 93.4329
internal_count=10560 3357 7203 830 1076 228 848 163 87 685 145 6373 73 2281 443
is_linear=0
shrinkage=0.2


Tree=65
num_leaves=16
num_cat=0
split_feature=16 89 16 89 67 16 18 91 16 97 20 71 91 15 17
split_gain=1026.84 296.758 43.7968 42.4475 17.0042 25.5225 16.9066 20.8165 11.7107 23.9744 9.2206 7.75021 7.06194 10.7219 10.7073
threshold=161.70371246337893 0.0014226469793356957 79.134162902832045 0.007225228939205409 0.78912058472633373 219.61350250244143 23.412096023559574 0.065697371959686293 188.23663330078128 0.29000091552734381 62.44305610656739 -1.4884122610092161 0.01580944657325745 75.519714355468764 33.262411117553718
decision_type=2 2 2 2 2 2 2 2 2 2 2 2 2 2 2
left_child=1 -1 3 11 8 -6 7 -4 9 -2 -5 -3 13 14 -8
right_child=4 2 6 10 5 -7 12 -9 -10 -11 -12 -13 -14 -15 -16
leaf_value=-0.18311073491510368 -0.22999739699309585 0.072992990039386141 -0.19328653610489016 0.20757675448861021 0.36052891274280785 -0.17754830557896484 0.22010092770938017 0.25155522220829851 -0.20741719094227593 0.24707261041676812 -0.085242221061646362 -0.20581902311243894 0.2538301310108233 0.21738112579173993 -0.178186631915906
leaf_weight=86.735361024737358 10.684413366019728 5.0135599896311787 8.232672259211542 41.238552078604698 5.4105976298451415 10.123830106109379 5.1615601852536184 8.6069088131189329 546.97826993837953 6.9570876136422148 4.8024410456418982 19.494696401059628 353.93456959724426 161.82046573609114 5.6610880792140961
leaf_count=991 86 32 42 189 28 86 23 40 6374 38 23 164 1692 724 28
internal_value=0 0.163178 0.212099 0.0638472 -0.196565 0.00986248 0.231346 0.0340773 -0.202244 -0.0418605 0.177033 -0.148784 0.237654 0.204491 0.0117655
internal_weight=0 700.702 613.967 70.5492 580.154 15.5344 543.417 16.8396 564.62 17.6415 46.041 24.5083 526.578 172.643 10.8226
internal_count=10560 3948 2957 408 6612 114 2549 82 6498 124 212 196 2467 775 51
is_linear=0
shrinkage=0.2


Tree=66
num_leaves=1
num_cat=0
split_feature=
split_gain=
threshold=
decision_type=
left_child=
right_child=
leaf_value=0
leaf_weight=0
leaf_count=0
internal_value=
internal_weight=
internal_count=
is_linear=0
shrinkage=1


Tree=67
num_leaves=1
num_cat=0
split_feature=
split_gain=
threshold=
decision_type=
left_child=
right_child=
leaf_value=0
leaf_weight=0
leaf_count=0
internal_value=
internal_weight=
internal_count=
is_linear=0
shrinkage=1


Tree=68
num_leaves=16
num_cat=0
split_feature=18 91 16 20 89 96 70 96 20 84 96 18 74 70 70
split_gain=715.181 297.458 160.209 99.2554 87.5907 44.0192 37.929 31.6931 29.1433 20.5697 51.7866 33.1048 21.9444 19.0276 11.319
threshold=20.314744949340824 0.040138393640518195 230.23744964599612 80.600383758544936 0.027499565854668621 1.3249969482421877 0.042239248752594001 1.1849975585937502 55.009481430053718 0.12137312069535257 1.1849975585937502 9.5600528717041033 0.45338998734951025 0.46109890937805181 0.13764423131942752
decision_type=2 2 2 2 2 2 2 2 2 2 2 2 2 2 2
left_child=1 7 -2 9 6 -6 -4 -1 14 -3 11 -11 -12 -7 -8
right_child=2 3 4 -5 5 13 8 -9 -10 10 12 -13 -14 -15 -16
leaf_value=-0.19420997910875051 -0.20746834279763904 0.26139891379729069 -0.21023619404409885 -0.20147789909044456 -0.21144925529814423 0.29956952828038846 0.26821015168028522 0.26938169649963672 -0.21829156164265326 0.19255984330940618 -0.22737913313443744 -0.27800379147807469 0.2406704844508484 -0.22192209163114349 -0.074752359098491747
leaf_weight=92.225231632590294 480.21370685473084 336.31439362466335 9.6193395555019361 21.879977576434612 59.374822437763214 11.368172898888586 64.936026096343994 6.3017128705978385 5.8161984756588927 9.9338682070374507 4.1453755050897589 15.025594078004358 119.87748274207115 3.7126489654183379 4.0917991995811454
leaf_count=1026 5528 1637 112 250 690 54 316 29 55 51 22 130 593 32 35
internal_value=0 0.153432 -0.149865 0.215207 0.0241982 -0.133947 0.163605 -0.164559 0.211654 0.233994 0.172128 -0.0907194 0.225026 0.171187 0.24788
internal_weight=0 605.704 639.133 507.177 158.919 74.4556 84.4634 98.5269 74.844 485.297 148.982 24.9595 124.023 15.0808 69.0278
internal_count=10560 3738 6822 2683 1294 776 518 1055 406 2433 796 181 615 86 351
is_linear=0
shrinkage=0.2


Tree=69
num_leaves=1
num_cat=0
split_feature=
split_gain=
threshold=
decision_type=
left_child=
right_child=
leaf_value=0
leaf_weight=0
leaf_count=0
internal_value=
internal_weight=
internal_count=
is_linear=0
shrinkage=1


Tree=70
num_leaves=1
num_cat=0
split_feature=
split_gain=
threshold=
decision_type=
left_child=
right_child=
leaf_value=0
leaf_weight=0
leaf_count=0
internal_value=
internal_weight=
internal_count=
is_linear=0
shrinkage=1


Tree=71
num_leaves=1
num_cat=0
split_feature=
split_gain=
threshold=
decision_type=
left_child=
right_child=
leaf_value=0
leaf_weight=0
leaf_count=0
internal_value=
internal_weight=
internal_count=
is_linear=0
shrinkage=1


Tree=72
num_leaves=1
num_cat=0
split_feature=
split_gain=
threshold=
decision_type=
left_child=
right_child=
leaf_value=0
leaf_weight=0
leaf_count=0
internal_value=
internal_weight=
internal_count=
is_linear=0
shrinkage=1


Tree=73
num_leaves=1
num_cat=0
split_feature=
split_gain=
threshold=
decision_type=
left_child=
right_child=
leaf_value=0
leaf_weight=0
leaf_count=0
internal_value=
internal_weight=
internal_count=
is_linear=0
shrinkage=1


Tree=74
num_leaves=1
num_cat=0
split_feature=
split_gain=
threshold=
decision_type=
left_child=
right_child=
leaf_value=0
leaf_weight=0
leaf_count=0
internal_value=
internal_weight=
internal_count=
is_linear=0
shrinkage=1


Tree=75
num_leaves=1
num_cat=0
split_feature=
split_gain=
threshold=
decision_type=
left_child=
right_child=
leaf_value=0
leaf_weight=0
leaf_count=0
internal_value=
internal_weight=
internal_count=
is_linear=0
shrinkage=1


Tree=76
num_leaves=1
num_cat=0
split_feature=
split_gain=
threshold=
decision_type=
left_child=
right_child=
leaf_value=0
leaf_weight=0
leaf_count=0
internal_value=
internal_weight=
internal_count=
is_linear=0
shrinkage=1


Tree=77
num_leaves=1
num_cat=0
split_feature=
split_gain=
threshold=
decision_type=
left_child=
right_child=
leaf_value=0
leaf_weight=0
leaf_count=0
internal_value=
internal_weight=
internal_count=
is_linear=0
shrinkage=1


Tree=78
num_leaves=1
num_cat=0
split_feature=
split_gain=
threshold=
decision_type=
left_child=
right_child=
leaf_value=0
leaf_weight=0
leaf_count=0
internal_value=
internal_weight=
internal_count=
is_linear=0
shrinkage=1


Tree=79
num_leaves=1
num_cat=0
split_feature=
split_gain=
threshold=
decision_type=
left_child=
right_child=
leaf_value=0
leaf_weight=0
leaf_count=0
internal_value=
internal_weight=
internal_count=
is_linear=0
shrinkage=1


Tree=80
num_leaves=1
num_cat=0
split_feature=
split_gain=
threshold=
decision_type=
left_child=
right_child=
leaf_value=0
leaf_weight=0
leaf_count=0
internal_value=
internal_weight=
internal_count=
is_linear=0
shrinkage=1


Tree=81
num_leaves=1
num_cat=0
split_feature=
split_gain=
threshold=
decision_type=
left_child=
right_child=
leaf_value=0
leaf_weight=0
leaf_count=0
internal_value=
internal_weight=
internal_count=
is_linear=0
shrinkage=1


Tree=82
num_leaves=1
num_cat=0
split_feature=
split_gain=
threshold=
decision_type=
left_child=
right_child=
leaf_value=0
leaf_weight=0
leaf_count=0
internal_value=
internal_weight=
internal_count=
is_linear=0
shrinkage=1


Tree=83
num_leaves=16
num_cat=0
split_feature=97 15 96 75 89 16 18 16 94 18 75 16 18 95 85
split_gain=738.877 234.564 202.471 110.425 73.8536 68.0904 33.838 35.8941 23.0848 32.9807 15.3269 14.3102 14.279 8.35818 11.1933
threshold=0.48999786376953131 133.09523773193362 1.474998474121094 0.62000274658203136 0.0093113053590059298 227.1569747924805 54.166429519653327 265.09785461425787 10.302023887634279 49.057355880737312 0.62000274658203136 188.23663330078128 9.7605724334716815 6.1236407756805429 0.82042008638381969
decision_type=2 2 2 2 2 2 2 2 2 2 2 2 2 2 2
left_child=3 -2 4 6 10 -5 -1 -8 11 -10 -3 -6 -13 -14 -15
right_child=1 2 -4 5 8 -7 7 -9 9 -11 -12 12 13 14 -16
leaf_value=-0.20023866022444797 -0.19924641917306518 -0.2098270733171686 -0.20710493691238696 -0.1980891697675041 -0.25036562522341427 0.24313705584145714 -0.2129379092676362 0.31206909575171843 -0.18578691704628111 0.26762050316104097 0.29385731462621867 -0.087248538993039026 0.25905231101483106 -0.19105118494246651 0.26179859264628896
leaf_weight=519.481350466609 69.863241866230965 18.225442588329319 47.405336126685143 21.313061594963074 2.2801146879792205 40.71804803609848 10.037453182041647 10.828474834561346 12.073837101459505 13.697001993656157 2.7859629243612281 4.9155901968479148 465.12357278168201 3.891504265367983 4.9736977070569992
leaf_count=5871 794 212 540 234 15 194 111 51 99 66 12 47 2270 20 24
internal_value=0 0.146814 0.188833 -0.161195 0.224384 0.0915376 -0.190208 0.059517 0.239612 0.0551956 -0.143042 0.249489 0.251869 0.255386 0.0630139
internal_weight=0 645.235 575.372 602.378 527.967 62.0311 540.347 20.8659 506.955 25.7708 21.0114 481.184 478.904 473.989 8.8652
internal_count=10560 4099 3305 6461 2765 428 6033 162 2541 165 224 2376 2361 2314 44
is_linear=0
shrinkage=0.2


Tree=84
num_leaves=1
num_cat=0
split_feature=
split_gain=
threshold=
decision_type=
left_child=
right_child=
leaf_value=0
leaf_weight=0
leaf_count=0
internal_value=
internal_weight=
internal_count=
is_linear=0
shrinkage=1


Tree=85
num_leaves=16
num_cat=0
split_feature=70 89 18 97 91 17 89 96 96 95 84 54 96 88 16
split_gain=641.56 108.555 30.5856 44.6207 23.0295 21.2364 22.0271 16.9683 14.8631 13.9517 20.4487 13.1875 10.9343 10.4388 10.1154
threshold=0.023700475692749027 0.0043181125074625024 34.53857612609864 0.40999603271484381 0.04902967810630799 15.505099773406984 0.0023461490636691455 0.22499847412109378 0.95500183105468761 3.1471050977706914 0.065292872488498702 0.044998168945312507 0.59999847412109386 0.47179727256298071 154.3211364746094
decision_type=2 2 2 2 2 2 2 2 2 2 2 2 2 2 2
left_child=1 9 3 12 5 8 -7 -4 13 10 -1 -9 -3 -2 -12
right_child=4 2 7 -5 -6 6 -8 11 -10 -11 14 -13 -14 -15 -16
leaf_value=0.23978632448913376 0.53942950210760621 0.18303382094615595 0.39661096622350955 -0.17606589293558184 -0.18590601270656659 0.23030753800487835 -0.14641193197505362 0.22934773090136451 -0.21101042793814462 0.21886019906396889 -0.12708412003602304 -0.1180561163545393 0.44554221671800165 0.12544559392047569 0.23375256075388889
leaf_weight=18.800360471010208 3.3223963305354145 23.391778394579887 2.8863257169723502 13.773639366030691 372.08076945692301 6.7054151073098174 83.763408660888672 4.6491499841213217 3.9123639464378348 368.27843212336302 15.283546663820745 72.977592699229717 8.7103685885667783 9.1359108686447126 3.9006854295730582
leaf_count=113 18 145 15 193 5701 39 1023 39 47 2219 80 793 51 66 18
internal_value=0 0.156597 -0.00527875 0.125061 -0.162405 -0.0805596 -0.11849 -0.0795452 0.129054 0.206957 0.0915521 -0.0972497 0.254261 0.235847 -0.053716
internal_weight=0 532.652 126.389 45.8758 478.92 106.839 90.4688 80.5131 16.3707 406.263 37.9846 77.6267 32.1021 12.4583 19.1842
internal_count=10560 3666 1236 389 6894 1193 1062 847 131 2430 211 832 196 84 98
is_linear=0
shrinkage=0.2


Tree=86
num_leaves=16
num_cat=0
split_feature=16 84 15 89 18 23 67 17 16 74 35 96 18 16 84
split_gain=665.501 177.958 33.0725 29.9972 23.6302 11.6912 11.2704 14.7958 10.1806 17.2394 8.21941 6.40161 8.15778 6.2818 10.5725
threshold=177.37515258789065 0.064157173037529006 75.974681854248061 0.0077187945134937772 54.166429519653327 0.69828444719314586 0.78912058472633373 4.8714568614959726 154.3211364746094 0.90183839201927196 0.12000274658203126 0.73500061035156261 33.235504150390632 77.402061462402358 0.11635926365852357
decision_type=2 2 2 2 2 2 2 2 2 2 2 2 2 2 2
left_child=1 -1 3 -3 5 -4 -2 -8 13 -10 -9 12 -5 14 -7
right_child=6 2 4 11 -6 8 7 10 9 -11 -12 -13 -14 -15 -16
leaf_value=-0.18201620653213293 -0.19882929718997852 -0.1261270940897484 -0.26054076689288674 -0.12207116424637361 -0.26708648440948596 -0.22123191305829271 0.35255488240790966 -0.24582848752133085 0.19007548969537888 -0.28988594755832453 0.14058537172062818 0.20903879968947017 0.14931914446686664 0.21310634325642056 0.19179031932373211
leaf_weight=61.945781569927931 402.80475004762411 25.026079405099154 2.1811289787292472 6.6205730065703419 4.3495850935578337 3.5915049016475669 3.3224311731755725 7.4326403103768808 9.1684496700763685 4.4445260018110266 3.1287725009024143 26.798765018582344 13.392491713166235 416.14182852208614 8.0037932246923429
leaf_count=965 6416 234 11 34 28 34 15 74 47 30 23 148 66 2395 40
internal_value=0 0.138412 0.176604 0.0506291 0.19681 0.201359 -0.192723 -0.0155545 0.203642 0.033372 -0.131355 0.145125 0.0595398 0.209061 0.0638616
internal_weight=0 581.665 519.719 71.8379 447.881 443.531 416.689 13.8838 441.35 13.613 10.5614 46.8118 20.0131 427.737 11.5953
internal_count=10560 4032 3067 482 2585 2557 6528 112 2546 77 97 248 100 2469 74
is_linear=0
shrinkage=0.2


Tree=87
num_leaves=1
num_cat=0
split_feature=
split_gain=
threshold=
decision_type=
left_child=
right_child=
leaf_value=0
leaf_weight=0
leaf_count=0
internal_value=
internal_weight=
internal_count=
is_linear=0
shrinkage=1


Tree=88
num_leaves=1
num_cat=0
split_feature=
split_gain=
threshold=
decision_type=
left_child=
right_child=
leaf_value=0
leaf_weight=0
leaf_count=0
internal_value=
internal_weight=
internal_count=
is_linear=0
shrinkage=1


Tree=89
num_leaves=16
num_cat=0
split_feature=18 91 16 20 89 96 70 96 20 63 96 84 16 94 77
split_gain=465.796 184.682 112.784 61.6063 56.3516 30.0706 24.0438 21.4194 18.6063 17.7782 22.4908 33.9218 14.0845 11.9886 8.56017
threshold=20.314744949340824 0.040138393640518195 230.23744964599612 81.37216949462892 0.027499565854668621 1.3249969482421877 0.042239248752594001 1.1849975585937502 55.009481430053718 0.12489788979291917 1.254997253417969 0.12368757650256158 216.74015045166018 8.2927112579345721 0.30500030517578131
decision_type=2 2 2 2 2 2 2 2 2 2 2 2 2 2 2
left_child=1 7 -2 9 6 -6 -4 -1 14 -3 11 -11 -12 -7 -8
right_child=2 3 4 -5 5 13 8 -9 -10 10 12 -13 -14 -15 -16
leaf_value=-0.18280590530752264 -0.20088039781612277 0.22673780403908719 -0.20431638791135481 -0.20438938637431239 -0.20551135820918498 -0.21172614630995734 0.24312178320855296 0.24227013476639711 -0.21017444621425707 0.23743467526214226 -0.14413442311756294 -0.24018408006855646 0.23189661939323872 0.25220349599212105 -0.053831607018549867
leaf_weight=68.846316393464804 352.49458974972367 312.89311657845974 6.9579243138432494 15.197802212089298 43.005696177482605 2.8913306109607211 50.557709105312824 5.0924225002527228 4.3338343352079383 10.25624865293503 4.3933027312159529 14.160296704620121 42.7991793602705 9.7123575061559659 4.2060223817825309
leaf_count=1026 5528 1937 112 240 690 34 315 29 55 63 31 155 257 52 36
internal_value=0 0.13684 -0.143575 0.190554 0.0224547 -0.125893 0.147343 -0.153529 0.188746 0.206164 0.116268 -0.0395588 0.196891 0.145776 0.220315
internal_weight=0 473.639 474.159 399.7 121.665 55.6094 66.0555 73.9387 59.0976 384.502 71.609 24.4165 47.1925 12.6037 54.7637
internal_count=10560 3738 6822 2683 1294 776 518 1055 406 2443 506 218 288 86 351
is_linear=0
shrinkage=0.2


Tree=90
num_leaves=1
num_cat=0
split_feature=
split_gain=
threshold=
decision_type=
left_child=
right_child=
leaf_value=0
leaf_weight=0
leaf_count=0
internal_value=
internal_weight=
internal_count=
is_linear=0
shrinkage=1


Tree=91
num_leaves=1
num_cat=0
split_feature=
split_gain=
threshold=
decision_type=
left_child=
right_child=
leaf_value=0
leaf_weight=0
leaf_count=0
internal_value=
internal_weight=
internal_count=
is_linear=0
shrinkage=1


Tree=92
num_leaves=1
num_cat=0
split_feature=
split_gain=
threshold=
decision_type=
left_child=
right_child=
leaf_value=0
leaf_weight=0
leaf_count=0
internal_value=
internal_weight=
internal_count=
is_linear=0
shrinkage=1


Tree=93
num_leaves=1
num_cat=0
split_feature=
split_gain=
threshold=
decision_type=
left_child=
right_child=
leaf_value=0
leaf_weight=0
leaf_count=0
internal_value=
internal_weight=
internal_count=
is_linear=0
shrinkage=1


Tree=94
num_leaves=1
num_cat=0
split_feature=
split_gain=
threshold=
decision_type=
left_child=
right_child=
leaf_value=0
leaf_weight=0
leaf_count=0
internal_value=
internal_weight=
internal_count=
is_linear=0
shrinkage=1


Tree=95
num_leaves=1
num_cat=0
split_feature=
split_gain=
threshold=
decision_type=
left_child=
right_child=
leaf_value=0
leaf_weight=0
leaf_count=0
internal_value=
internal_weight=
internal_count=
is_linear=0
shrinkage=1


Tree=96
num_leaves=1
num_cat=0
split_feature=
split_gain=
threshold=
decision_type=
left_child=
right_child=
leaf_value=0
leaf_weight=0
leaf_count=0
internal_value=
internal_weight=
internal_count=
is_linear=0
shrinkage=1


Tree=97
num_leaves=1
num_cat=0
split_feature=
split_gain=
threshold=
decision_type=
left_child=
right_child=
leaf_value=0
leaf_weight=0
leaf_count=0
internal_value=
internal_weight=
internal_count=
is_linear=0
shrinkage=1


Tree=98
num_leaves=1
num_cat=0
split_feature=
split_gain=
threshold=
decision_type=
left_child=
right_child=
leaf_value=0
leaf_weight=0
leaf_count=0
internal_value=
internal_weight=
internal_count=
is_linear=0
shrinkage=1


Tree=99
num_leaves=1
num_cat=0
split_feature=
split_gain=
threshold=
decision_type=
left_child=
right_child=
leaf_value=0
leaf_weight=0
leaf_count=0
internal_value=
internal_weight=
internal_count=
is_linear=0
shrinkage=1


Tree=100
num_leaves=1
num_cat=0
split_feature=
split_gain=
threshold=
decision_type=
left_child=
right_child=
leaf_value=0
leaf_weight=0
leaf_count=0
internal_value=
internal_weight=
internal_count=
is_linear=0
shrinkage=1


Tree=101
num_leaves=1
num_cat=0
split_feature=
split_gain=
threshold=
decision_type=
left_child=
right_child=
leaf_value=0
leaf_weight=0
leaf_count=0
internal_value=
internal_weight=
internal_count=
is_linear=0
shrinkage=1


Tree=102
num_leaves=1
num_cat=0
split_feature=
split_gain=
threshold=
decision_type=
left_child=
right_child=
leaf_value=0
leaf_weight=0
leaf_count=0
internal_value=
internal_weight=
internal_count=
is_linear=0
shrinkage=1


Tree=103
num_leaves=1
num_cat=0
split_feature=
split_gain=
threshold=
decision_type=
left_child=
right_child=
leaf_value=0
leaf_weight=0
leaf_count=0
internal_value=
internal_weight=
internal_count=
is_linear=0
shrinkage=1


Tree=104
num_leaves=16
num_cat=0
split_feature=97 15 96 89 75 16 17 94 18 18 75 18 7 18 16
split_gain=485.503 161.462 129.823 76.3441 56.4375 41.5985 19.7964 14.5633 20.3907 11.1964 10.7996 10.3653 10.7145 10.0255 7.93076
threshold=0.45999908447265631 133.09523773193362 1.439994812011719 0.0093113053590059298 0.60499572753906261 227.1569747924805 67.024555206298842 10.302023887634279 36.562162399291999 60.335601806640632 0.62000274658203136 11.519395828247072 0.5412588119506837 56.641967773437507 265.09785461425787
decision_type=2 2 2 2 2 2 2 2 2 2 2 2 2 2 2
left_child=4 -2 3 10 6 -6 13 11 -9 -4 -3 12 -5 -1 -15
right_child=1 2 9 7 5 -7 -8 8 -10 -11 -12 -13 -14 14 -16
leaf_value=-0.19531282008734818 -0.1910279528358424 -0.2034111038581731 -0.20272993695392053 -0.21856346476663113 -0.20618411381903951 0.20757632555930089 0.1626155611041287 -0.21044828113858385 0.21025275210441141 0.23315256070072216 0.25487043651265989 0.23149035205880339 0.25231501664166384 -0.204502217796693 0.24946200859246051
leaf_weight=371.70524736493826 57.094913773238659 20.571788556873802 38.209002207964659 4.1976820528507224 15.189760774374006 26.988308042287827 6.4380499124526969 7.4528722316026714 12.074137054383753 2.5121929645538321 2.285348877310752 375.18182776123285 3.5826008915901184 2.6545437313616267 3.6640601754188538
leaf_count=5688 884 336 571 52 228 154 37 79 75 16 12 2345 20 41 22
internal_value=0 0.126421 0.165309 0.197969 -0.16105 0.0585671 -0.185144 0.218162 0.0496838 -0.175839 -0.15759 0.226752 -0.0017372 -0.191066 0.0587446
internal_weight=0 523.162 466.067 425.346 426.64 42.1781 384.462 402.489 19.527 40.7212 22.8571 382.962 7.78028 378.024 6.3186
internal_count=10560 4390 3506 2919 6170 382 5788 2571 154 587 348 2417 72 5751 63
is_linear=0
shrinkage=0.2


Tree=105
num_leaves=1
num_cat=0
split_feature=
split_gain=
threshold=
decision_type=
left_child=
right_child=
leaf_value=0
leaf_weight=0
leaf_count=0
internal_value=
internal_weight=
internal_count=
is_linear=0
shrinkage=1


Tree=106
num_leaves=16
num_cat=0
split_feature=70 84 97 16 20 91 17 16 16 16 63 12 15 16 18
split_gain=404.811 68.2614 24.878 36.3075 23.8319 20.5641 15.3024 13.6685 13.1647 12.0493 11.5578 11.2909 11.2826 10.9817 13.4457
threshold=0.023700475692749027 0.077753394842147841 0.41500091552734381 154.3211364746094 58.359169006347663 0.01580944657325745 58.42869949340821 75.487899780273452 101.69966125488283 80.940856933593764 0.13674454391002658 0.030006408691406253 76.754447937011733 79.134162902832045 40.107522964477546
decision_type=2 2 2 2 2 2 2 2 2 2 2 2 2 2 2
left_child=1 -1 3 4 6 12 13 10 9 -6 -7 -9 -2 -3 -15
right_child=5 2 -4 -5 8 7 -8 11 -10 -11 -12 -13 -14 14 -16
leaf_value=0.20134153719174464 0.30567858569070067 0.069213960610262068 -0.16347849964453487 0.27432377070087344 0.18280783514904317 0.28189656608899932 0.31490902268987886 0.22785517946682876 -0.091030476277629807 0.60057058177972156 -0.2059371320695228 -0.17257746956174005 -0.039776897096032673 0.026256480622722025 -0.1761484042648758
leaf_weight=266.76069314032793 4.5026109591126469 19.536728624254465 21.638686876744032 27.172287501394749 19.692955896258361 5.0087142735719663 4.6084878221154204 2.8416002318263045 6.01712817326188 3.2120366320013991 3.1734833158552647 320.49926958046854 23.619025576859713 20.337551407516003 37.033316366374493
leaf_count=2123 30 129 404 175 121 32 37 38 36 26 48 6437 309 174 441
internal_value=0 0.139485 0.0358682 0.0672147 0.0162574 -0.14867 -0.0390831 -0.162598 0.172233 0.241392 0.0926892 -0.169058 0.0155347 -0.0602951 -0.104397
internal_weight=0 426.01 159.249 137.61 110.438 359.645 81.5161 331.523 28.9221 22.905 8.1822 323.341 28.1216 76.9076 57.3709
internal_count=10560 3666 1543 1139 964 6894 781 6555 183 147 80 6475 339 744 615
is_linear=0
shrinkage=0.2


Tree=107
num_leaves=16
num_cat=0
split_feature=16 84 96 19 18 16 18 67 73 88 17 94 20 54 15
split_gain=435.937 107.624 28.5733 25.2559 16.7169 13.429 12.9668 10.5975 11.2944 9.27605 9.12355 8.47485 8.46222 8.39657 7.88501
threshold=188.23663330078128 0.064157173037529006 0.69499969482421886 62.94117736816407 54.166429519653327 74.576229095458999 20.314744949340824 0.78912058472633373 3.0907067060470585 0.85756516456604015 43.810937881469734 9.5132279396057147 59.846366882324226 0.31999969482421881 121.15384674072267
decision_type=2 2 2 2 2 2 2 2 2 2 2 2 2 2 2
left_child=1 -1 3 4 5 10 -7 -2 13 -4 11 -3 -5 -9 -8
right_child=7 2 9 12 -6 6 14 8 -10 -11 -12 -13 -14 -15 -16
leaf_value=-0.17037594659349642 -0.19569345578942099 -0.10304918768436738 0.209329680656345 0.018094011113182287 -0.32569468112429079 -0.27849316888313369 0.16626117580731525 -0.20390643576611628 -0.2182705965099363 -0.16008442309031803 -0.2649176011257186 0.36925102526407033 -0.22568327289351953 0.30288974843096228 0.020730589112452472
leaf_weight=45.923406150192022 287.71732427738607 3.7440318092703802 206.91916432976723 11.94942904263735 3.2459921650588504 2.8362225964665404 158.5919439047575 1.7791668698191623 5.4853527508676052 2.7551206722855559 5.4383319653570652 2.5579639561474323 10.883685268461702 4.9343014433979988 16.435325041413307
leaf_count=978 6374 34 1594 88 25 18 1023 32 50 17 61 14 117 30 105
internal_value=0 0.120498 0.151902 0.100793 0.124342 0.132047 0.145721 -0.187952 -0.00537146 0.204476 -0.0751255 0.0886563 -0.0981054 0.168581 0.152596
internal_weight=0 471.281 425.357 215.683 192.85 189.604 177.863 299.916 12.1988 209.674 11.7403 6.302 22.8331 6.71347 175.027
internal_count=10560 4074 3096 1485 1280 1255 1146 6486 112 1611 109 48 205 62 1128
is_linear=0
shrinkage=0.2


Tree=108
num_leaves=1
num_cat=0
split_feature=
split_gain=
threshold=
decision_type=
left_child=
right_child=
leaf_value=0
leaf_weight=0
leaf_count=0
internal_value=
internal_weight=
internal_count=
is_linear=0
shrinkage=1


Tree=109
num_leaves=1
num_cat=0
split_feature=
split_gain=
threshold=
decision_type=
left_child=
right_child=
leaf_value=0
leaf_weight=0
leaf_count=0
internal_value=
internal_weight=
internal_count=
is_linear=0
shrinkage=1


Tree=110
num_leaves=16
num_cat=0
split_feature=18 70 16 20 89 97 96 70 63 96 89 20 16 49 20
split_gain=309.24 121.228 79.0763 43.071 35.8797 30.8098 20.9897 14.6132 14.4675 16.021 20.3034 12.578 8.60329 7.84872 6.57397
threshold=20.913675308227543 0.033235162496566779 230.23744964599612 81.37216949462892 0.027499565854668621 1.194999694824219 1.3249969482421877 0.042239248752594001 0.12489788979291917 1.254997253417969 0.0060281758196651944 53.92127990722657 216.74015045166018 0.49697619676589971 78.228473663330092
decision_type=2 2 2 2 2 2 2 2 2 2 2 2 2 2 2
left_child=1 5 -2 8 7 14 -6 -4 -3 10 -10 -9 -11 -8 -1
right_child=2 3 4 -5 6 -7 13 11 9 12 -12 -13 -14 -15 -16
leaf_value=-0.21039767563267675 -0.1973426188943618 0.21256553858477664 -0.19969567884553541 -0.20040362468458023 -0.20169114785047051 0.2209858796804739 0.23577779611205751 0.20761896897581469 0.20556143595692553 -0.09043206951066099 -0.20637878164417134 -0.15931969224237824 0.21766704648334478 -0.15947688787569705 0.026813720603233726
leaf_weight=48.301449343562126 255.47617556154728 235.67526115104556 4.6499016582965842 11.693936508148907 30.149453615769744 8.5718910694122297 7.4916461929678899 39.786947902292013 7.9007718488574055 4.1167235858738414 12.139013558626173 4.1239887513220301 30.369375094771385 2.7462345995008945 5.1737925931811324
leaf_count=939 5481 1930 106 260 673 69 50 329 66 34 181 63 239 36 104
internal_value=0 0.123592 -0.140797 0.175922 0.0216132 -0.131022 -0.117672 0.137455 0.191086 0.0982467 -0.0439696 0.173157 0.180888 0.129754 -0.187447
internal_weight=0 363.942 344.424 301.895 88.9482 62.0471 40.3873 48.5608 290.201 54.5259 20.0398 43.9109 34.4861 10.2379 53.4752
internal_count=10560 3822 6738 2710 1257 1112 759 498 2450 520 247 392 273 86 1043
is_linear=0
shrinkage=0.2


Tree=111
num_leaves=1
num_cat=0
split_feature=
split_gain=
threshold=
decision_type=
left_child=
right_child=
leaf_value=0
leaf_weight=0
leaf_count=0
internal_value=
internal_weight=
internal_count=
is_linear=0
shrinkage=1


Tree=112
num_leaves=1
num_cat=0
split_feature=
split_gain=
threshold=
decision_type=
left_child=
right_child=
leaf_value=0
leaf_weight=0
leaf_count=0
internal_value=
internal_weight=
internal_count=
is_linear=0
shrinkage=1


Tree=113
num_leaves=1
num_cat=0
split_feature=
split_gain=
threshold=
decision_type=
left_child=
right_child=
leaf_value=0
leaf_weight=0
leaf_count=0
internal_value=
internal_weight=
internal_count=
is_linear=0
shrinkage=1


Tree=114
num_leaves=1
num_cat=0
split_feature=
split_gain=
threshold=
decision_type=
left_child=
right_child=
leaf_value=0
leaf_weight=0
leaf_count=0
internal_value=
internal_weight=
internal_count=
is_linear=0
shrinkage=1


Tree=115
num_leaves=1
num_cat=0
split_feature=
split_gain=
threshold=
decision_type=
left_child=
right_child=
leaf_value=0
leaf_weight=0
leaf_count=0
internal_value=
internal_weight=
internal_count=
is_linear=0
shrinkage=1


Tree=116
num_leaves=1
num_cat=0
split_feature=
split_gain=
threshold=
decision_type=
left_child=
right_child=
leaf_value=0
leaf_weight=0
leaf_count=0
internal_value=
internal_weight=
internal_count=
is_linear=0
shrinkage=1


Tree=117
num_leaves=1
num_cat=0
split_feature=
split_gain=
threshold=
decision_type=
left_child=
right_child=
leaf_value=0
leaf_weight=0
leaf_count=0
internal_value=
internal_weight=
internal_count=
is_linear=0
shrinkage=1


Tree=118
num_leaves=1
num_cat=0
split_feature=
split_gain=
threshold=
decision_type=
left_child=
right_child=
leaf_value=0
leaf_weight=0
leaf_count=0
internal_value=
internal_weight=
internal_count=
is_linear=0
shrinkage=1


Tree=119
num_leaves=1
num_cat=0
split_feature=
split_gain=
threshold=
decision_type=
left_child=
right_child=
leaf_value=0
leaf_weight=0
leaf_count=0
internal_value=
internal_weight=
internal_count=
is_linear=0
shrinkage=1


Tree=120
num_leaves=1
num_cat=0
split_feature=
split_gain=
threshold=
decision_type=
left_child=
right_child=
leaf_value=0
leaf_weight=0
leaf_count=0
internal_value=
internal_weight=
internal_count=
is_linear=0
shrinkage=1


Tree=121
num_leaves=1
num_cat=0
split_feature=
split_gain=
threshold=
decision_type=
left_child=
right_child=
leaf_value=0
leaf_weight=0
leaf_count=0
internal_value=
internal_weight=
internal_count=
is_linear=0
shrinkage=1


Tree=122
num_leaves=1
num_cat=0
split_feature=
split_gain=
threshold=
decision_type=
left_child=
right_child=
leaf_value=0
leaf_weight=0
leaf_count=0
internal_value=
internal_weight=
internal_count=
is_linear=0
shrinkage=1


Tree=123
num_leaves=1
num_cat=0
split_feature=
split_gain=
threshold=
decision_type=
left_child=
right_child=
leaf_value=0
leaf_weight=0
leaf_count=0
internal_value=
internal_weight=
internal_count=
is_linear=0
shrinkage=1


Tree=124
num_leaves=1
num_cat=0
split_feature=
split_gain=
threshold=
decision_type=
left_child=
right_child=
leaf_value=0
leaf_weight=0
leaf_count=0
internal_value=
internal_weight=
internal_count=
is_linear=0
shrinkage=1


Tree=125
num_leaves=16
num_cat=0
split_feature=97 16 18 89 20 96 75 16 16 76 93 94 98 88 18
split_gain=328.648 128.83 97.0316 47.2155 32.7374 29.3436 24.2768 20.549 9.74439 7.42558 6.87241 6.15358 12.9891 9.55286 5.16026
threshold=0.39000701904296881 188.23663330078128 14.976034164428713 0.0093113053590059298 79.921276092529311 1.439994812011719 0.60499572753906261 227.1569747924805 230.23744964599612 0.44499969482421881 0.57087767124176036 9.3610467910766619 0.54999542236328136 0.73375299572944652 55.821569442749031
decision_type=2 2 2 2 2 2 2 2 2 2 2 2 2 2 2
left_child=6 -2 4 9 -3 11 14 -8 -7 -4 -9 13 -13 -5 -1
right_child=1 2 3 5 -6 8 7 10 -10 -11 -12 12 -14 -15 -16
leaf_value=-0.19427483017448466 -0.19475514379685999 -0.18834832306270233 -0.19900298782396597 0.21742340240080893 0.20268733174083042 0.27047160221882371 -0.21438493569441019 0.24668787224852806 -0.20914924092538403 0.23324740957324619 -0.094840384595244187 0.18711326808858128 -0.18288862513130097 0.43809159105246015 -0.0014561339527627713
leaf_weight=251.80145478621125 50.342339538037777 41.406550653278828 14.089848071336744 265.83253856003284 10.796982832252978 2.0932832211256018 8.8482471406459826 11.127494879066942 8.8922320753335935 1.7918908521533001 2.9900413677096358 21.897312000393871 4.5908191725611678 8.0858771651983243 5.6769603416323653
leaf_count=5236 1024 882 331 2209 88 17 178 73 163 12 20 175 32 39 81
internal_value=0 0.105867 0.145748 0.18614 -0.107472 0.203296 -0.172449 0.0245805 -0.117758 -0.150233 0.174353 0.215036 0.122986 0.223937 -0.190024
internal_weight=0 429.82 379.477 327.274 52.2035 311.392 280.444 22.9658 10.9855 15.8817 14.1175 300.407 26.4881 273.918 257.478
internal_count=10560 4972 3948 2978 970 2635 5588 271 180 343 93 2455 207 2248 5317
is_linear=0
shrinkage=0.2


Tree=126
num_leaves=1
num_cat=0
split_feature=
split_gain=
threshold=
decision_type=
left_child=
right_child=
leaf_value=0
leaf_weight=0
leaf_count=0
internal_value=
internal_weight=
internal_count=
is_linear=0
shrinkage=1


Tree=127
num_leaves=16
num_cat=0
split_feature=91 84 89 88 12 20 98 16 15 47 92 95 17 94 97
split_gain=250.382 53.3166 22.5675 18.796 16.76 14.8933 11.2693 11.0838 15.3845 11.7524 10.9393 9.52121 13.4352 9.98107 9.51126
threshold=0.027205646038055423 0.089653991162776961 0.032030768692493446 0.89762923121452343 0.030006408691406253 62.230268478393562 0.74500274658203136 154.3211364746094 82.603050231933608 0.051146373152732856 -3.1722258329391475 4.2402203083038339 37.053001403808601 10.539249420166017 0.025001525878906253
decision_type=2 2 2 2 2 2 2 2 2 2 2 2 2 2 2
left_child=1 -1 5 4 6 7 -2 8 10 -10 -3 12 -12 14 -13
right_child=3 2 -4 -5 -6 -7 -8 -9 9 -11 11 13 -14 -15 -16
leaf_value=0.17375590294761784 -0.10748907146042858 -0.17698133075884637 -0.15986112687838461 0.80176050546697375 -0.15447646010445162 0.23690264545135978 0.36679700498727924 0.22311377123590176 -0.1209842650396918 0.41299400858178459 0.057558757336614058 -0.25442047514432531 0.52388155343747189 -0.28916476351686377 0.17654037489234406
leaf_weight=234.48486354202032 3.8528322167694551 5.2443709559738627 24.781448025256395 0.8413023054599752 244.74040902778506 15.048894040286539 4.1757448650896549 9.5179471746087057 35.375125583261251 1.7292926050722588 4.8240210488438624 2.3906111903488698 5.0672538951039314 2.8654730804264537 14.311428878456352
leaf_count=2354 73 47 483 12 6585 119 34 70 528 18 34 19 38 26 120
internal_value=0 0.118092 0.0103615 -0.142008 -0.145149 0.054132 0.139192 0.0203112 -0.00656986 -0.0960976 0.0891527 0.136531 0.296454 0.0556908 0.114856
internal_weight=0 355.641 121.156 253.61 252.769 96.3744 8.02858 81.3255 71.8076 37.1044 34.7032 29.4588 9.89127 19.5675 16.702
internal_count=10560 3856 1502 6704 6692 1019 107 900 830 546 284 237 72 165 139
is_linear=0
shrinkage=0.2


Tree=128
num_leaves=16
num_cat=0
split_feature=16 89 96 19 66 16 94 18 95 84 20 94 96 16 91
split_gain=282.811 62.4421 23.3165 15.7457 12.5756 17.5892 11.4776 8.98954 11.6019 19.4716 9.99333 9.74478 9.28952 9.03785 8.1822
threshold=161.70371246337893 0.0011469793389551344 0.69499969482421886 62.94117736816407 0.19057863205671313 218.36558532714847 5.7559008598327646 44.394172668457038 2.9998143911361699 0.094724718481302275 58.359169006347663 9.5527319908142108 0.56999969482421886 78.884441375732436 0.0015166401863098147
decision_type=2 2 2 2 2 2 2 2 2 2 2 2 2 2 2
left_child=1 -1 3 6 5 -2 -3 8 -8 -10 13 12 -11 14 -9
right_child=4 2 -4 -5 -6 -7 7 10 9 11 -12 -13 -14 -15 -16
leaf_value=-0.15912699627241134 0.29140782199369764 0.18436887793440587 0.19263461588108505 -0.086207973268776231 -0.1861025184670369 -0.15932886468268756 0.20924374613050345 0.28874058392538865 -0.27952462457081467 0.018604715901748389 -0.14714515737715197 0.16520699846722489 -0.30004106509909723 0.1984126432641401 -0.19032440900984349
leaf_weight=31.594366271048784 5.4161445870995513 51.801528699696064 152.66139376908541 18.900081973522902 214.26228064671159 9.6034724060446006 10.506300330162047 2.0160508695989838 9.5057483166456205 20.711556863039736 4.6360726319253436 15.181139908730982 4.445045754313468 38.881941314786673 4.8731048814952374
leaf_count=932 27 407 1566 191 6368 217 68 13 89 156 42 104 32 299 49
internal_value=0 0.10962 0.135033 0.0865726 -0.173701 0.00320891 0.106661 0.070317 0.0182429 -0.0220174 0.132662 0.0386652 -0.0376984 0.161004 -0.0501303
internal_weight=0 365.714 334.12 181.459 229.282 15.0196 162.558 110.757 60.3498 49.8435 50.4072 40.3377 25.1566 45.7711 6.88916
internal_count=10560 3948 3016 1450 6612 244 1259 852 449 381 403 292 188 361 62
is_linear=0
shrinkage=0.2


Tree=129
num_leaves=1
num_cat=0
split_feature=
split_gain=
threshold=
decision_type=
left_child=
right_child=
leaf_value=0
leaf_weight=0
leaf_count=0
internal_value=
internal_weight=
internal_count=
is_linear=0
shrinkage=1


Tree=130
num_leaves=1
num_cat=0
split_feature=
split_gain=
threshold=
decision_type=
left_child=
right_child=
leaf_value=0
leaf_weight=0
leaf_count=0
internal_value=
internal_weight=
internal_count=
is_linear=0
shrinkage=1


Tree=131
num_leaves=16
num_cat=0
split_feature=16 91 18 85 96 97 84 20 23 16 64 18 73 49 42
split_gain=207.625 67.5374 49.4105 43.8362 64.966 15.7809 14.2849 9.9082 32.7703 9.88532 9.0443 5.95914 5.92238 5.14321 3.79253
threshold=230.23744964599612 0.034585386514663703 9.906229496002199 0.71495059132576 1.3050003051757815 1.0000000180025095e-35 0.16299461573362353 78.228473663330092 0.99930882453918468 188.23663330078128 0.48624774813652044 44.555233001708991 2.1125954389572148 0.058242678642272956 0.052749704569578178
decision_type=2 2 2 2 2 2 2 2 2 2 2 2 2 2 2
left_child=2 7 10 11 6 9 12 -2 -9 -4 -1 -3 -5 -12 -8
right_child=1 3 5 4 -6 -7 14 8 -10 -11 13 -13 -14 -15 -16
leaf_value=-0.27266891959386741 -0.17912632630050265 0.20233747237692917 -0.19715126529591931 0.19463111561850738 0.19573616880472819 -0.18897990606836695 -0.62547726188948505 -0.19835370998750546 1.2913001077776811 0.21927400768196592 -0.15476947328479754 -0.17960406591452283 -0.18727298190148861 0.22712010511375211 -0.20281103899616279
leaf_weight=1.822136446833613 33.859857415780425 171.58426686935127 3.5594603363424522 5.649064987897872 42.599985694512725 201.27017181366682 0.87200023978948493 2.2149602156132455 0.80552753061056126 6.3446649722754955 1.5414161309599901 1.649701153859495 2.2796903662383556 16.627775393426418 32.430713901296258
leaf_count=11 967 1934 106 52 445 5745 5 56 20 63 38 26 26 169 897
internal_value=0 0.104936 -0.148402 0.141247 0.0225237 -0.176852 -0.156438 -0.148165 0.198919 0.0696142 0.152121 0.1987 0.0848253 0.194722 -0.213878
internal_weight=0 293.946 231.166 257.065 83.8315 211.174 41.2315 36.8803 3.02049 9.90413 19.9913 173.234 7.92876 18.1692 33.3027
internal_count=10560 4428 6132 3385 1425 5914 980 1043 76 169 218 1960 78 207 902
is_linear=0
shrinkage=0.2


Tree=132
num_leaves=1
num_cat=0
split_feature=
split_gain=
threshold=
decision_type=
left_child=
right_child=
leaf_value=0
leaf_weight=0
leaf_count=0
internal_value=
internal_weight=
internal_count=
is_linear=0
shrinkage=1


Tree=133
num_leaves=1
num_cat=0
split_feature=
split_gain=
threshold=
decision_type=
left_child=
right_child=
leaf_value=0
leaf_weight=0
leaf_count=0
internal_value=
internal_weight=
internal_count=
is_linear=0
shrinkage=1


Tree=134
num_leaves=1
num_cat=0
split_feature=
split_gain=
threshold=
decision_type=
left_child=
right_child=
leaf_value=0
leaf_weight=0
leaf_count=0
internal_value=
internal_weight=
internal_count=
is_linear=0
shrinkage=1


Tree=135
num_leaves=1
num_cat=0
split_feature=
split_gain=
threshold=
decision_type=
left_child=
right_child=
leaf_value=0
leaf_weight=0
leaf_count=0
internal_value=
internal_weight=
internal_count=
is_linear=0
shrinkage=1


Tree=136
num_leaves=1
num_cat=0
split_feature=
split_gain=
threshold=
decision_type=
left_child=
right_child=
leaf_value=0
leaf_weight=0
leaf_count=0
internal_value=
internal_weight=
internal_count=
is_linear=0
shrinkage=1


Tree=137
num_leaves=1
num_cat=0
split_feature=
split_gain=
threshold=
decision_type=
left_child=
right_child=
leaf_value=0
leaf_weight=0
leaf_count=0
internal_value=
internal_weight=
internal_count=
is_linear=0
shrinkage=1


Tree=138
num_leaves=1
num_cat=0
split_feature=
split_gain=
threshold=
decision_type=
left_child=
right_child=
leaf_value=0
leaf_weight=0
leaf_count=0
internal_value=
internal_weight=
internal_count=
is_linear=0
shrinkage=1


Tree=139
num_leaves=1
num_cat=0
split_feature=
split_gain=
threshold=
decision_type=
left_child=
right_child=
leaf_value=0
leaf_weight=0
leaf_count=0
internal_value=
internal_weight=
internal_count=
is_linear=0
shrinkage=1


Tree=140
num_leaves=1
num_cat=0
split_feature=
split_gain=
threshold=
decision_type=
left_child=
right_child=
leaf_value=0
leaf_weight=0
leaf_count=0
internal_value=
internal_weight=
internal_count=
is_linear=0
shrinkage=1


Tree=141
num_leaves=1
num_cat=0
split_feature=
split_gain=
threshold=
decision_type=
left_child=
right_child=
leaf_value=0
leaf_weight=0
leaf_count=0
internal_value=
internal_weight=
internal_count=
is_linear=0
shrinkage=1


Tree=142
num_leaves=1
num_cat=0
split_feature=
split_gain=
threshold=
decision_type=
left_child=
right_child=
leaf_value=0
leaf_weight=0
leaf_count=0
internal_value=
internal_weight=
internal_count=
is_linear=0
shrinkage=1


Tree=143
num_leaves=1
num_cat=0
split_feature=
split_gain=
threshold=
decision_type=
left_child=
right_child=
leaf_value=0
leaf_weight=0
leaf_count=0
internal_value=
internal_weight=
internal_count=
is_linear=0
shrinkage=1


Tree=144
num_leaves=1
num_cat=0
split_feature=
split_gain=
threshold=
decision_type=
left_child=
right_child=
leaf_value=0
leaf_weight=0
leaf_count=0
internal_value=
internal_weight=
internal_count=
is_linear=0
shrinkage=1


Tree=145
num_leaves=1
num_cat=0
split_feature=
split_gain=
threshold=
decision_type=
left_child=
right_child=
leaf_value=0
leaf_weight=0
leaf_count=0
internal_value=
internal_weight=
internal_count=
is_linear=0
shrinkage=1


Tree=146
num_leaves=16
num_cat=0
split_feature=89 16 96 70 97 16 94 96 97 86 86 18 55 18 15
split_gain=224.748 135.53 65.0881 37.7135 16.7214 16.2109 8.66709 8.75382 7.03729 5.21842 4.59214 3.82859 3.65295 2.39372 2.38853
threshold=0.022310870699584488 194.13718414306643 1.439994812011719 0.1352631747722626 0.10499572753906251 221.37355804443362 10.302023887634279 1.3050003051757815 0.66500091552734386 0.97109267115592968 0.95738166570663463 60.335601806640632 0.35499572753906256 53.058376312255866 133.09523773193362
decision_type=2 2 2 2 2 2 2 2 2 2 2 2 2 2 2
left_child=3 12 4 8 -3 -5 9 -8 10 14 -1 -4 -2 -10 -6
right_child=1 2 11 5 6 -7 7 -9 13 -11 -12 -13 -14 -15 -16
leaf_value=0.22520882252960117 -0.19312180151508815 -0.26097635753142784 -0.19326587606673004 -0.20012503529636061 -0.0083303917605320275 0.18582439516087723 0.19530033386482126 -0.17184735275396895 -0.070000723775196783 0.3970144446406812 -0.19774628709895492 0.20852794855393808 0.18829529676359447 0.21617220126134173 0.20638411726885619
leaf_weight=1.0324077606201161 52.310271801427007 3.1778006181120864 19.847566584125165 5.9069881588220623 2.0926720891147843 16.548990914598107 5.5270454511046392 4.9010233283042908 2.7974862437695256 5.7708614170551291 189.08850971981883 0.9962349534034719 1.0240561347454775 2.0086555853486061 213.66239280067384
leaf_count=9 1496 35 535 163 29 181 53 81 66 30 5448 12 26 19 2377
internal_value=0 0.104234 0.164664 -0.161133 0.194691 0.0843014 0.200934 0.0227469 -0.189408 0.209322 -0.19545 -0.174062 -0.185798 0.049601 0.204302
internal_weight=0 309.31 255.976 217.383 235.132 22.456 231.954 10.4281 194.927 221.526 190.121 20.8438 53.3343 4.80614 215.755
internal_count=10560 4674 3152 5886 2605 344 2570 134 5542 2436 5457 547 1522 85 2406
is_linear=0
shrinkage=0.2


Tree=147
num_leaves=1
num_cat=0
split_feature=
split_gain=
threshold=
decision_type=
left_child=
right_child=
leaf_value=0
leaf_weight=0
leaf_count=0
internal_value=
internal_weight=
internal_count=
is_linear=0
shrinkage=1


Tree=148
num_leaves=16
num_cat=0
split_feature=70 84 18 97 94 18 18 97 17 20 65 16 95 98 96
split_gain=158.048 38.4055 25.1447 15.6256 14.7537 13.8707 13.0479 12.991 12.3711 13.4964 11.4428 10.2792 9.54718 10.4503 9.5451
threshold=0.036508649587631233 0.064137667417526259 20.314744949340824 0.40000152587890631 5.7559008598327646 46.642269134521491 43.801240921020515 0.81999969482421886 51.812704086303718 58.215389251708991 0.99126490950584423 75.487899780273452 2.9998143911361699 0.20999908447265628 0.71500396728515636
decision_type=2 2 2 2 2 2 2 2 2 2 2 2 2 2 2
left_child=1 -1 7 4 5 -4 12 -3 9 11 -10 -8 -6 -14 -2
right_child=14 2 3 -5 6 -7 8 -9 10 -11 -12 -13 13 -15 -16
leaf_value=0.18591242072945149 -0.063879424398958343 0.26980573748045805 -0.15283963179251941 -0.17271748470045151 -0.073015661570029783 0.23125658411940792 0.32499277368167873 -0.19599046557185207 -0.097085710790649773 0.2028687556804234 0.26275136190896048 -0.20783011999268211 0.30374784922987536 0.098793586928214328 -0.16078182310105069
leaf_weight=129.0828247256577 59.238810496404767 22.993403268978003 24.334995632991198 17.195965971797705 7.2004091255366793 4.4482046477496615 1.5663470029830993 2.6735052354633799 5.5963440481573334 4.8495868779718867 9.5966678932309133 19.214778209105134 15.976086836308239 26.387581255286932 129.64904578961432
leaf_count=1888 1639 245 308 572 62 52 14 98 105 43 106 265 148 241 4774
internal_value=0 0.104524 0.0396869 0.00550608 0.0312231 -0.0934808 0.070934 0.221288 -0.0127944 -0.0975599 0.130205 -0.167669 0.139897 0.176085 -0.130391
internal_weight=0 291.117 162.034 136.367 119.171 28.7832 90.3878 25.6669 40.8237 25.6307 15.193 20.7811 49.5641 42.3637 188.888
internal_count=10560 4147 2259 1916 1344 360 984 343 533 322 211 279 451 389 6413
is_linear=0
shrinkage=0.2


Tree=149
num_leaves=16
num_cat=0
split_feature=16 84 69 15 20 2 17 27 19 48 89 96 18 93 15
split_gain=188.053 38.2325 19.1547 10.8544 12.1078 17.0391 11.393 10.7538 10.2057 9.8661 9.3399 8.46833 9.83522 7.38444 7.01462
threshold=198.29270172119143 0.064157173037529006 0.013658354058861734 64.851787567138686 48.804494857788093 0.99160683155059826 51.964643478393562 0.30888199806213384 61.372549057006843 0.010065459180623295 0.020859263837337497 0.76999664306640636 34.149484634399421 1.371890723705292 87.307250976562514
decision_type=2 2 2 2 2 2 2 2 2 2 2 2 2 2 2
left_child=1 -1 3 -3 5 13 8 11 -6 -7 14 12 -4 -5 -8
right_child=-2 2 7 4 6 9 10 -9 -10 -11 -12 -13 -14 -15 -16
leaf_value=-0.14317747400441069 -0.17897378703188008 -0.20141342836395584 -0.045614437524114461 0.16864980724902168 0.17349739490077681 -0.28954578234164535 -0.25117364615751553 -0.33820202101260938 -0.027381235309028806 0.15136660827576293 0.20956231412068105 0.20381826703106329 0.14602982211814644 -0.1326929937340392 0.13384616036207134
leaf_weight=25.578136086463928 154.73394269775599 6.4101392086595288 13.04568427801132 12.690461207181221 57.706406284123659 11.090006496757267 7.7951337341219169 1.7363696470856655 12.267208360135553 2.4848792478442183 3.7897246703505507 88.38290287181735 59.867914859205484 4.3738953936845055 2.4997424110770226
leaf_count=992 6402 93 107 132 496 80 91 10 143 21 47 1218 652 48 28
internal_value=0 0.0910268 0.11211 0.0518604 0.0660152 -0.0416159 0.105247 0.156866 0.138281 -0.208837 -0.0588705 0.162195 0.111741 0.0914103 -0.157685
internal_weight=0 309.719 284.14 121.108 114.697 30.6392 84.0582 163.033 69.9736 13.5749 14.0846 161.297 72.9136 17.0644 10.2949
internal_count=10560 4158 3166 1179 1086 281 805 1987 639 101 166 1977 759 180 119
is_linear=0
shrinkage=0.2


Tree=150
num_leaves=1
num_cat=0
split_feature=
split_gain=
threshold=
decision_type=
left_child=
right_child=
leaf_value=0
leaf_weight=0
leaf_count=0
internal_value=
internal_weight=
internal_count=
is_linear=0
shrinkage=1


Tree=151
num_leaves=1
num_cat=0
split_feature=
split_gain=
threshold=
decision_type=
left_child=
right_child=
leaf_value=0
leaf_weight=0
leaf_count=0
internal_value=
internal_weight=
internal_count=
is_linear=0
shrinkage=1


Tree=152
num_leaves=16
num_cat=0
split_feature=18 70 16 20 89 97 75 88 96 93 89 20 97 70 7
split_gain=139.828 58.0436 38.8784 18.3098 16.3286 15.2742 10.4382 11.8701 9.55158 9.07395 7.88866 15.4423 7.1996 7.13347 5.25925
threshold=20.913675308227543 0.036508649587631233 230.23744964599612 81.37216949462892 0.027499565854668621 1.194999694824219 0.54000091552734386 0.48437742888927465 1.439994812011719 -1.50383585691452 6.3735435105627416e-05 78.228473663330092 0.40000152587890631 0.10243359208106996 0.1223898231983185
decision_type=2 2 2 2 2 2 2 2 2 2 2 2 2 2 2
left_child=1 5 -2 6 12 10 -3 9 -6 -8 11 -1 -4 -14 -11
right_child=2 3 4 -5 8 -7 7 -9 -10 14 -12 -13 13 -15 -16
leaf_value=-0.19501035444456291 -0.18956854223708505 0.19636639271056278 -0.21910122242197652 -0.19607293494322922 -0.16116275412633663 0.20467005179982403 0.11843203967429064 0.16679436190943175 0.23381115285862705 0.15321168023322618 -0.1879922225742687 1.0242031629148121 0.19640412227357773 -0.077721998216998545 -0.27606716796630171
leaf_weight=1.1605540364980687 136.21225562598556 124.69400208629668 2.3379113338887718 5.6916874889284363 19.585864744149152 5.1645715907216063 6.0376145280897608 21.888583049178123 2.7990527376532546 1.3699689470231513 31.71165219694376 0.64731106162071217 21.236877549439672 4.6239318512380114 6.8474955391138792
leaf_count=49 5481 1863 89 254 727 77 92 294 32 20 1014 9 320 89 150
internal_value=0 0.105195 -0.133966 0.15646 0.0157626 -0.115496 0.168935 0.0742998 -0.111774 -0.0677251 -0.164826 0.241532 0.117005 0.14739 -0.2045
internal_weight=0 205.213 186.796 166.529 50.5836 38.6841 160.838 36.1437 22.3849 14.2551 33.5195 1.80787 28.1987 25.8608 8.21746
internal_count=10560 3822 6738 2673 1257 1149 2419 556 759 262 1072 58 498 409 170
is_linear=0
shrinkage=0.2


Tree=153
num_leaves=1
num_cat=0
split_feature=
split_gain=
threshold=
decision_type=
left_child=
right_child=
leaf_value=0
leaf_weight=0
leaf_count=0
internal_value=
internal_weight=
internal_count=
is_linear=0
shrinkage=1


Tree=154
num_leaves=1
num_cat=0
split_feature=
split_gain=
threshold=
decision_type=
left_child=
right_child=
leaf_value=0
leaf_weight=0
leaf_count=0
internal_value=
internal_weight=
internal_count=
is_linear=0
shrinkage=1


Tree=155
num_leaves=1
num_cat=0
split_feature=
split_gain=
threshold=
decision_type=
left_child=
right_child=
leaf_value=0
leaf_weight=0
leaf_count=0
internal_value=
internal_weight=
internal_count=
is_linear=0
shrinkage=1


Tree=156
num_leaves=1
num_cat=0
split_feature=
split_gain=
threshold=
decision_type=
left_child=
right_child=
leaf_value=0
leaf_weight=0
leaf_count=0
internal_value=
internal_weight=
internal_count=
is_linear=0
shrinkage=1


Tree=157
num_leaves=1
num_cat=0
split_feature=
split_gain=
threshold=
decision_type=
left_child=
right_child=
leaf_value=0
leaf_weight=0
leaf_count=0
internal_value=
internal_weight=
internal_count=
is_linear=0
shrinkage=1


Tree=158
num_leaves=1
num_cat=0
split_feature=
split_gain=
threshold=
decision_type=
left_child=
right_child=
leaf_value=0
leaf_weight=0
leaf_count=0
internal_value=
internal_weight=
internal_count=
is_linear=0
shrinkage=1


Tree=159
num_leaves=1
num_cat=0
split_feature=
split_gain=
threshold=
decision_type=
left_child=
right_child=
leaf_value=0
leaf_weight=0
leaf_count=0
internal_value=
internal_weight=
internal_count=
is_linear=0
shrinkage=1


Tree=160
num_leaves=1
num_cat=0
split_feature=
split_gain=
threshold=
decision_type=
left_child=
right_child=
leaf_value=0
leaf_weight=0
leaf_count=0
internal_value=
internal_weight=
internal_count=
is_linear=0
shrinkage=1


Tree=161
num_leaves=1
num_cat=0
split_feature=
split_gain=
threshold=
decision_type=
left_child=
right_child=
leaf_value=0
leaf_weight=0
leaf_count=0
internal_value=
internal_weight=
internal_count=
is_linear=0
shrinkage=1


Tree=162
num_leaves=1
num_cat=0
split_feature=
split_gain=
threshold=
decision_type=
left_child=
right_child=
leaf_value=0
leaf_weight=0
leaf_count=0
internal_value=
internal_weight=
internal_count=
is_linear=0
shrinkage=1


Tree=163
num_leaves=1
num_cat=0
split_feature=
split_gain=
threshold=
decision_type=
left_child=
right_child=
leaf_value=0
leaf_weight=0
leaf_count=0
internal_value=
internal_weight=
internal_count=
is_linear=0
shrinkage=1


Tree=164
num_leaves=1
num_cat=0
split_feature=
split_gain=
threshold=
decision_type=
left_child=
right_child=
leaf_value=0
leaf_weight=0
leaf_count=0
internal_value=
internal_weight=
internal_count=
is_linear=0
shrinkage=1


Tree=165
num_leaves=1
num_cat=0
split_feature=
split_gain=
threshold=
decision_type=
left_child=
right_child=
leaf_value=0
leaf_weight=0
leaf_count=0
internal_value=
internal_weight=
internal_count=
is_linear=0
shrinkage=1


Tree=166
num_leaves=1
num_cat=0
split_feature=
split_gain=
threshold=
decision_type=
left_child=
right_child=
leaf_value=0
leaf_weight=0
leaf_count=0
internal_value=
internal_weight=
internal_count=
is_linear=0
shrinkage=1


Tree=167
num_leaves=16
num_cat=0
split_feature=97 16 18 20 89 91 98 16 91 77 91 16 74 76 98
split_gain=154.379 64.2995 52.4292 23.9515 18.9481 12.7978 12.6337 12.0051 5.7842 5.23065 4.75979 4.70308 4.38956 3.74016 3.15178
threshold=0.36499786376953131 188.23663330078128 16.41200160980225 81.37216949462892 0.0093113053590059298 0.14893883466720584 0.86499786376953136 267.41909790039068 0.24072548747062686 0.63500213623046886 0.0040785968303680429 227.1569747924805 1.0500416159629824 0.44499969482421881 0.50499725341796886
decision_type=2 2 2 2 2 2 2 2 2 2 2 2 2 2 2
left_child=5 10 3 -3 13 -1 9 8 11 14 -2 -7 -10 -4 -6
right_child=1 2 4 -5 6 7 -8 -9 12 -11 -12 -13 -14 -15 -16
leaf_value=-0.18702808008754909 0.292869230064213 -0.17552755863969657 -0.19456073347906178 0.2138653449422046 0.2086838155978985 -0.19709212538080825 -0.20436909835037842 0.26409369546510447 -0.20535936150350961 -0.16702325889315792 -0.19777004326265021 0.40066141950001344 -0.75601751312066023 0.21119799720159949 0.12948288559650772
leaf_weight=135.02573035564274 0.81289906613528984 28.640552568249404 6.477208334952592 8.1070737764239293 142.37407883442938 1.0948350820690378 3.2454275619238606 5.0571608655154705 2.432080546393991 1.5896502882242192 29.228840075433254 1.0142426192760465 0.75999865494668473 1.0569684505462644 23.401557305827737
leaf_count=5167 25 1076 306 122 2125 45 102 40 72 29 1105 10 8 12 316
internal_value=0 0.0895735 0.127888 -0.0896217 0.172756 -0.170593 0.186462 0.0436486 -0.16665 0.194041 -0.184494 0.0903639 -0.336465 -0.137637 0.197503
internal_weight=0 244.934 214.893 36.7476 178.145 145.384 170.611 10.3583 5.30116 167.365 30.0417 2.10908 3.19208 7.53418 165.776
internal_count=10560 5218 4088 1198 2890 5342 2572 175 135 2470 1130 55 80 318 2441
is_linear=0
shrinkage=0.2


Tree=168
num_leaves=1
num_cat=0
split_feature=
split_gain=
threshold=
decision_type=
left_child=
right_child=
leaf_value=0
leaf_weight=0
leaf_count=0
internal_value=
internal_weight=
internal_count=
is_linear=0
shrinkage=1


Tree=169
num_leaves=16
num_cat=0
split_feature=97 95 94 96 90 18 89 85 14 84 30 70 18 16 18
split_gain=96.3802 33.8014 17.1451 16.5071 23.7895 13.3629 21.5422 11.9615 10.0225 9.58639 10.0342 8.66298 8.53941 7.49954 7.40732
threshold=0.32499694824218756 3.1471050977706914 10.421099662780763 0.60500335693359386 0.11617911607027055 33.681737899780281 0.0077187945134937772 0.3820400089025498 1.0000000180025095e-35 0.12964677065610888 -0.40408621728420252 0.06093761324882508 45.850557327270515 296.91398620605474 44.394172668457038
decision_type=2 2 2 2 2 2 2 2 2 2 2 2 2 2 2
left_child=1 2 12 4 -2 9 14 -5 -8 11 -11 -3 -1 -12 -7
right_child=3 5 -4 7 -6 6 8 -9 -10 10 13 -13 -14 -15 -16
leaf_value=-0.10653328157347107 0.0086511559371167859 0.16752919759246107 0.38517483927011531 0.70008858819565156 1.1272295429564563 0.20203417783944744 0.36217366799485773 -0.16416342349995666 -0.082160557272662207 0.86877305051664566 0.34809969907484906 -0.17422869549074127 0.13186234469138047 -0.03827116293630977 0.08105890654676319
leaf_weight=48.396627840586007 12.672199630178508 65.321652326732874 3.4097897671163073 0.64442653208970924 0.80907997302711088 36.251485632732511 2.1672657541930667 106.92262516822666 32.193307742476463 1.2604128122329701 11.247169109061359 3.1079741865396491 6.8624654542654744 2.44661896303296 45.853265700861812
leaf_count=1351 314 1177 40 6 7 557 29 5178 744 15 123 139 121 36 723
internal_value=0 0.0834041 -0.0500706 -0.132839 0.0757827 0.122588 0.0788283 -0.158986 -0.0541345 0.183708 0.328771 0.152007 -0.0769276 0.279068 0.134473
internal_weight=0 258.518 58.6689 121.048 13.4813 199.849 116.465 107.567 34.3606 83.3838 14.9542 68.4296 55.2591 13.6938 82.1048
internal_count=10560 5055 1512 5505 321 3543 2053 5184 773 1490 174 1316 1472 159 1280
is_linear=0
shrinkage=0.2


Tree=170
num_leaves=16
num_cat=0
split_feature=16 96 16 86 16 85 18 89 51 72 97 64 56 17 47
split_gain=120.901 25.3636 15.7763 16.6539 15.9135 11.6885 8.75806 8.24844 7.45082 8.28645 6.83635 7.9639 6.72892 6.67818 14.3195
