tree
version=v4
num_class=21
num_tree_per_iteration=21
label_index=0
max_feature_idx=104
objective=multiclass num_class:21
feature_names=Column_0 Column_1 Column_2 Column_3 Column_4 Column_5 Column_6 Column_7 Column_8 Column_9 Column_10 Column_11 Column_12 Column_13 Column_14 Column_15 Column_16 Column_17 Column_18 Column_19 Column_20 Column_21 Column_22 Column_23 Column_24 Column_25 Column_26 Column_27 Column_28 Column_29 Column_30 Column_31 Column_32 Column_33 Column_34 Column_35 Column_36 Column_37 Column_38 Column_39 Column_40 Column_41 Column_42 Column_43 Column_44 Column_45 Column_46 Column_47 Column_48 Column_49 Column_50 Column_51 Column_52 Column_53 Column_54 Column_55 Column_56 Column_57 Column_58 Column_59 Column_60 Column_61 Column_62 Column_63 Column_64 Column_65 Column_66 Column_67 Column_68 Column_69 Column_70 Column_71 Column_72 Column_73 Column_74 Column_75 Column_76 Column_77 Column_78 Column_79 Column_80 Column_81 Column_82 Column_83 Column_84 Column_85 Column_86 Column_87 Column_88 Column_89 Column_90 Column_91 Column_92 Column_93 Column_94 Column_95 Column_96 Column_97 Column_98 Column_99 Column_100 Column_101 Column_102 Column_103 Column_104
feature_infos=[0:0.3292161226272583] [0.218536376953125:1.0865166187286377] [0.31862783432006836:1] [0.012516181915998459:0.98918342590332031] [0.0035732274409383535:0.96675783395767212] [0:0.26745438575744629] [0:0.68137216567993164] [0:0.99996626377105713] [-0.8717048168182373:1.4546293020248413] [-1.3383442163467407:0.8277428150177002] [0.034516390413045883:0.82754945755004883] [0.015560264699161053:0.51390314102172852] [0:0.519989013671875] [0:0.410003662109375] [0:0.4499969482421875] [0:357] [42.918350219726562:339.56484985351562] [0.39215686917304993:78.823532104492188] [2.7658848762512207:72.926551818847656] [7.0588235855102539:100] [14.305885314941406:91.38519287109375] [0:0.32900092005729675] [0.086483590304851532:1.0852230787277222] [0.3092726469039917:1] [0.0093975551426410675:0.98376935720443726] [0.014905143529176712:0.98755830526351929] [0:0.28354644775390625] [0:0.6907273530960083] [0:0.99967443943023682] [-3.35101318359375:1.7030746936798096] [-1.4022285938262939:1.3018780946731567] [0.066178061068058014:20.043811798095703] [0.016688311472535133:0.63392877578735352] [0:3.8800048828125] [-0.040008544921875:3.8800048828125] [-0.040008544921875:0.4499969482421875] [0:357] [42.918350219726562:339.56484985351562] [0.39215686917304993:78.823532104492188] [2.7658848762512207:72.926551818847656] [7.0588235855102539:100] [14.305885314941406:91.38519287109375] [0.013630509376525879:0.32250696420669556] [0.029890147969126701:1.0678987503051758] [0.45867669582366943:0.99998241662979126] [0.0018586504738777876:0.99133509397506714] [0.0041981018148362637:0.99694377183914185] [1.0557703717495315e-05:0.23538975417613983] [1.7577380276634358e-05:0.54132330417633057] [1.1324882507324219e-06:0.99924761056900024] [-17.201431274414062:16.135261535644531] [-2.1220107078552246:1.594758152961731] [0.19961088895797729:81.140586853027344] [0.056183971464633942:4.3988142013549805] [0.0099945068359375:4.0200042724609375] [-0.07000732421875:4.0200042724609375] [-0.0800018310546875:0.6100006103515625] [0:357] [42.918350219726562:339.56484985351562] [0.39215686917304993:78.823532104492188] [2.7658848762512207:72.926551818847656] [7.0588235855102539:100] [14.305885314941406:91.38519287109375] [0.011730465106666088:0.32141381502151489] [0.056837849318981171:1.0651907920837402] [0.46612226963043213:0.99998843669891357] [0.0034431845415383577:0.97892403602600098] [0.0052387691102921963:0.99374598264694214] [6.5986496338155121e-06:0.21881826221942902] [1.1509382602525875e-05:0.53387773036956787] [2.9802322387695312e-07:0.99611508846282959] [-5.0500278472900391:17.801235198974609] [-3.2225465774536133:4.1631121635437012] [0.76613563299179077:84.101043701171875] [0.17288254201412201:6.2001333236694336] [0.0099945068359375:4.0399932861328125] [-0.1299896240234375:4.05999755859375] [-0.1500091552734375:1.4699859619140625] [0:357] [42.918350219726562:339.56484985351562] [0.39215686917304993:78.823532104492188] [2.7658848762512207:72.926551818847656] [7.0588235855102539:100] [14.305885314941406:91.38519287109375] [0.0094387633726000786:0.32770994305610657] [0.30069324374198914:1.0816779136657715] [0.35923510789871216:0.99999397993087769] [0.0092192823067307472:0.99251234531402588] [0.0072973016649484634:0.93312162160873413] [4.5068200051900931e-06:0.27153158187866211] [5.9945623434032314e-06:0.64076489210128784] [1.3709068298339844e-06:0.99899917840957642] [-13.409004211425781:13.438878059387207] [-7.1657166481018066:6.7863502502441406] [3.3406493663787842:69.952400207519531] [0.58205175399780273:22.137029647827148] [0.0200042724609375:5.160003662109375] [-0.3799896240234375:5.1399993896484375] [-0.25:1.6999969482421875] [0:357] [42.918350219726562:339.56484985351562] [0.39215686917304993:78.823532104492188] [2.7658848762512207:72.926551818847656] [7.0588235855102539:100] [14.305885314941406:91.38519287109375]
tree_sizes=241 1786 1792 241 241 1794 241 241 241 241 242 242 242 242 242 242 242 242 242 242 1788 224 1795 1777 224 224 1787 224 224 224 224 224 224 224 224 224 224 224 224 224 224 1790 224 1799 1791 224 224 1788 224 224 224 224 224 224 224 224 224 224 224 224 224 224 1783 224 1798 1791 224 224 1789 224 224 224 224 224 224 224 224 224 224 224 224 224 224 1785 224 1809 1798 224 224 1785 224 224 224 224 224 224 224 224 224 224 225 225 225 225 1793 225 1804 1791 225 225 1795 225 225 225 225 225 225 225 225 225 225 225 225 225 225 1794 225 1796 1792 225 225 1797 225 225 225 225 225 225 225 225 225 225 225 225 225 225 1790 225 1806 1800 225 225 1793 225 225 225 225 225 225 225 225 225 225 225 225 225 225 1795 225 1806 1794 225 225 1796 225 225 225 225 225 225 225 225 225 225 225 225 225 225 1791 225 1803 1809 225 225 1800 225 225 225 225 225 225 225 225 225 225 225 225 225 225 1796 225 1801 1811 225 225 1813 225 225 225 225 225 225 225 225 225 225 225 225 225 225 1803 225 1801 1807 225 225 1802 225 225 225 225 225 225 225 225 225 225 225 225 225 225 1799 225 1810 1808 225 225 1807 225 225 225 225 225 225 225 225 225 225 225 225 225 225 1793 225 1814 1807 225 225 1811 225 225 225 225 225 225 225 225 225 225 225 225 225 225 1799 225 1802 1813 225 225 1802 225 225 225 225 225 225 225 225 225 225 225 225 225 225 1808 225 1813 1827 225 225 1810 225 225 225 225 225 225 225 225 225 225 225 225 225 225 1821 225 1810 1818 225 225 1814 225 225 225 225 225 225 225 225 225 225 225 225 225 225 1824 225 1820 1824 225 225 1825 225 225 225 225 225 225 225 225 225 225 225 225 225 225 1833 225 1818 1824 225 225 1816 225 225 225 225 225 225 225 225 225 225 225 225 225 225 1819 225 1830 1821 225 225 1823 225 225 225 225 225 225 225 225 225 225 225 225 225 225 1826 225 1812 1810 225 225 1831 225 225 225 225 225 225 225 225 225 225 225 225 225 225 1829 225 1825 1824 225 225 1840 225 225 225 225 225 225 225 225 225 225 225 225 225 225 1844 225 1819 1820 225 225 1829 225 225 225 225 225 225 225 225 225 225 225 225 225 225 1841 225 1831 1821 225 225 1844 225 225 225 225 225 225 225 225 225 225 225 225 225 225 1835 225 1840 1822 225 225 1858 225 225 225 225 225 225 225 225 225 225 225 225 225 225 1838 225 1843 1837 225 225 1847 225 225 225 225 225 225 225 225 225 225 225 225 225 225 1846 225 1843 1840 225 225 1860 225 225 225 225 225 225 225 225 225 225 225 225 225 225 1852 225 1846 1844 225 225 1853 225 225 225 225 225 225 225 225 225 225 225 225 225 225 1851 225 1852 1838 225 225 1853 225 225 225 225 225 225 225 225 225 225 225 225 225 225 1860 225 1838 1845 225 225 1864 225 225 225 225 225 225 225 225 225 225 225 225 225 225 1865 225 1839 1848 225 225 1868 225 225 225 225 225 225 225 225 225 225 225 225 225 225 1853 225 1840 1833 225 225 1876 225 225 225 225 225 225 225 225 225 225 225 225 225 225 1861 225 1850 1841 225 225 1870 225 225 225 225 225 225 225 225 225 225 225 225 225 225 1865 225 1849 1840 225 225 1866 225 225 225 225 225 225 225 225 225 225 225 225 225 225 1884 225 1847 1845 225 225 1877 225 225 225 225 225 225 225 225 225 225 225 225 225 225 1881 225 1840 1838 225 225 1864 225 225 225 225 225 225 225 225 225 225 225 225 225 225 1879 225 1852 1858 225 225 1881 225 225 225 225 225 225 225 225 225 225 225 225 225 225 1894 225 1850 1855 225 225 1883 225 225 225 225 225 225 225 225 225 225 225 225 225 225 1890 225 1853 1851 225 225 1884 225 225 225 225 225 225 225 225 225 225 225 225 225 225 1892 225 1859 1842 225 225 1908 225 225 225 225 225 225 225 225 225 225 225 225 225 225 1894 225 1849 1847 225 225 1878 225 225 225 225 225 225 225 225 225 225 225 225 225 225 1891 225 1850 1855 225 225 1898 225 225 225 225 225 225 225 225 225 225 225 225 225 225 1898 225 1863 1842 225 225 1898 225 225 225 225 225 225 225 225 225 225 225 225 225 225 1901 225 1881 1857 225 225 1904 225 225 225 225 225 225 225 225 225 225 225 225 225 225 1902 225 1862 1850 225 225 1908 225 225 225 225 225 225 225 225 225 225 225 225 225 225 1924 225 1845 1855 225 225 1901 225 225 225 225 225 225 225 225 225 225 225 225 225 225 1927 225 1857 1860 225 225 1900 225 225 225 225 225 225 225 225 225 225 225 225 225 225 1913 225 1866 1869 225 225 1902 225 225 225 225 225 225 225 226 226 226 226 226 226 226 1915 226 1864 1867 226 226 1904 226 226 226 226 226 226 226 226 226 226 226 226 226 226 1920 226 1884 1879 226 226 1907 226 226 226 226 226 226 226 226 226 226 226 226 226 226 1929

Tree=0
num_leaves=1
num_cat=0
split_feature=
split_gain=
threshold=
decision_type=
left_child=
right_child=
leaf_value=-34.538776391283193
leaf_weight=0
leaf_count=0
internal_value=
internal_weight=
internal_count=
is_linear=0
shrinkage=1


Tree=1
num_leaves=16
num_cat=0
split_feature=96 89 89 20 16 15 16 84 75 20 18 91 15 95 18
split_gain=6465.12 734.895 489.714 173.441 132.23 133.515 128.848 124.62 75.8808 143.696 34.0064 61.5273 27.8474 25.663 23.8253
threshold=0.40000152587890631 0.0019558400381356482 0.00045683389180339878 66.38602447509767 77.202983856201186 193.10710144042972 77.773185729980483 0.12869434058666232 0.23000335693359378 66.64756011962892 41.669172286987312 0.095593988895416274 97.269336700439467 3.1983246803283696 50.752014160156257
decision_type=2 2 2 2 2 2 2 2 2 2 2 2 2 2 2
left_child=1 -1 -2 4 -3 14 7 -4 9 10 11 12 -8 -7 -6
right_child=2 3 6 -5 5 13 8 -9 -10 -11 -12 -13 -14 -15 -16
leaf_value=-0.64558518381954555 -0.65184564890686636 -0.75902339139398256 -0.69211448795655262 -0.62438962228208039 -1.5034092518911601 -1.2246782043967186 -1.2593102379802557 -1.5107885994920818 -1.6252042188629545 -0.68923257877891531 -1.6023825977846253 -1.6402626073991606 -0.62438962228208061 -0.64392564122663964 -1.0797809604380129
leaf_weight=396.30938699841499 21.853125661611557 16.340625494718552 11.81250035762787 18.506250560283661 75.993752300739288 4.3312501311302176 6.3000001907348651 20.081250607967377 1407.8531676232815 9.2531252801418287 58.078126758337021 11.418750345706938 4.9218751490116119 10.237500309944151 5.709375172853469
leaf_count=2013 111 83 60 94 386 22 32 102 7151 47 295 58 25 52 29
internal_value=-1.38629 -0.781378 -1.59192 -1.19181 -1.28506 -1.37435 -1.60535 -1.20758 -1.61382 -1.43575 -1.52133 -1.31342 -0.980836 -0.816582 -1.47381
internal_weight=0 527.428 1551.57 131.119 112.613 96.2719 1529.72 31.8938 1497.83 89.9719 80.7188 22.6406 11.2219 14.5688 81.7031
internal_count=10560 2679 7881 666 572 489 7770 162 7608 457 410 115 57 74 415
is_linear=0
shrinkage=1


Tree=2
num_leaves=16
num_cat=0
split_feature=16 89 16 90 20 91 64 96 89 16 98 19 16 68 89
split_gain=5215.42 3177.73 267.048 134.699 83.9016 43.3653 40.1247 32.6636 28.2512 28.462 27.2755 22.478 15.0974 46.2534 14.8267
threshold=173.69386291503909 0.0023454918991774325 77.773185729980483 0.030475351028144363 61.905426025390632 0.015623867511749269 0.39562377333641058 0.20999908447265628 0.0019558400381356482 79.112117767333999 0.24500274658203128 61.764705657958991 194.29197692871097 0.019595221616327766 0.0072190086357295522
decision_type=2 2 2 2 2 2 2 2 2 2 2 2 2 2 2
left_child=1 8 3 10 7 -6 -2 -4 -1 -10 -3 -12 13 -8 -9
right_child=6 2 4 -5 5 -7 12 14 9 -11 11 -13 -14 -15 -16
leaf_value=-1.612491829146401 -1.0113888547076348 -1.6402626073991606 -1.1024474976312946 -0.72349918180569794 -1.4194206541128389 -0.62438962228208039 -1.6402626073991606 -0.74373286695199525 -1.6402626073991606 -1.0053419917009856 -1.0533137715537366 -1.5677002513193692 -1.6379037691984244 -0.86626414254805195 -0.64349395674596532
leaf_weight=223.25625675916672 4.1343751251697531 14.371875435113909 6.6937502026557913 16.143750488758087 9.0562502741813642 3.9375001192092887 12.206250369548799 68.709377080202103 5.1187501549720746 6.3000001907348633 8.8593752682208997 5.5125001668930045 1271.8125385046005 4.1343751251697531 418.75313767790794
leaf_count=1134 21 73 34 82 46 20 62 349 26 32 45 28 6460 21 2127
internal_value=-1.38629 -0.980301 -0.718224 -1.18579 -0.67684 -1.1785 -1.63345 -0.663648 -1.5968 -1.28996 -1.44544 -1.25061 -1.63545 -1.44443 -0.657623
internal_weight=0 786.713 552.038 44.8875 507.15 12.9938 1292.29 494.156 234.675 11.4188 28.7438 14.3719 1288.15 16.3406 487.463
internal_count=10560 3996 2804 228 2576 66 6564 2510 1192 58 146 73 6543 83 2476
is_linear=0
shrinkage=1


Tree=3
num_leaves=1
num_cat=0
split_feature=
split_gain=
threshold=
decision_type=
left_child=
right_child=
leaf_value=-34.538776391283193
leaf_weight=0
leaf_count=0
internal_value=
internal_weight=
internal_count=
is_linear=0
shrinkage=1


Tree=4
num_leaves=1
num_cat=0
split_feature=
split_gain=
threshold=
decision_type=
left_child=
right_child=
leaf_value=-34.538776391283193
leaf_weight=0
leaf_count=0
internal_value=
internal_weight=
internal_count=
is_linear=0
shrinkage=1


Tree=5
num_leaves=16
num_cat=0
split_feature=18 91 20 16 90 96 70 68 96 70 96 94 74 16 20
split_gain=3740.98 2571.92 892.303 475.649 517.297 306.546 226.396 142.597 279.471 141.344 122.033 60.1483 47.8117 35.7841 18.913
threshold=19.003453254699711 0.038317531347274787 79.802215576171889 235.68189239501956 0.031804919242858894 1.439994812011719 0.042653828859329231 0.019595221616327766 1.2250061035156252 0.13626563549041751 1.1800003051757815 10.302023887634279 0.41443423926830297 218.3145446777344 54.744298934936531
decision_type=2 2 2 2 2 2 2 2 2 2 2 2 2 2 2
left_child=1 10 7 -2 6 11 -5 12 -9 14 -1 -6 -3 -10 -8
right_child=3 2 -4 4 5 -7 9 8 13 -11 -12 -13 -14 -15 -16
leaf_value=-1.6323338426372711 -1.6338890578236613 -1.3355007118640365 -1.6058262350223105 -1.6402626073991606 -1.6402626073991606 -0.62438962228208039 -0.62797927947330678 -1.6292205097348447 -1.2532633749736062 -1.6402626073991606 -0.62438962228208039 -0.86626414254805195 -0.63508838491370467 -0.63459940102697565 -1.0815324655847665
leaf_weight=201.79688110947609 1129.6687842011452 3.9375001192092887 46.462501406669617 13.978125423192976 140.37187924981117 13.584375411272047 55.715626686811447 18.112500548362732 4.1343751251697531 6.4968751966953269 4.9218751490116111 4.1343751251697531 392.56876188516617 39.178126186132431 3.9375001192092887
leaf_count=1025 5738 20 236 71 713 69 283 92 21 33 25 21 1994 199 20
internal_value=-1.38629 -1.0142 -0.770704 -1.57973 -1.32291 -1.53273 -0.908934 -0.685971 -0.969526 -0.754397 -1.60834 -1.61812 -0.642044 -0.693654 -0.657917
internal_weight=0 711.113 504.394 1367.89 238.219 158.091 80.1281 457.931 61.425 66.15 206.719 144.506 396.506 43.3125 59.6531
internal_count=10560 3612 2562 6948 1210 803 407 2326 312 336 1050 734 2014 220 303
is_linear=0
shrinkage=1


Tree=6
num_leaves=1
num_cat=0
split_feature=
split_gain=
threshold=
decision_type=
left_child=
right_child=
leaf_value=-34.538776391283193
leaf_weight=0
leaf_count=0
internal_value=
internal_weight=
internal_count=
is_linear=0
shrinkage=1


Tree=7
num_leaves=1
num_cat=0
split_feature=
split_gain=
threshold=
decision_type=
left_child=
right_child=
leaf_value=-34.538776391283193
leaf_weight=0
leaf_count=0
internal_value=
internal_weight=
internal_count=
is_linear=0
shrinkage=1


Tree=8
num_leaves=1
num_cat=0
split_feature=
split_gain=
threshold=
decision_type=
left_child=
right_child=
leaf_value=-34.538776391283193
leaf_weight=0
leaf_count=0
internal_value=
internal_weight=
internal_count=
is_linear=0
shrinkage=1


Tree=9
num_leaves=1
num_cat=0
split_feature=
split_gain=
threshold=
decision_type=
left_child=
right_child=
leaf_value=-34.538776391283193
leaf_weight=0
leaf_count=0
internal_value=
internal_weight=
internal_count=
is_linear=0
shrinkage=1


Tree=10
num_leaves=1
num_cat=0
split_feature=
split_gain=
threshold=
decision_type=
left_child=
right_child=
leaf_value=-34.538776391283193
leaf_weight=0
leaf_count=0
internal_value=
internal_weight=
internal_count=
is_linear=0
shrinkage=1


Tree=11
num_leaves=1
num_cat=0
split_feature=
split_gain=
threshold=
decision_type=
left_child=
right_child=
leaf_value=-34.538776391283193
leaf_weight=0
leaf_count=0
internal_value=
internal_weight=
internal_count=
is_linear=0
shrinkage=1


Tree=12
num_leaves=1
num_cat=0
split_feature=
split_gain=
threshold=
decision_type=
left_child=
right_child=
leaf_value=-34.538776391283193
leaf_weight=0
leaf_count=0
internal_value=
internal_weight=
internal_count=
is_linear=0
shrinkage=1


Tree=13
num_leaves=1
num_cat=0
split_feature=
split_gain=
threshold=
decision_type=
left_child=
right_child=
leaf_value=-34.538776391283193
leaf_weight=0
leaf_count=0
internal_value=
internal_weight=
internal_count=
is_linear=0
shrinkage=1


Tree=14
num_leaves=1
num_cat=0
split_feature=
split_gain=
threshold=
decision_type=
left_child=
right_child=
leaf_value=-34.538776391283193
leaf_weight=0
leaf_count=0
internal_value=
internal_weight=
internal_count=
is_linear=0
shrinkage=1


Tree=15
num_leaves=1
num_cat=0
split_feature=
split_gain=
threshold=
decision_type=
left_child=
right_child=
leaf_value=-34.538776391283193
leaf_weight=0
leaf_count=0
internal_value=
internal_weight=
internal_count=
is_linear=0
shrinkage=1


Tree=16
num_leaves=1
num_cat=0
split_feature=
split_gain=
threshold=
decision_type=
left_child=
right_child=
leaf_value=-34.538776391283193
leaf_weight=0
leaf_count=0
internal_value=
internal_weight=
internal_count=
is_linear=0
shrinkage=1


Tree=17
num_leaves=1
num_cat=0
split_feature=
split_gain=
threshold=
decision_type=
left_child=
right_child=
leaf_value=-34.538776391283193
leaf_weight=0
leaf_count=0
internal_value=
internal_weight=
internal_count=
is_linear=0
shrinkage=1


Tree=18
num_leaves=1
num_cat=0
split_feature=
split_gain=
threshold=
decision_type=
left_child=
right_child=
leaf_value=-34.538776391283193
leaf_weight=0
leaf_count=0
internal_value=
internal_weight=
internal_count=
is_linear=0
shrinkage=1


Tree=19
num_leaves=1
num_cat=0
split_feature=
split_gain=
threshold=
decision_type=
left_child=
right_child=
leaf_value=-34.538776391283193
leaf_weight=0
leaf_count=0
internal_value=
internal_weight=
internal_count=
is_linear=0
shrinkage=1


Tree=20
num_leaves=16
num_cat=0
split_feature=97 96 15 75 16 17 18 28 96 18 18 89 31 89 16
split_gain=3795.99 1787.95 1448.61 840.826 429.429 249.52 228.286 157.768 144.032 65.2459 43.1324 40.9576 27.7968 19.6812 138.421
threshold=0.58499908447265636 1.409996032714844 132.42857360839847 0.69499969482421886 223.48177337646487 68.467742919921889 15.01952648162842 0.19798609614372256 1.3249969482421877 58.960552215576179 58.413915634155281 0.0092432750388979929 0.3467004150152207 0.021817007102072242 194.29197692871097
decision_type=2 2 2 2 2 2 2 2 2 2 2 2 2 2 2
left_child=3 2 -2 5 -5 9 7 -4 -6 12 -3 -8 13 -1 -15
right_child=1 10 6 4 8 -7 11 -9 -10 -11 -12 -13 -14 14 -16
leaf_value=-1.6389471965786242 -1.6296251939424373 -1.6331186342267481 -1.6402626073991606 -1.6402626073991606 -0.63094364154090032 -0.72113943038846906 -1.2427470914837815 -0.62438962228208039 -1.4856732400987354 -1.0411580264326774 -1.0307388163289124 -0.63795397306094459 -1.1081386628140233 -1.6402626073991606 -1.204888470920412
leaf_weight=1064.306282222271 75.20625227689743 139.97812923789024 16.143750488758091 30.515625923871994 61.031251847743988 12.40312537550926 4.5281251370906821 9.8437502980232221 9.0562502741813642 7.6781252324581137 4.9218751490116111 412.84688749909401 4.1343751251697531 191.95313081145287 34.453126043081284
leaf_count=5406 382 711 82 155 310 63 23 50 46 39 25 2097 21 975 175
internal_value=-1.38629 -0.991551 -0.817999 -1.57131 -1.01404 -1.61395 -0.680326 -1.25546 -0.741386 -1.62245 -1.61266 -0.644515 -1.6259 -1.62756 -1.57401
internal_weight=0 663.469 518.569 1415.53 100.603 1314.93 443.363 25.9875 70.0875 1302.53 144.9 417.375 1294.85 1290.71 226.406
internal_count=10560 3370 2634 7190 511 6679 2252 132 356 6616 736 2120 6577 6556 1150
is_linear=0
shrinkage=1


Tree=21
num_leaves=1
num_cat=0
split_feature=
split_gain=
threshold=
decision_type=
left_child=
right_child=
leaf_value=0
leaf_weight=0
leaf_count=0
internal_value=
internal_weight=
internal_count=
is_linear=0
shrinkage=1


Tree=22
num_leaves=16
num_cat=0
split_feature=96 89 84 19 75 16 18 97 16 16 86 93 87 98 87
split_gain=2871.78 245.109 207.505 84.3388 81.5764 79.2357 74.5954 62.3929 55.742 33.0208 38.6019 24.0288 23.1315 19.0641 18.3945
threshold=0.42000579833984381 0.0021484290482476358 0.045414589345455177 59.803920745849616 0.24500274658203128 164.27771759033206 42.085683822631843 0.54000091552734386 80.090835571289077 77.773185729980483 0.95794615149497997 -1.442396819591522 0.30944350361824041 0.26000213623046881 0.16981450468301776
decision_type=2 2 2 2 2 2 2 2 2 2 2 2 2 2 2
left_child=1 14 -2 5 6 8 7 11 13 10 -6 -4 -5 -3 -1
right_child=2 3 4 12 9 -7 -8 -9 -10 -11 -12 -13 -14 -15 -16
leaf_value=-0.053177937867090679 0.39139916100764116 0.32877066110508169 -0.040045498764394838 -0.14948555031940297 -0.21536235060465675 0.3960416980003616 -0.18121936500245064 -0.23469979746433534 -0.14943941702996535 -0.21588344560560813 0.40612988734976319 0.39376463004096846 0.39136999242677045 -0.12798437871415355 0.39205399743622554
leaf_weight=3.737496703863143 24.547746479511261 15.899623468518259 6.3205695748329154 3.4549961835145941 8.6187526881694811 17.742382004857063 52.457232341170311 11.270298302173613 71.265757575631142 1076.5972096323967 7.4557290673255912 26.60716213285923 37.428386479616165 4.7463140785694113 538.08656303584576
leaf_count=15 94 70 35 18 51 76 326 73 415 7001 32 116 154 21 2063
internal_value=0 0.326258 -0.184177 0.100497 -0.196056 0.00908936 -0.0199426 0.171472 -0.0656069 -0.211635 0.0729006 0.310494 0.345663 0.223767 0.388983
internal_weight=0 692.362 1213.87 150.537 1189.33 109.654 96.6553 44.198 91.9117 1092.67 16.0745 32.9277 40.8834 20.6459 541.824
internal_count=10560 2832 7728 754 7634 582 550 224 506 7084 83 151 172 91 2078
is_linear=0
shrinkage=0.2


Tree=23
num_leaves=16
num_cat=0
split_feature=16 89 20 96 89 16 16 84 20 15 67 19 16 65 19
split_gain=2645.86 1091.57 74.2144 39.4757 26.0046 31.3616 21.6254 37.3696 21.0817 31.6622 19.221 17.1685 12.1961 24.4266 11.2838
threshold=173.69386291503909 0.0023454918991774325 61.905426025390632 0.78500366210937511 0.0012338329106569292 79.112117767333999 77.773185729980483 0.11609191820025445 49.231884002685554 85.08276748657228 0.8653542995452882 58.627450942993171 194.29197692871097 0.97435018420219432 58.235294342041023
decision_type=2 2 2 2 2 2 2 2 2 2 2 2 2 2 2
left_child=1 4 6 11 -1 -6 7 -3 -7 14 12 -4 13 -2 -10
right_child=10 2 3 -5 5 8 -8 -9 9 -11 -12 -13 -14 -15 -16
leaf_value=-0.21545073722239128 0.31124721866794047 -0.12025043205928852 0.24225115543102305 0.3727081080964702 -0.23275427143161351 -0.20719836273446512 0.3819628332305125 0.34924933138571695 0.28373053587232072 0.72099870354696605 0.1206276732414604 -0.22945487737918549 -0.22840714799906339 -0.23253531683330012 -0.16724176885883801
leaf_weight=154.53002807497978 5.0544452965259543 9.429804250597952 3.9193747639656129 9.4956751465797407 15.11142176389694 4.6843764185905483 654.01807861030102 24.143237754702568 4.6369444876909238 4.4572119861841193 6.4510786086320868 14.52192363142967 982.67379050701857 9.5424288287758809 4.2565018087625504
leaf_count=999 20 53 20 37 97 27 2510 99 23 23 30 85 6452 62 23
internal_value=0 0.248339 0.360943 0.0413954 -0.180971 -0.020226 0.373927 0.217379 0.15785 0.285935 -0.223486 -0.129202 -0.225712 -0.0442403 0.0678902
internal_weight=0 903.205 715.528 27.937 187.676 33.1465 687.591 33.573 18.035 13.3507 1003.72 18.4413 997.271 14.5969 8.89345
internal_count=10560 3996 2804 142 1192 193 2662 152 96 69 6564 105 6534 82 46
is_linear=0
shrinkage=0.2


Tree=24
num_leaves=1
num_cat=0
split_feature=
split_gain=
threshold=
decision_type=
left_child=
right_child=
leaf_value=0
leaf_weight=0
leaf_count=0
internal_value=
internal_weight=
internal_count=
is_linear=0
shrinkage=1


Tree=25
num_leaves=1
num_cat=0
split_feature=
split_gain=
threshold=
decision_type=
left_child=
right_child=
leaf_value=0
leaf_weight=0
leaf_count=0
internal_value=
internal_weight=
internal_count=
is_linear=0
shrinkage=1


Tree=26
num_leaves=16
num_cat=0
split_feature=18 91 20 16 89 70 94 70 96 49 18 20 95 49 77
split_gain=1860.71 959.455 315.407 305.942 220.968 90.9678 86.7637 86.7049 69.7494 56.529 112.726 19.7833 15.506 12.2425 11.9841
threshold=20.467396736145023 0.041910499334335334 80.44305801391603 233.19666290283206 0.027741782367229465 0.042653828859329231 10.302023887634279 0.13025480508804324 1.1800003051757815 0.24906331300735476 9.6863579750061053 54.272529602050788 4.7866451740264901 0.61490634083747875 0.45999908447265631
decision_type=2 2 2 2 2 2 2 2 2 2 2 2 2 2 2
left_child=1 8 9 -2 5 -5 -6 11 -1 14 13 -7 -12 -11 -3
right_child=3 2 -4 4 6 7 -8 -9 -10 10 12 -13 -14 -15 -16
leaf_value=-0.22046148361584761 -0.2281311037354824 0.39639724686449557 -0.22181901244800156 -0.23216124419149176 -0.21983014841117479 0.40642500953286576 0.37968024498603858 -0.18168964446064595 0.39930061103377734 0.094263010271103551 -0.226452119422828 -0.036675956450601135 0.24039066336397497 0.41250790066096044 0.16535713887583703
leaf_weight=165.78588800877333 855.5326933786273 534.64777761697769 38.19032821059227 14.291379138827322 100.56577934324741 78.135284036397934 10.681809708476065 12.501641377806662 7.5963968932628623 5.4461867660284033 19.836230546236042 4.2496672719717017 3.322590857744216 43.094820186495781 9.133725628256796
leaf_count=1077 5595 2055 247 93 651 301 43 76 29 24 125 21 16 166 41
internal_value=0 0.224959 0.335901 -0.173998 0.0361085 0.238244 -0.162266 0.309094 -0.193308 0.370507 0.203586 0.383569 -0.159474 0.376802 0.392517
internal_weight=0 827.054 653.672 1075.96 220.426 109.178 111.248 94.8866 173.382 615.481 71.6998 82.385 23.1588 48.541 543.782
internal_count=10560 3780 2674 6780 1185 491 694 398 1106 2427 331 322 141 190 2096
is_linear=0
shrinkage=0.2


Tree=27
num_leaves=1
num_cat=0
split_feature=
split_gain=
threshold=
decision_type=
left_child=
right_child=
leaf_value=0
leaf_weight=0
leaf_count=0
internal_value=
internal_weight=
internal_count=
is_linear=0
shrinkage=1


Tree=28
num_leaves=1
num_cat=0
split_feature=
split_gain=
threshold=
decision_type=
left_child=
right_child=
leaf_value=0
leaf_weight=0
leaf_count=0
internal_value=
internal_weight=
internal_count=
is_linear=0
shrinkage=1


Tree=29
num_leaves=1
num_cat=0
split_feature=
split_gain=
threshold=
decision_type=
left_child=
right_child=
leaf_value=0
leaf_weight=0
leaf_count=0
internal_value=
internal_weight=
internal_count=
is_linear=0
shrinkage=1


Tree=30
num_leaves=1
num_cat=0
split_feature=
split_gain=
threshold=
decision_type=
left_child=
right_child=
leaf_value=0
leaf_weight=0
leaf_count=0
internal_value=
internal_weight=
internal_count=
is_linear=0
shrinkage=1


Tree=31
num_leaves=1
num_cat=0
split_feature=
split_gain=
threshold=
decision_type=
left_child=
right_child=
leaf_value=0
leaf_weight=0
leaf_count=0
internal_value=
internal_weight=
internal_count=
is_linear=0
shrinkage=1


Tree=32
num_leaves=1
num_cat=0
split_feature=
split_gain=
threshold=
decision_type=
left_child=
right_child=
leaf_value=0
leaf_weight=0
leaf_count=0
internal_value=
internal_weight=
internal_count=
is_linear=0
shrinkage=1


Tree=33
num_leaves=1
num_cat=0
split_feature=
split_gain=
threshold=
decision_type=
left_child=
right_child=
leaf_value=0
leaf_weight=0
leaf_count=0
internal_value=
internal_weight=
internal_count=
is_linear=0
shrinkage=1


Tree=34
num_leaves=1
num_cat=0
split_feature=
split_gain=
threshold=
decision_type=
left_child=
right_child=
leaf_value=0
leaf_weight=0
leaf_count=0
internal_value=
internal_weight=
internal_count=
is_linear=0
shrinkage=1


Tree=35
num_leaves=1
num_cat=0
split_feature=
split_gain=
threshold=
decision_type=
left_child=
right_child=
leaf_value=0
leaf_weight=0
leaf_count=0
internal_value=
internal_weight=
internal_count=
is_linear=0
shrinkage=1


Tree=36
num_leaves=1
num_cat=0
split_feature=
split_gain=
threshold=
decision_type=
left_child=
right_child=
leaf_value=0
leaf_weight=0
leaf_count=0
internal_value=
internal_weight=
internal_count=
is_linear=0
shrinkage=1


Tree=37
num_leaves=1
num_cat=0
split_feature=
split_gain=
threshold=
decision_type=
left_child=
right_child=
leaf_value=0
leaf_weight=0
leaf_count=0
internal_value=
internal_weight=
internal_count=
is_linear=0
shrinkage=1


Tree=38
num_leaves=1
num_cat=0
split_feature=
split_gain=
threshold=
decision_type=
left_child=
right_child=
leaf_value=0
leaf_weight=0
leaf_count=0
internal_value=
internal_weight=
internal_count=
is_linear=0
shrinkage=1


Tree=39
num_leaves=1
num_cat=0
split_feature=
split_gain=
threshold=
decision_type=
left_child=
right_child=
leaf_value=0
leaf_weight=0
leaf_count=0
internal_value=
internal_weight=
internal_count=
is_linear=0
shrinkage=1


Tree=40
num_leaves=1
num_cat=0
split_feature=
split_gain=
threshold=
decision_type=
left_child=
right_child=
leaf_value=0
leaf_weight=0
leaf_count=0
internal_value=
internal_weight=
internal_count=
is_linear=0
shrinkage=1


Tree=41
num_leaves=16
num_cat=0
split_feature=97 15 96 75 89 16 18 16 18 49 16 73 98 17 91
split_gain=1892.09 681.525 613.989 314.691 134.578 127.229 88.4436 65.0358 64.7273 86.4166 33.7679 32.1466 28.1297 21.1677 20.5561
threshold=0.51499938964843761 138.05429840087893 1.474998474121094 0.69499969482421886 0.0092432750388979929 223.94988250732425 57.115764617919929 264.86479187011724 15.203258991241457 0.29111424088478094 187.05112457275393 2.3817348480224614 0.71499633789062511 68.467742919921889 0.26988744735717779
decision_type=2 2 2 2 2 2 2 2 2 2 2 2 2 2 2
left_child=3 -2 4 6 11 -5 13 -8 9 -6 -10 -3 -12 -1 -7
right_child=1 2 -4 5 8 14 7 -9 10 -11 12 -13 -14 -15 -16
leaf_value=-0.22076344303118622 -0.2229650816248322 -0.23498603961440112 -0.23017490430050092 -0.23285933656533084 -0.23295487020261785 0.39695853909578038 -0.24551260195274899 0.47039177855831493 -0.26337926595812161 0.39183524667442327 0.39889120651364629 0.44558876823194959 -0.041995016260981337 0.22327809766825346 -0.027234499482955778
leaf_weight=953.85462852567434 118.5052198767662 18.363562136888508 79.589260466396809 19.357192024588585 15.929888464510439 52.449985668063164 8.2945179492235201 13.079994410276411 3.1372889131307593 19.938012927770615 583.48375898599625 3.2705869227647772 5.8465842008590689 4.3136680871248236 5.00565581023693
leaf_count=6208 769 117 516 125 104 201 48 52 17 77 2239 15 28 17 27
internal_value=0 0.221889 0.294149 -0.17922 0.358353 0.210598 -0.209788 0.19258 0.375239 0.114349 0.391034 -0.132099 0.394517 -0.218764 0.360002
internal_weight=0 848.064 729.559 1056.36 649.97 76.8128 979.543 21.3745 628.336 35.8679 592.468 21.6341 589.33 958.168 57.4556
internal_count=10560 3882 3113 6678 2597 353 6325 100 2465 181 2284 132 2267 6225 228
is_linear=0
shrinkage=0.2


Tree=42
num_leaves=1
num_cat=0
split_feature=
split_gain=
threshold=
decision_type=
left_child=
right_child=
leaf_value=0
leaf_weight=0
leaf_count=0
internal_value=
internal_weight=
internal_count=
is_linear=0
shrinkage=1


Tree=43
num_leaves=16
num_cat=0
split_feature=96 70 89 84 75 20 18 16 97 16 89 96 49 88 86
split_gain=1670.79 174.35 88.2563 81.0414 50.2696 46.5863 40.881 37.6521 36.0084 20.9438 22.5673 13.693 10.9371 8.83363 16.2534
threshold=0.46500396728515631 0.03041404485702515 0.0036167918005958204 0.045414589345455177 0.23999786376953128 61.301733016967781 41.669172286987312 149.59389495849612 0.39000701904296881 77.773185729980483 0.020804596133530143 0.20999908447265628 0.0017568767070770266 0.60245114564895641 0.9955829679965974
decision_type=2 2 2 2 2 2 2 2 2 2 2 2 2 2 2
left_child=1 2 -1 -2 6 7 8 11 -5 10 -6 -4 -13 14 -3
right_child=3 13 5 4 9 -7 -8 -9 -10 -11 -12 12 -14 -15 -16
leaf_value=0.29077593503938665 0.28514608573172462 -0.10476485057279024 0.29796522104813444 0.31333542016116772 0.31393433212855837 0.33548246068920728 -0.16231624616290505 0.34356775353603769 -0.14342682582436403 -0.20388985405502408 -0.19833065556496146 0.16979237137868775 -0.12017943830567086 -0.20652414438126115 0.37475931616147862
leaf_weight=560.97163344919682 14.84368649125099 20.287364438176159 3.9080625474452964 19.626741126179699 6.5436103641986829 21.561685681343079 36.173556953668594 10.731841824948786 10.64981687068939 802.98886099457741 7.252581387758255 5.8189707919955245 49.14811434596777 26.305261328816414 3.285222426056861
leaf_count=2297 60 153 19 84 27 89 279 46 81 6798 53 35 330 194 15
internal_value=0 0.233551 0.261115 -0.178294 -0.186083 0.0786078 -0.0188002 -0.000962467 0.152669 -0.199692 0.0446395 -0.0637639 -0.0894822 -0.126848 -0.0379354
internal_weight=0 702.018 652.14 898.079 883.235 91.1687 66.4501 69.607 30.2766 816.785 13.7962 58.8751 54.9671 49.8778 23.5726
internal_count=10560 3178 2816 7382 7322 519 444 430 165 6878 80 384 365 362 168
is_linear=0
shrinkage=0.2


Tree=44
num_leaves=16
num_cat=0
split_feature=16 89 15 84 74 16 86 20 15 89 16 17 96 94 16
split_gain=1599.19 555.505 42.7127 41.2384 20.6368 18.2396 17.2543 19.3524 29.3567 14.5402 32.434 13.8161 10.3505 9.83866 9.15656
threshold=173.69386291503909 0.0020890405867248778 74.437412261962905 0.11958208680152894 0.36683784425258642 80.831062316894545 0.99891024827957164 49.231884002685554 81.985916137695327 0.0072190086357295522 79.446235656738295 26.172161102294925 0.60500335693359386 8.4824404716491717 194.29197692871097
decision_type=2 2 2 2 2 2 2 2 2 2 2 2 2 2 2
left_child=1 5 3 -3 -2 -1 7 -7 -9 10 -4 -12 13 -5 -6
right_child=4 2 9 12 14 6 -8 8 -10 -11 11 -13 -14 -15 -16
leaf_value=-0.2188834464176512 0.17265902801855185 -0.12335201274683816 -0.13236795284805977 -0.087017152658701191 -0.043084482024257277 -0.22556961846737461 -0.19086655823813459 -0.076314024537049094 0.48266762980507949 0.29515830978465474 -0.075050726626554931 0.26650203277213524 0.27898611829393438 0.28046223920954982 -0.21471728214277933
leaf_weight=97.66606991738081 5.6243813931941977 20.56200248748064 9.8047110363841039 7.193710193037985 12.644028238952158 6.4705272465944317 21.039364829659462 7.9501893296837789 7.1272702217102051 518.70681960880756 4.9911487698554984 93.140454053878784 32.072863645851612 4.8988682776689529 746.56614479422569
leaf_count=826 28 126 55 36 83 50 177 62 37 2092 20 366 128 21 6453
internal_value=0 0.191662 0.265284 0.11061 -0.209031 -0.171257 -0.0620342 0.0637571 0.187922 0.281261 0.214476 0.24913 0.219535 0.0618538 -0.211859
internal_weight=0 831.624 691.371 64.7274 764.835 140.253 42.5874 21.548 15.0775 626.643 107.936 98.1316 44.1654 12.0926 759.21
internal_count=10560 3996 2844 311 6564 1152 326 149 99 2533 441 386 185 57 6536
is_linear=0
shrinkage=0.2


Tree=45
num_leaves=1
num_cat=0
split_feature=
split_gain=
threshold=
decision_type=
left_child=
right_child=
leaf_value=0
leaf_weight=0
leaf_count=0
internal_value=
internal_weight=
internal_count=
is_linear=0
shrinkage=1


Tree=46
num_leaves=1
num_cat=0
split_feature=
split_gain=
threshold=
decision_type=
left_child=
right_child=
leaf_value=0
leaf_weight=0
leaf_count=0
internal_value=
internal_weight=
internal_count=
is_linear=0
shrinkage=1


Tree=47
num_leaves=16
num_cat=0
split_feature=18 91 16 20 89 96 20 97 96 85 96 18 74 70 70
split_gain=1115.38 518.074 217.322 169.303 127.726 58.1387 54.1867 42.7907 37.7764 30.0269 90.6053 39.9369 29.2173 25.7579 18.8177
threshold=20.467396736145023 0.038317531347274787 233.19666290283206 81.21319961547853 0.027741782367229465 1.3249969482421877 55.125818252563484 0.40000152587890631 1.1800003051757815 0.71966576576232921 1.254997253417969 9.9484553337097186 0.44979922473430639 0.45691952109336859 0.13981303572654727
decision_type=2 2 2 2 2 2 2 2 2 2 2 2 2 2 2
left_child=1 8 -2 9 6 -6 7 -4 -1 -3 11 -11 -12 -7 -9
right_child=2 3 4 -5 5 13 -8 14 -10 10 12 -13 -14 -15 -16
leaf_value=-0.20671365017217919 -0.21396556939058153 0.30432805309246386 -0.22046110616577985 -0.21894882051957226 -0.22014595595893788 0.356481468598006 -0.22741822123954633 0.30624818582790103 0.3022596425791757 0.1828406615468143 -0.22576108415797813 -0.25482637666610908 0.30730964831575164 -0.22685026362362906 -0.094765768426531394
leaf_weight=125.35013417899609 650.62934838980436 435.74774345755577 7.4223937392234793 28.784877963364124 72.519978851079941 11.606799095869063 11.234183579683302 75.528434664011002 6.1176634132862082 13.795962631702421 4.2747785896062842 21.08619187027216 108.4970858246088 4.0965702533721915 4.9898925572633734
leaf_count=1063 5595 1772 62 245 615 48 85 309 25 59 22 150 444 31 35
internal_value=0 0.177195 -0.159306 0.254553 0.0304682 -0.144595 0.1862 0.239039 -0.183029 0.277916 0.199969 -0.0817282 0.287103 0.204307 0.281396
internal_weight=0 743.654 838.028 612.187 187.398 88.2233 99.1749 87.9407 131.468 583.402 147.654 34.8822 112.772 15.7034 80.5183
internal_count=10560 3780 6780 2692 1185 694 491 406 1088 2447 675 209 466 79 344
is_linear=0
shrinkage=0.2


Tree=48
num_leaves=1
num_cat=0
split_feature=
split_gain=
threshold=
decision_type=
left_child=
right_child=
leaf_value=0
leaf_weight=0
leaf_count=0
internal_value=
internal_weight=
internal_count=
is_linear=0
shrinkage=1


Tree=49
num_leaves=1
num_cat=0
split_feature=
split_gain=
threshold=
decision_type=
left_child=
right_child=
leaf_value=0
leaf_weight=0
leaf_count=0
internal_value=
internal_weight=
internal_count=
is_linear=0
shrinkage=1


Tree=50
num_leaves=1
num_cat=0
split_feature=
split_gain=
threshold=
decision_type=
left_child=
right_child=
leaf_value=0
leaf_weight=0
leaf_count=0
internal_value=
internal_weight=
internal_count=
is_linear=0
shrinkage=1


Tree=51
num_leaves=1
num_cat=0
split_feature=
split_gain=
threshold=
decision_type=
left_child=
right_child=
leaf_value=0
leaf_weight=0
leaf_count=0
internal_value=
internal_weight=
internal_count=
is_linear=0
shrinkage=1


Tree=52
num_leaves=1
num_cat=0
split_feature=
split_gain=
threshold=
decision_type=
left_child=
right_child=
leaf_value=0
leaf_weight=0
leaf_count=0
internal_value=
internal_weight=
internal_count=
is_linear=0
shrinkage=1


Tree=53
num_leaves=1
num_cat=0
split_feature=
split_gain=
threshold=
decision_type=
left_child=
right_child=
leaf_value=0
leaf_weight=0
leaf_count=0
internal_value=
internal_weight=
internal_count=
is_linear=0
shrinkage=1


Tree=54
num_leaves=1
num_cat=0
split_feature=
split_gain=
threshold=
decision_type=
left_child=
right_child=
leaf_value=0
leaf_weight=0
leaf_count=0
internal_value=
internal_weight=
internal_count=
is_linear=0
shrinkage=1


Tree=55
num_leaves=1
num_cat=0
split_feature=
split_gain=
threshold=
decision_type=
left_child=
right_child=
leaf_value=0
leaf_weight=0
leaf_count=0
internal_value=
internal_weight=
internal_count=
is_linear=0
shrinkage=1


Tree=56
num_leaves=1
num_cat=0
split_feature=
split_gain=
threshold=
decision_type=
left_child=
right_child=
leaf_value=0
leaf_weight=0
leaf_count=0
internal_value=
internal_weight=
internal_count=
is_linear=0
shrinkage=1


Tree=57
num_leaves=1
num_cat=0
split_feature=
split_gain=
threshold=
decision_type=
left_child=
right_child=
leaf_value=0
leaf_weight=0
leaf_count=0
internal_value=
internal_weight=
internal_count=
is_linear=0
shrinkage=1


Tree=58
num_leaves=1
num_cat=0
split_feature=
split_gain=
threshold=
decision_type=
left_child=
right_child=
leaf_value=0
leaf_weight=0
leaf_count=0
internal_value=
internal_weight=
internal_count=
is_linear=0
shrinkage=1


Tree=59
num_leaves=1
num_cat=0
split_feature=
split_gain=
threshold=
decision_type=
left_child=
right_child=
leaf_value=0
leaf_weight=0
leaf_count=0
internal_value=
internal_weight=
internal_count=
is_linear=0
shrinkage=1


Tree=60
num_leaves=1
num_cat=0
split_feature=
split_gain=
threshold=
decision_type=
left_child=
right_child=
leaf_value=0
leaf_weight=0
leaf_count=0
internal_value=
internal_weight=
internal_count=
is_linear=0
shrinkage=1


Tree=61
num_leaves=1
num_cat=0
split_feature=
split_gain=
threshold=
decision_type=
left_child=
right_child=
leaf_value=0
leaf_weight=0
leaf_count=0
internal_value=
internal_weight=
internal_count=
is_linear=0
shrinkage=1


Tree=62
num_leaves=16
num_cat=0
split_feature=97 15 96 75 16 89 18 94 18 16 75 18 16 17 75
split_gain=1133.88 384.434 328.554 208.543 126.19 76.1861 53.6124 39.0272 57.7705 32.9253 23.9846 21.71 18.2068 15.9522 11.7938
threshold=0.51000213623046886 138.05429840087893 1.474998474121094 0.62000274658203136 225.28062438964847 0.0092432750388979929 57.115764617919929 10.302023887634279 48.98785591125489 264.86479187011724 0.62000274658203136 9.9484553337097186 187.05112457275393 68.467742919921889 0.68999481201171886
decision_type=2 2 2 2 2 2 2 2 2 2 2 2 2 2 2
left_child=3 -2 5 6 -5 10 13 11 -9 -8 -3 -7 -13 -1 -6
right_child=1 2 -4 4 14 7 9 8 -10 -11 -12 12 -14 -15 -16
leaf_value=-0.21026436650072325 -0.20712353842664957 -0.22241303411843449 -0.21644120058048408 -0.21562264684839577 0.6027884411447465 -0.10047692211576471 -0.22754648895606411 -0.22268243642992586 0.3157624998082304 0.33415604134159116 0.38619296014651078 -0.23963250247980625 0.30196237357526412 0.18728140566565818 0.2722537371973292
leaf_weight=709.84511252492666 93.047109574079514 15.918868519365789 60.891767628490925 28.411869265139103 4.7000617086887351 5.4809062853455535 6.4134203717112568 14.719615086913107 17.38323087990284 11.955767303705214 3.0934540033340445 2.4940138384699813 552.73895893245935 4.0605378895997992 53.114468857645988
leaf_count=6042 788 132 516 239 21 42 48 96 70 47 12 17 2251 16 223
internal_value=0 0.173906 0.226608 -0.164681 0.129514 0.270702 -0.199323 0.283341 0.0688778 0.138043 -0.123388 0.29562 0.29953 -0.208003 0.299125
internal_weight=0 765.768 672.721 818.501 86.2264 611.829 732.275 592.817 32.1028 18.3692 19.0123 560.714 555.233 713.906 57.8145
internal_count=10560 3924 3136 6636 483 2620 6153 2476 166 95 144 2310 2268 6058 244
is_linear=0
shrinkage=0.2


Tree=63
num_leaves=1
num_cat=0
split_feature=
split_gain=
threshold=
decision_type=
left_child=
right_child=
leaf_value=0
leaf_weight=0
leaf_count=0
internal_value=
internal_weight=
internal_count=
is_linear=0
shrinkage=1


Tree=64
num_leaves=16
num_cat=0
split_feature=91 89 17 97 86 94 33 15 96 49 95 20 94 16 89
split_gain=1036.46 184.603 50.4535 26.9035 25.187 18.5694 16.9788 26.7794 14.1823 11.3333 11.0152 12.7985 10.8992 10.5816 13.6595
threshold=0.020956516265869144 0.0043317577801644811 32.648843765258796 0.54499816894531261 0.99944406747818004 4.3871333599090585 0.049995422363281257 279.65516662597662 0.23999786376953128 0.0044136345386505136 3.7415890693664555 53.558626174926765 8.1684470176696795 77.202983856201186 0.020804596133530143
decision_type=2 2 2 2 2 2 2 2 2 2 2 2 2 2 2
left_child=1 5 3 10 6 -1 7 -2 -4 -10 11 -3 -12 14 -8
right_child=4 2 8 -5 -6 -7 13 -9 9 -11 12 -13 -14 -15 -16
leaf_value=-0.040586197138005216 -0.10047004640423376 -0.080793685873403992 0.2339311090249023 -0.18484741291227935 0.26094938446436194 0.24269175675976185 0.22756341597008245 0.5464380568322752 0.020294542536977062 -0.15880803767669949 0.49861418302157523 0.27312445184291795 0.20507684683106528 -0.19142308220727566 -0.2208803537852326
leaf_weight=9.4312166944146139 15.533866889774801 8.2217427119612712 4.6708805561065665 7.9639769643545142 5.1745940446853629 498.78151518851519 5.5409748256206495 3.0645920261740676 17.595378272235394 71.803888566792011 7.9694741219282177 8.1271902248263341 13.857938282191752 597.63709496706724 5.3308151513338089
leaf_count=52 158 60 29 91 25 2418 25 16 131 664 41 40 78 6685 47
internal_value=0 0.181383 -0.0217837 0.149522 -0.178487 0.237435 -0.182113 0.00612531 -0.105807 -0.123557 0.219275 0.095142 0.312251 -0.187866 0.0076759
internal_weight=0 648.423 140.21 46.1403 632.282 508.213 627.107 18.5985 94.0701 89.3993 38.1763 16.3489 21.8274 608.509 10.8718
internal_count=10560 3604 1134 310 6956 2470 6931 174 824 795 219 100 119 6757 72
is_linear=0
shrinkage=0.2


Tree=65
num_leaves=16
num_cat=0
split_feature=16 89 89 15 64 16 20 15 17 94 86 6 17 16 49
split_gain=1018.22 312.51 29.5646 35.493 16.0888 15.5615 13.9179 15.7828 13.0728 11.5574 11.4743 9.92605 8.77452 8.07687 17.9285
threshold=173.69386291503909 0.0019558400381356482 0.0072190086357295522 78.343139648437514 0.39562377333641058 81.501617431640639 49.231884002685554 81.985916137695327 19.013132095336918 7.0174310207366952 0.99891024827957164 0.0033344544935971503 42.900964736938484 194.29197692871097 0.14250272512435916
decision_type=2 2 2 2 2 2 2 2 2 2 2 2 2 2 2
left_child=1 5 3 11 -2 -1 -7 9 -5 -8 -9 12 -3 14 -6
right_child=4 2 -4 8 13 6 7 10 -10 -11 -12 -13 -14 -15 -16
leaf_value=-0.20733410864227475 0.15402106918859632 0.21379605852662681 0.2392017690227847 -0.23698792779842726 -0.20297323456120911 -0.21311454263973961 0.3163786682186901 0.42723463413053314 0.19897532917689267 -0.18990795406922087 -0.11582171917237037 -0.17944825318030333 -0.17663659458158754 -0.20491955759391989 0.33557704630824803
leaf_weight=74.025909923017025 5.1386246383190146 6.4795510619878787 479.64456558972597 2.8390064537525168 7.9750862494111043 11.312727659940721 2.2643527314066914 5.8244370967149726 88.991596721112728 8.8625834211707097 2.1237885877490044 15.710879169404505 3.5715867802500725 554.62302793934941 3.583657294511795
leaf_count=844 21 40 2286 12 69 121 23 29 392 93 24 108 24 6460 14
internal_value=0 0.161359 0.217169 0.127299 -0.198274 -0.157865 -0.037356 0.0668795 0.185497 -0.0868777 0.282128 -0.0801513 0.0750591 -0.201471 -0.0360018
internal_weight=0 701.651 597.237 117.593 571.32 104.414 30.3879 19.0752 91.8306 11.1269 7.94823 25.762 10.0511 566.182 11.5587
internal_count=10560 3996 2862 576 6564 1134 290 169 404 116 53 172 64 6543 83
is_linear=0
shrinkage=0.2


Tree=66
num_leaves=1
num_cat=0
split_feature=
split_gain=
threshold=
decision_type=
left_child=
right_child=
leaf_value=0
leaf_weight=0
leaf_count=0
internal_value=
internal_weight=
internal_count=
is_linear=0
shrinkage=1


Tree=67
num_leaves=1
num_cat=0
split_feature=
split_gain=
threshold=
decision_type=
left_child=
right_child=
leaf_value=0
leaf_weight=0
leaf_count=0
internal_value=
internal_weight=
internal_count=
is_linear=0
shrinkage=1


Tree=68
num_leaves=16
num_cat=0
split_feature=18 91 16 20 89 96 70 70 96 85 96 74 49 70 97
split_gain=705.186 310.28 155.654 97.5332 84.6853 46.9021 36.6844 30.6667 28.0907 18.7264 48.8979 19.1331 16.5141 7.35071 6.72272
threshold=20.467396736145023 0.043853133916854865 230.1801452636719 81.21319961547853 0.027741782367229465 1.3249969482421877 0.042653828859329231 0.13025480508804324 1.1800003051757815 0.81320622563362133 1.254997253417969 0.57248130440711986 0.4882339239120484 0.024973452091217044 0.67000579833984386
decision_type=2 2 2 2 2 2 2 2 2 2 2 2 2 2 2
left_child=1 8 -2 9 6 -6 -4 14 -1 13 -11 -12 -7 -3 -8
right_child=2 3 4 -5 5 12 7 -9 -10 10 11 -13 -14 -15 -16
leaf_value=-0.18991935295768952 -0.20712452925172259 0.043381354663967399 -0.21051478796257608 -0.21041323416280258 -0.21104268308737961 0.3191066085946328 0.26782196082228049 -0.14694626706306907 0.25891041204469067 -0.18163307105780049 -0.15578833824945254 0.25335850650143499 -0.15543800957640946 0.25486173659322525 -0.0031801025792756576
leaf_weight=97.376476399600506 474.058792617172 6.6838823854923239 9.5590188354253751 20.570923149585724 60.50984612852335 10.59717798233032 62.378648608922958 8.7258027791976911 5.9166559725999823 14.885022945702074 4.9609292224049559 58.284988090395927 4.056070163846015 400.96451149135828 3.889834836125373
leaf_count=1082 5479 31 110 236 697 50 304 79 29 136 29 281 37 1956 24
internal_value=0 0.151697 -0.149594 0.21614 0.0211654 -0.133297 0.158474 0.205506 -0.16421 0.234203 0.144508 0.221266 0.187751 0.251394 0.251915
internal_weight=0 609.643 633.775 506.35 159.716 75.1631 84.5533 74.9943 103.293 485.779 78.1309 63.2459 14.6532 407.648 66.2685
internal_count=10560 3780 6780 2669 1301 784 517 407 1111 2433 446 310 87 1987 328
is_linear=0
shrinkage=0.2


Tree=69
num_leaves=1
num_cat=0
split_feature=
split_gain=
threshold=
decision_type=
left_child=
right_child=
leaf_value=0
leaf_weight=0
leaf_count=0
internal_value=
internal_weight=
internal_count=
is_linear=0
shrinkage=1


Tree=70
num_leaves=1
num_cat=0
split_feature=
split_gain=
threshold=
decision_type=
left_child=
right_child=
leaf_value=0
leaf_weight=0
leaf_count=0
internal_value=
internal_weight=
internal_count=
is_linear=0
shrinkage=1


Tree=71
num_leaves=1
num_cat=0
split_feature=
split_gain=
threshold=
decision_type=
left_child=
right_child=
leaf_value=0
leaf_weight=0
leaf_count=0
internal_value=
internal_weight=
internal_count=
is_linear=0
shrinkage=1


Tree=72
num_leaves=1
num_cat=0
split_feature=
split_gain=
threshold=
decision_type=
left_child=
right_child=
leaf_value=0
leaf_weight=0
leaf_count=0
internal_value=
internal_weight=
internal_count=
is_linear=0
shrinkage=1


Tree=73
num_leaves=1
num_cat=0
split_feature=
split_gain=
threshold=
decision_type=
left_child=
right_child=
leaf_value=0
leaf_weight=0
leaf_count=0
internal_value=
internal_weight=
internal_count=
is_linear=0
shrinkage=1


Tree=74
num_leaves=1
num_cat=0
split_feature=
split_gain=
threshold=
decision_type=
left_child=
right_child=
leaf_value=0
leaf_weight=0
leaf_count=0
internal_value=
internal_weight=
internal_count=
is_linear=0
shrinkage=1


Tree=75
num_leaves=1
num_cat=0
split_feature=
split_gain=
threshold=
decision_type=
left_child=
right_child=
leaf_value=0
leaf_weight=0
leaf_count=0
internal_value=
internal_weight=
internal_count=
is_linear=0
shrinkage=1


Tree=76
num_leaves=1
num_cat=0
split_feature=
split_gain=
threshold=
decision_type=
left_child=
right_child=
leaf_value=0
leaf_weight=0
leaf_count=0
internal_value=
internal_weight=
internal_count=
is_linear=0
shrinkage=1


Tree=77
num_leaves=1
num_cat=0
split_feature=
split_gain=
threshold=
decision_type=
left_child=
right_child=
leaf_value=0
leaf_weight=0
leaf_count=0
internal_value=
internal_weight=
internal_count=
is_linear=0
shrinkage=1


Tree=78
num_leaves=1
num_cat=0
split_feature=
split_gain=
threshold=
decision_type=
left_child=
right_child=
leaf_value=0
leaf_weight=0
leaf_count=0
internal_value=
internal_weight=
internal_count=
is_linear=0
shrinkage=1


Tree=79
num_leaves=1
num_cat=0
split_feature=
split_gain=
threshold=
decision_type=
left_child=
right_child=
leaf_value=0
leaf_weight=0
leaf_count=0
internal_value=
internal_weight=
internal_count=
is_linear=0
shrinkage=1


Tree=80
num_leaves=1
num_cat=0
split_feature=
split_gain=
threshold=
decision_type=
left_child=
right_child=
leaf_value=0
leaf_weight=0
leaf_count=0
internal_value=
internal_weight=
internal_count=
is_linear=0
shrinkage=1


Tree=81
num_leaves=1
num_cat=0
split_feature=
split_gain=
threshold=
decision_type=
left_child=
right_child=
leaf_value=0
leaf_weight=0
leaf_count=0
internal_value=
internal_weight=
internal_count=
is_linear=0
shrinkage=1


Tree=82
num_leaves=1
num_cat=0
split_feature=
split_gain=
threshold=
decision_type=
left_child=
right_child=
leaf_value=0
leaf_weight=0
leaf_count=0
internal_value=
internal_weight=
internal_count=
is_linear=0
shrinkage=1


Tree=83
num_leaves=16
num_cat=0
split_feature=97 15 96 75 89 16 18 16 94 18 18 75 18 87 87
split_gain=719.23 243.365 201.539 112.094 79.2298 67.6027 33.0787 41.6868 22.2426 31.7219 21.6066 16.3213 16.1969 5.89097 31.55
threshold=0.48999786376953131 138.05429840087893 1.439994812011719 0.62000274658203136 0.0092432750388979929 227.03948211669925 53.976566314697273 264.86479187011724 10.302023887634279 36.44554519653321 60.344745635986335 0.62000274658203136 9.9484553337097186 0.23287153244018557 0.23130186647176745
decision_type=2 2 2 2 2 2 2 2 2 2 2 2 2 2 2
left_child=3 -2 4 6 11 -5 13 -8 12 -10 -4 -3 -6 14 -1
right_child=1 2 10 5 8 -7 7 -9 9 -11 -12 -13 -14 -15 -16
leaf_value=-0.18730780348450959 -0.19549340600100254 -0.21241302704613321 -0.21316631326947758 -0.19698882269490242 -0.086771045680857029 0.2439378326001938 -0.21176503850354467 0.3116983687460006 -0.23207700990066288 0.23142842051920912 0.294232665913506 0.30084547764561009 0.25571893661759088 -0.20666658962382167 0.43400422168070207
leaf_weight=30.475651279091835 74.994437158107758 19.14019409567118 50.619223438203335 21.070907965302467 5.5890532135963431 40.920125588774681 12.780946433544161 11.616084605455397 9.3981851302087325 15.895842820405958 3.5954059958457938 2.8468473851680747 469.29144895076752 476.20094727352262 3.6620237827301017
leaf_count=343 850 217 553 230 50 194 141 52 77 79 15 12 2298 5429 20
internal_value=0 0.143416 0.187513 -0.160523 0.22562 0.0940658 -0.190037 0.03747 0.241954 0.0592095 -0.179517 -0.145957 0.251688 -0.200913 -0.120658
internal_weight=0 651.371 576.376 596.727 522.162 61.991 534.736 24.397 500.175 25.294 54.2146 21.987 474.881 510.339 34.1377
internal_count=10560 4151 3301 6409 2733 424 5985 193 2504 156 568 229 2348 5792 363
is_linear=0
shrinkage=0.2


Tree=84
num_leaves=1
num_cat=0
split_feature=
split_gain=
threshold=
decision_type=
left_child=
right_child=
leaf_value=0
leaf_weight=0
leaf_count=0
internal_value=
internal_weight=
internal_count=
is_linear=0
shrinkage=1


Tree=85
num_leaves=16
num_cat=0
split_feature=91 89 18 97 89 75 97 15 19 13 16 16 89 33 52
split_gain=649.569 129.535 36.1179 21.2243 15.3564 12.7638 15.3387 16.1409 12.6128 12.2561 12.2216 15.4863 9.89763 11.0736 8.85003
threshold=0.026711553335189823 0.0043317577801644811 32.528507232666023 0.54499816894531261 0.0019558400381356482 0.24500274658203128 0.30500030517578131 106.77083206176759 61.764705657958991 1.0000000180025095e-35 78.22552871704103 149.59389495849612 0.0065419902093708524 0.065002441406250014 0.60866627097129833
decision_type=2 2 2 2 2 2 2 2 2 2 2 2 2 2 2
left_child=1 4 3 -3 -1 6 7 -2 10 -4 -6 -12 13 14 -11
right_child=5 2 9 -5 8 -7 -8 -9 -10 12 11 -13 -14 -15 -16
leaf_value=0.22184850926372307 -0.076769880855718231 0.21772188010424598 0.20789996264542909 -0.17439033830720516 0.26511824688040608 -0.18072508118956851 -0.1984434127692527 0.41208735896709375 0.26174302941989352 0.023960624268048892 -0.056269580584900551 0.2938601755684293 -0.13442408253375901 -0.16510150512116328 0.37242005746924145
leaf_weight=355.52520427107811 6.0011388212442416 31.178521193563938 5.5417757853865615 6.7100251726806155 9.0284466147422773 428.22288039699197 10.12796515226364 4.9136624410748482 16.626095116138458 9.9607977494597453 29.183505237102509 6.1111102476716033 71.684589985758066 8.3169244453310949 4.1218265667557707
leaf_count=2164 58 191 54 104 45 6462 136 27 92 67 167 34 850 82 27
internal_value=0 0.150376 -0.0179278 0.148279 0.205947 -0.173252 -0.0211796 0.143306 0.113193 -0.0811377 0.0574706 0.00435387 -0.0981627 0.0178834 0.125951
internal_weight=0 553.989 137.514 37.8885 416.474 449.266 21.0428 10.9148 60.9492 99.6259 44.3231 35.2946 94.0841 22.3995 14.0826
internal_count=10560 3877 1375 295 2502 6683 221 85 338 1080 246 201 1026 176 94
is_linear=0
shrinkage=0.2


Tree=86
num_leaves=16
num_cat=0
split_feature=16 89 15 98 16 74 89 16 17 86 85 56 86 97 17
split_gain=661.478 183.589 26.0115 21.1363 14.2782 13.3468 10.8896 14.5037 11.0508 10.4087 12.7386 16.9573 7.72801 8.7375 6.92023
threshold=187.05112457275393 0.0019558400381356482 74.437412261962905 0.21499633789062503 80.831062316894545 0.36683784425258642 0.0072190086357295522 79.446235656738295 24.165740013122562 0.99891024827957164 0.66959300637245189 0.040000915527343757 0.96577534079551708 0.099998474121093764 44.363548278808601
decision_type=2 2 2 2 2 2 2 2 2 2 2 2 2 2 2
left_child=1 4 3 -3 -1 -2 7 14 -9 10 11 -6 -5 -14 -4
right_child=5 2 6 12 9 -7 -8 8 -10 -11 -12 -13 13 -15 -16
leaf_value=-0.20383867775635423 0.13188374394855967 -0.18512715849163106 0.12649758634196392 0.20824512549162952 0.47022373683044594 -0.19616247765348771 0.21585404070348818 -0.14392243866368751 0.18167571828862611 -0.16001824834378284 -0.12831440794919996 -0.091995736979150519 0.14797319623531527 -0.11126999983610249 -0.24354994694760582
leaf_weight=52.052113484591246 5.0217503681778899 11.738701675087212 3.1975398398935777 20.001327067613602 5.233939681202175 409.99698249995708 353.27798472344875 4.4058685377240172 77.733704321086407 12.873387366533278 6.5319183915853491 3.6370400190353394 11.914610333740713 9.2281319200992566 5.4959912002086639
leaf_count=818 27 101 20 110 40 6495 2110 22 379 185 65 39 60 50 39
internal_value=0 0.138843 0.184185 0.0515906 -0.141691 -0.192193 0.199974 0.138211 0.164211 -0.0272874 0.083646 0.239718 0.119128 0.0348218 -0.107444
internal_weight=0 577.322 496.994 52.8828 80.3284 415.019 444.111 90.8331 82.1396 28.2763 15.4029 8.87098 41.1441 21.1427 8.69353
internal_count=10560 4038 2891 321 1147 6522 2570 460 401 329 144 79 220 110 59
is_linear=0
shrinkage=0.2


Tree=87
num_leaves=1
num_cat=0
split_feature=
split_gain=
threshold=
decision_type=
left_child=
right_child=
leaf_value=0
leaf_weight=0
leaf_count=0
internal_value=
internal_weight=
internal_count=
is_linear=0
shrinkage=1


Tree=88
num_leaves=1
num_cat=0
split_feature=
split_gain=
threshold=
decision_type=
left_child=
right_child=
leaf_value=0
leaf_weight=0
leaf_count=0
internal_value=
internal_weight=
internal_count=
is_linear=0
shrinkage=1


Tree=89
num_leaves=16
num_cat=0
split_feature=18 91 16 20 89 96 20 97 85 96 18 96 74 91 97
split_gain=456.786 196.721 108.134 63.9734 51.3544 32.4698 22.85 21.3557 19.5816 47.4064 21.4147 19.2414 12.7492 10.8411 8.56784
threshold=21.109102249145511 0.040138393640518195 230.1801452636719 81.21319961547853 0.027741782367229465 1.3249969482421877 54.856231689453132 0.40000152587890631 0.71966576576232921 1.254997253417969 9.9484553337097186 1.1800003051757815 0.54307612776756298 0.16074323654174807 0.47499847412109381
decision_type=2 2 2 2 2 2 2 2 2 2 2 2 2 2 2
left_child=1 11 -2 8 6 -6 7 -4 -3 10 14 -1 -11 -7 -10
right_child=2 3 4 -5 5 13 -8 -9 9 12 -12 -13 -14 -15 -16
leaf_value=-0.18423999839663979 -0.20151243465617125 0.23148779833162789 -0.2088981484994247 -0.20465216080169502 -0.20542651652313487 0.30319260276714655 -0.19535458969387998 0.22062316945637861 -0.12219536084992265 -0.11612613706028217 -0.25175508415931541 0.2350719831587369 0.22970563509687075 -0.083664550150717082 0.24797514646236996
leaf_weight=72.861739117652178 345.06159426644444 287.19974026083946 5.0808784998953334 15.898187380284069 42.710567273199558 7.901273198425768 7.205890327692031 52.205809578299522 3.9130346179008502 4.5309086740016928 15.550450731068848 4.6572510600090018 72.367968618869781 4.5754932649433613 6.9314052164554596
leaf_count=1092 5436 1787 76 251 676 41 88 333 21 31 180 29 435 46 38
internal_value=0 0.132924 -0.144697 0.188617 0.0191146 -0.122511 0.140306 0.182528 0.204629 0.129949 -0.101317 -0.159048 0.209329 0.161324 0.114405
internal_weight=0 483.911 464.742 406.392 119.68 55.1873 64.4926 57.2867 390.494 103.294 26.3949 77.519 76.8989 12.4768 10.8444
internal_count=10560 3864 6696 2743 1260 763 497 409 2492 705 239 1121 466 87 59
is_linear=0
shrinkage=0.2


Tree=90
num_leaves=1
num_cat=0
split_feature=
split_gain=
threshold=
decision_type=
left_child=
right_child=
leaf_value=0
leaf_weight=0
leaf_count=0
internal_value=
internal_weight=
internal_count=
is_linear=0
shrinkage=1


Tree=91
num_leaves=1
num_cat=0
split_feature=
split_gain=
threshold=
decision_type=
left_child=
right_child=
leaf_value=0
leaf_weight=0
leaf_count=0
internal_value=
internal_weight=
internal_count=
is_linear=0
shrinkage=1


Tree=92
num_leaves=1
num_cat=0
split_feature=
split_gain=
threshold=
decision_type=
left_child=
right_child=
leaf_value=0
leaf_weight=0
leaf_count=0
internal_value=
internal_weight=
internal_count=
is_linear=0
shrinkage=1


Tree=93
num_leaves=1
num_cat=0
split_feature=
split_gain=
threshold=
decision_type=
left_child=
right_child=
leaf_value=0
leaf_weight=0
leaf_count=0
internal_value=
internal_weight=
internal_count=
is_linear=0
shrinkage=1


Tree=94
num_leaves=1
num_cat=0
split_feature=
split_gain=
threshold=
decision_type=
left_child=
right_child=
leaf_value=0
leaf_weight=0
leaf_count=0
internal_value=
internal_weight=
internal_count=
is_linear=0
shrinkage=1


Tree=95
num_leaves=1
num_cat=0
split_feature=
split_gain=
threshold=
decision_type=
left_child=
right_child=
leaf_value=0
leaf_weight=0
leaf_count=0
internal_value=
internal_weight=
internal_count=
is_linear=0
shrinkage=1


Tree=96
num_leaves=1
num_cat=0
split_feature=
split_gain=
threshold=
decision_type=
left_child=
right_child=
leaf_value=0
leaf_weight=0
leaf_count=0
internal_value=
internal_weight=
internal_count=
is_linear=0
shrinkage=1


Tree=97
num_leaves=1
num_cat=0
split_feature=
split_gain=
threshold=
decision_type=
left_child=
right_child=
leaf_value=0
leaf_weight=0
leaf_count=0
internal_value=
internal_weight=
internal_count=
is_linear=0
shrinkage=1


Tree=98
num_leaves=1
num_cat=0
split_feature=
split_gain=
threshold=
decision_type=
left_child=
right_child=
leaf_value=0
leaf_weight=0
leaf_count=0
internal_value=
internal_weight=
internal_count=
is_linear=0
shrinkage=1


Tree=99
num_leaves=1
num_cat=0
split_feature=
split_gain=
threshold=
decision_type=
left_child=
right_child=
leaf_value=0
leaf_weight=0
leaf_count=0
internal_value=
internal_weight=
internal_count=
is_linear=0
shrinkage=1


Tree=100
num_leaves=1
num_cat=0
split_feature=
split_gain=
threshold=
decision_type=
left_child=
right_child=
leaf_value=0
leaf_weight=0
leaf_count=0
internal_value=
internal_weight=
internal_count=
is_linear=0
shrinkage=1


Tree=101
num_leaves=1
num_cat=0
split_feature=
split_gain=
threshold=
decision_type=
left_child=
right_child=
leaf_value=0
leaf_weight=0
leaf_count=0
internal_value=
internal_weight=
internal_count=
is_linear=0
shrinkage=1


Tree=102
num_leaves=1
num_cat=0
split_feature=
split_gain=
threshold=
decision_type=
left_child=
right_child=
leaf_value=0
leaf_weight=0
leaf_count=0
internal_value=
internal_weight=
internal_count=
is_linear=0
shrinkage=1


Tree=103
num_leaves=1
num_cat=0
split_feature=
split_gain=
threshold=
decision_type=
left_child=
right_child=
leaf_value=0
leaf_weight=0
leaf_count=0
internal_value=
internal_weight=
internal_count=
is_linear=0
shrinkage=1


Tree=104
num_leaves=16
num_cat=0
split_feature=97 15 96 89 75 16 18 86 16 94 18 18 18 75 17
split_gain=472.671 164.551 128.785 78.12 58.875 39.5029 19.7168 18.9547 16.4548 15.5815 20.7962 14.4731 12.0275 11.6939 6.07181
threshold=0.45999908447265631 132.42857360839847 1.439994812011719 0.0092432750388979929 0.62000274658203136 227.03948211669925 55.568798065185554 0.96418711543083202 187.05112457275393 10.302023887634279 30.940894126892093 60.344745635986335 9.7945261001586932 0.62000274658203136 68.467742919921889
decision_type=2 2 2 2 2 2 2 2 2 2 2 2 2 2 2
left_child=4 -2 3 13 6 -6 14 -8 -5 12 -11 -4 -10 -3 -1
right_child=1 2 11 8 5 -7 7 -9 9 10 -12 -13 -14 -15 -16
leaf_value=-0.19649970502032482 -0.19102245443090948 -0.20560429168914057 -0.20602685057221973 -0.22059104885046157 -0.20527229104110922 0.20560977926697738 0.26113489505928483 -0.20692261282143556 -0.083211804401881737 -0.23924969269015525 0.1894438132035603 0.25372828520266272 0.23243473802194378 0.26119708254009399 0.10821647388333003
leaf_weight=364.64887262135744 59.375392090529203 21.258247494697574 38.697147663682699 3.4315569028258315 14.221908848732708 27.375771403312683 7.5966912657022458 6.3567306883633137 4.8914761766791335 6.7116082720458534 13.901997298002241 2.9474698156118384 376.45121619477868 2.3877243995666495 2.6345953345298758
leaf_count=5615 920 341 569 35 209 154 42 90 52 70 86 15 2338 12 12
internal_value=0 0.122724 0.162303 0.194896 -0.160797 0.0651325 -0.185449 0.0479029 0.215508 0.219231 0.049865 -0.173487 0.228386 -0.158468 -0.194314
internal_weight=0 530.054 470.678 429.034 422.835 41.5977 381.237 13.9534 405.388 401.956 20.6136 41.6446 381.343 23.646 367.283
internal_count=10560 4438 3518 2934 6122 363 5759 132 2581 2546 156 584 2390 353 5627
is_linear=0
shrinkage=0.2


Tree=105
num_leaves=1
num_cat=0
split_feature=
split_gain=
threshold=
decision_type=
left_child=
right_child=
leaf_value=0
leaf_weight=0
leaf_count=0
internal_value=
internal_weight=
internal_count=
is_linear=0
shrinkage=1


Tree=106
num_leaves=16
num_cat=0
split_feature=91 89 18 16 19 74 95 15 97 70 15 2 90 20 16
split_gain=417.142 83.2423 31.6846 24.8009 11.8719 19.1669 18.3855 12.4738 10.9693 20.2027 26.1086 10.8446 13.8637 9.32071 17.2231
threshold=0.031402140855789192 0.0019558400381356482 22.138760566711429 79.446235656738295 29.607842445373539 1.0349970459938052 2.867286324501038 73.618179321289077 0.30500030517578131 0.042653828859329231 138.05429840087893 0.98306977748870861 0.010175595525652172 32.794218063354499 164.27771759033206
decision_type=2 2 2 2 2 2 2 2 2 2 2 2 2 2 2
left_child=1 -1 -3 11 5 -5 -7 -6 9 10 -2 -4 -13 14 -11
right_child=8 2 3 4 7 6 -8 -9 -10 13 -12 12 -14 -15 -16
leaf_value=0.20168423863603757 -0.11613267246343453 0.23085656294526255 0.34126121311617941 -0.11149743838643505 0.15264857849174931 -0.21335706859269885 0.35598730205942825 -0.11409156080277405 -0.18604473698218077 -0.19994635399799185 0.37965341772194394 0.18404944930770023 -0.10292429555625014 -0.17528620422688598 0.55071064912425927
leaf_weight=273.05199407041073 10.269303802400829 25.650660011917353 7.8893475532531729 12.825693126767876 7.6844095364212981 2.9045091718435279 10.364891611039637 80.221969958394766 243.59603873640299 2.9844819828867903 7.2469382919371119 17.974706672132019 10.767431590706108 59.5819425098598 2.0710128620266914
leaf_count=2173 170 198 43 151 42 34 88 1078 5044 63 45 105 92 1207 27
internal_value=0 0.132517 0.0253816 -0.00960787 -0.0556098 0.0628486 0.231365 -0.0907742 -0.164731 -0.101534 0.0889873 0.133555 0.0765428 -0.153164 0.107565
internal_weight=0 449.336 176.284 150.633 114.001 26.0951 13.2694 87.9064 325.75 82.1537 17.5162 36.6315 28.7421 64.6374 5.05549
internal_count=10560 4004 1831 1633 1393 273 122 1120 6556 1512 215 240 197 1297 90
is_linear=0
shrinkage=0.2


Tree=107
num_leaves=16
num_cat=0
split_feature=16 84 16 98 96 18 18 67 35 16 23 50 20 15 17
split_gain=428.998 106.802 27.2825 15.4095 15.0805 17.8372 15.8648 10.9442 14.1988 8.3962 9.2839 8.42898 5.93368 5.39203 7.40435
threshold=173.69386291503909 0.064162980765104308 77.773185729980483 0.24500274658203128 0.63500213623046886 21.805776596069339 53.356918334960945 0.78892582654953014 0.12000274658203126 149.59389495849612 0.92736220359802257 0.58374297618865978 63.994964599609382 73.618179321289077 28.805466651916507
decision_type=2 2 2 2 2 2 2 2 2 2 2 2 2 2 2
left_child=1 -1 3 -3 5 -4 9 -2 -9 10 11 -7 -5 14 -12
right_child=7 2 4 12 -6 6 -8 8 -10 -11 13 -13 -14 -15 -16
leaf_value=-0.15748591186421368 -0.18971175352243874 -0.20417442229998933 -0.23283599451043277 0.11255297179569633 0.20943769488877673 0.099534034113567815 -0.26392675833940549 -0.18040200418937341 0.27441941920254487 -0.088032515798652608 0.2235274000725721 -0.32985210177344521 -0.17938516172907357 0.1809969907451317 -0.12980498647217903
leaf_weight=48.445679992437363 296.23503373377025 11.086474847048519 5.2955735400319091 22.987156759947542 204.14917055517435 5.2505287155508977 3.7941467612981787 6.5187765993177873 4.743323240429163 5.715220045298337 4.2438469454646093 2.8059651181101799 3.1687404513359061 134.06413892284036 5.379633542150259
leaf_count=975 6454 173 49 135 1596 33 26 76 34 37 20 20 26 877 29
internal_value=0 0.123267 0.156608 -0.00657119 0.173002 0.128341 0.140202 -0.182355 0.0111577 0.14994 0.158903 -0.0500152 0.0771852 0.170617 0.0260106
internal_weight=0 456.386 407.941 37.2424 370.698 166.549 161.253 307.497 11.2621 157.459 151.744 8.05649 26.1559 143.688 9.62348
internal_count=10560 3996 3021 334 2687 1091 1042 6564 110 1016 979 53 161 926 49
is_linear=0
shrinkage=0.2


Tree=108
num_leaves=1
num_cat=0
split_feature=
split_gain=
threshold=
decision_type=
left_child=
right_child=
leaf_value=0
leaf_weight=0
leaf_count=0
internal_value=
internal_weight=
internal_count=
is_linear=0
shrinkage=1


Tree=109
num_leaves=1
num_cat=0
split_feature=
split_gain=
threshold=
decision_type=
left_child=
right_child=
leaf_value=0
leaf_weight=0
leaf_count=0
internal_value=
internal_weight=
internal_count=
is_linear=0
shrinkage=1


Tree=110
num_leaves=16
num_cat=0
split_feature=18 91 16 20 18 70 94 70 84 96 18 16 96 74 20
split_gain=302.177 124.499 78.1291 41.5606 34.1144 33.8785 21.5128 20.0085 15.3609 38.8125 18.2194 16.9745 12.9057 8.45058 5.57065
threshold=21.109102249145511 0.040138393640518195 230.1801452636719 81.21319961547853 50.076042175292976 0.10048720240592958 10.302023887634279 0.042653828859329231 0.11870319023728372 1.254997253417969 9.9484553337097186 297.69439697265631 1.1800003051757815 0.49214561283588415 78.213470458984389
decision_type=2 2 2 2 2 2 2 2 2 2 2 2 2 2 2
left_child=1 12 -2 8 5 7 -7 -4 -3 10 11 -10 14 -11 -1
right_child=2 3 4 -5 -6 6 -8 -9 9 13 -12 -13 -14 -15 -16
leaf_value=-0.19439093555782286 -0.19672667755047724 0.21920218756895868 -0.20468770093743408 -0.20116420062781157 -0.20210520886091743 -0.20566694825558474 0.1986993682813589 0.23887560696604482 0.21992210064513845 -0.091090524874756607 -0.26461556456837654 -0.32990531043489613 0.22088000742483832 0.20907891085468441 0.018269978422339291
leaf_weight=48.377768043428659 251.46965171955526 196.94784285128117 4.5341085083782664 11.475172359496353 21.42596297711134 18.995415396988395 7.2794447243213645 39.556523535400629 8.8893641978502291 3.9571669772267333 12.525531973689793 3.005273036658763 3.5517114177346221 72.209426142275333 5.4858015216886988
leaf_count=974 5436 1631 90 251 447 360 53 310 63 29 183 17 29 569 118
internal_value=0 0.12207 -0.139079 0.172322 0.0188515 0.0861318 -0.0936373 0.193261 0.186726 0.123138 -0.0962704 0.0810039 -0.148383 0.193484 -0.172732
internal_weight=0 366.425 343.261 309.01 91.7915 70.3655 26.2749 44.0906 297.535 100.587 24.4202 11.8946 57.4153 76.1666 53.8636
internal_count=10560 3864 6696 2743 1260 813 413 400 2492 861 263 80 1121 598 1092
is_linear=0
shrinkage=0.2


Tree=111
num_leaves=1
num_cat=0
split_feature=
split_gain=
threshold=
decision_type=
left_child=
right_child=
leaf_value=0
leaf_weight=0
leaf_count=0
internal_value=
internal_weight=
internal_count=
is_linear=0
shrinkage=1


Tree=112
num_leaves=1
num_cat=0
split_feature=
split_gain=
threshold=
decision_type=
left_child=
right_child=
leaf_value=0
leaf_weight=0
leaf_count=0
internal_value=
internal_weight=
internal_count=
is_linear=0
shrinkage=1


Tree=113
num_leaves=1
num_cat=0
split_feature=
split_gain=
threshold=
decision_type=
left_child=
right_child=
leaf_value=0
leaf_weight=0
leaf_count=0
internal_value=
internal_weight=
internal_count=
is_linear=0
shrinkage=1


Tree=114
num_leaves=1
num_cat=0
split_feature=
split_gain=
threshold=
decision_type=
left_child=
right_child=
leaf_value=0
leaf_weight=0
leaf_count=0
internal_value=
internal_weight=
internal_count=
is_linear=0
shrinkage=1


Tree=115
num_leaves=1
num_cat=0
split_feature=
split_gain=
threshold=
decision_type=
left_child=
right_child=
leaf_value=0
leaf_weight=0
leaf_count=0
internal_value=
internal_weight=
internal_count=
is_linear=0
shrinkage=1


Tree=116
num_leaves=1
num_cat=0
split_feature=
split_gain=
threshold=
decision_type=
left_child=
right_child=
leaf_value=0
leaf_weight=0
leaf_count=0
internal_value=
internal_weight=
internal_count=
is_linear=0
shrinkage=1


Tree=117
num_leaves=1
num_cat=0
split_feature=
split_gain=
threshold=
decision_type=
left_child=
right_child=
leaf_value=0
leaf_weight=0
leaf_count=0
internal_value=
internal_weight=
internal_count=
is_linear=0
shrinkage=1


Tree=118
num_leaves=1
num_cat=0
split_feature=
split_gain=
threshold=
decision_type=
left_child=
right_child=
leaf_value=0
leaf_weight=0
leaf_count=0
internal_value=
internal_weight=
internal_count=
is_linear=0
shrinkage=1


Tree=119
num_leaves=1
num_cat=0
split_feature=
split_gain=
threshold=
decision_type=
left_child=
right_child=
leaf_value=0
leaf_weight=0
leaf_count=0
internal_value=
internal_weight=
internal_count=
is_linear=0
shrinkage=1


Tree=120
num_leaves=1
num_cat=0
split_feature=
split_gain=
threshold=
decision_type=
left_child=
right_child=
leaf_value=0
leaf_weight=0
leaf_count=0
internal_value=
internal_weight=
internal_count=
is_linear=0
shrinkage=1


Tree=121
num_leaves=1
num_cat=0
split_feature=
split_gain=
threshold=
decision_type=
left_child=
right_child=
leaf_value=0
leaf_weight=0
leaf_count=0
internal_value=
internal_weight=
internal_count=
is_linear=0
shrinkage=1


Tree=122
num_leaves=1
num_cat=0
split_feature=
split_gain=
threshold=
decision_type=
left_child=
right_child=
leaf_value=0
leaf_weight=0
leaf_count=0
internal_value=
internal_weight=
internal_count=
is_linear=0
shrinkage=1


Tree=123
num_leaves=1
num_cat=0
split_feature=
split_gain=
threshold=
decision_type=
left_child=
right_child=
leaf_value=0
leaf_weight=0
leaf_count=0
internal_value=
internal_weight=
internal_count=
is_linear=0
shrinkage=1


Tree=124
num_leaves=1
num_cat=0
split_feature=
split_gain=
threshold=
decision_type=
left_child=
right_child=
leaf_value=0
leaf_weight=0
leaf_count=0
internal_value=
internal_weight=
internal_count=
is_linear=0
shrinkage=1


Tree=125
num_leaves=16
num_cat=0
split_feature=89 16 96 70 97 16 94 96 18 18 18 63 26 96 91
split_gain=322.374 187.686 102.77 56.2619 23.0236 19.9385 10.3464 14.4204 10.0955 7.39585 3.56732 8.25632 3.00529 2.70866 2.2779
threshold=0.021817007102072242 187.05112457275393 1.439994812011719 0.13626563549041751 0.11499786376953126 221.51513671875003 10.302023887634279 1.3050079345703127 60.685174942016609 60.344745635986335 9.7945261001586932 0.18145500123500827 0.0032872266601771121 0.91500091552734386 0.0039960145950317391
decision_type=2 2 2 2 2 2 2 2 2 2 2 2 2 2 2
left_child=3 14 4 8 13 -5 10 -8 -1 -4 11 -6 -7 -3 -2
right_child=1 2 9 5 6 12 7 -9 -10 -11 -12 -13 -14 -15 -16
leaf_value=-0.19842903864446998 0.033122993967691354 -0.30550801279704426 -0.20210866142703057 -0.20065842052322247 -0.2081751580831194 0.009092162963544868 0.23550977736776946 -0.1797035123679398 0.21967601844362436 0.23085681133197961 0.21921920726726879 0.23038583073029298 0.21994410879639067 -0.03526554962592017 -0.20022273109186869
leaf_weight=261.00997988879681 1.7162174060940731 3.3751613050699225 29.631033957004551 6.824425175786021 2.6060216166079035 3.1495864354074028 6.9675201997160894 6.4365564435720444 2.3306572660803786 1.6669027507305134 293.56433204188943 5.0336638800799847 19.107933524996042 2.6471298523247242 67.041787203401327
leaf_count=5537 37 26 555 143 42 30 52 82 16 11 2375 36 151 21 1446
internal_value=0 0.107828 0.166875 -0.165576 0.200642 0.0984094 0.208057 0.0361269 -0.194729 -0.179049 0.215708 0.0807855 0.190107 -0.186722 -0.194398
internal_weight=0 420.686 351.928 292.423 320.63 29.0819 314.608 13.4041 263.341 31.2979 301.204 7.63969 22.2575 6.02229 68.758
internal_count=10560 4683 3200 5877 2634 324 2587 134 5553 566 2453 78 181 47 1483
is_linear=0
shrinkage=0.2


Tree=126
num_leaves=1
num_cat=0
split_feature=
split_gain=
threshold=
decision_type=
left_child=
right_child=
leaf_value=0
leaf_weight=0
leaf_count=0
internal_value=
internal_weight=
internal_count=
is_linear=0
shrinkage=1


Tree=127
num_leaves=16
num_cat=0
split_feature=91 89 17 95 97 97 18 32 97 90 15 96 10 84 19
split_gain=263.135 53.896 21.6693 18.276 13.3201 14.0605 11.3209 9.70808 9.45119 18.2254 24.7383 9.63432 24.6035 8.87838 7.41048
threshold=0.03277364373207093 0.0065419902093708524 34.843597412109382 3.0610979795455937 0.54499816894531261 0.35499572753906256 30.696969985961918 0.14598898589611056 0.30500030517578131 0.0082605094648897665 121.20000076293947 1.0550003051757815 0.06338007748126985 0.064162980765104308 62.15686225891114
decision_type=2 2 2 2 2 2 2 2 2 2 2 2 2 2 2
left_child=1 3 4 13 5 -3 -4 -8 9 -2 -11 12 -12 -1 -15
right_child=8 2 6 -5 -6 -7 7 -9 -10 10 11 -13 -14 14 -16
leaf_value=0.16972658386632936 -0.19247801745081353 0.11440796268678664 0.42974363045175762 0.17800300960411242 -0.16678467479330847 0.59926535499173395 -0.13723259216467446 0.47143206335765014 -0.17701094567126305 -0.1448328948559171 5.655827072341439 -0.10847692359149307 0.28119301671240415 -0.1298529898897284 0.22297895385545607
leaf_weight=8.7812773138284701 31.921622969210148 24.493291530758146 1.525295678526162 246.95948960632086 6.032832119613885 2.6513618603348723 47.09982399828732 1.0720409601926792 175.65556343086064 16.398093504831198 0.034170851111411049 2.9424037113785735 11.431788392364977 15.363787341862919 2.8177529871463767
leaf_count=90 895 224 16 2490 146 31 863 18 5030 402 1 51 134 141 28
internal_value=0 0.118178 -0.0231414 0.160933 0.102024 0.161767 -0.106701 -0.123687 -0.153213 -0.0865732 0.0231652 0.214363 0.297211 0.00458714 -0.0751715
internal_weight=0 356.797 82.8746 273.922 33.1775 27.1447 49.6972 48.1719 238.384 62.7281 30.8065 14.4084 11.466 26.9628 18.1815
internal_count=10560 4047 1298 2749 401 255 897 881 6513 1483 588 186 135 259 169
is_linear=0
shrinkage=0.2


Tree=128
num_leaves=16
num_cat=0
split_feature=16 84 96 19 18 15 15 20 67 16 22 98 16 63 86
split_gain=278.088 62.4501 21.2457 22.6809 15.797 9.25326 9.22783 16.5377 8.70964 12.0765 7.07303 6.45011 5.94724 10.3947 18.1513
threshold=194.29197692871097 0.064162980765104308 0.63500213623046886 61.372549057006843 53.976566314697273 58.516485214233406 121.20000076293947 21.412661552429203 0.78892582654953014 222.24831390380862 0.82890784740448009 0.15499877929687503 80.831062316894545 0.055078100413084037 0.99891024827957164
decision_type=2 2 2 2 2 2 2 2 2 2 10 2 2 2 2
left_child=1 12 3 4 5 -3 10 11 -2 -10 -7 -8 -1 14 -14
right_child=8 2 -4 -5 -6 6 7 -9 9 -11 -12 -13 13 -15 -16
leaf_value=-0.19720283169381486 -0.18779159763730144 -0.25772324681526593 0.18289055321818654 -0.11687441999086341 -0.37532391861071207 0.15395893897729307 -0.090712911639901972 -0.32497728853731178 0.27631203017899952 -0.19745840126230421 -0.14638009602181989 0.22162260212918328 0.729585960684071 -0.17786467597179886 -0.076974806615250108
leaf_weight=24.614845015108585 207.61883679032326 2.5567296110093585 170.34126349911094 20.15736074373126 2.6328626833856097 115.70152439363301 4.0224063247442263 4.8304521068930617 3.9257813245058042 4.7634530644863844 3.2238676622509947 7.7219917494803667 1.6867679692804793 7.3838579207658768 3.298747044056654
leaf_count=729 6376 21 1738 233 20 931 29 35 27 77 22 58 21 156 87
internal_value=0 0.106141 0.133667 0.0815375 0.109965 0.11922 0.126332 -0.0134724 -0.179581 0.0165903 0.145817 0.114649 -0.14035 -0.0272128 0.195912
internal_weight=0 368.173 331.188 160.847 140.69 138.057 135.5 16.5749 216.308 8.68923 118.925 11.7444 36.9842 12.3694 4.98552
internal_count=10560 4080 3087 1349 1116 1096 1075 122 6480 104 953 87 993 264 108
is_linear=0
shrinkage=0.2


Tree=129
num_leaves=1
num_cat=0
split_feature=
split_gain=
threshold=
decision_type=
left_child=
right_child=
leaf_value=0
leaf_weight=0
leaf_count=0
internal_value=
internal_weight=
internal_count=
is_linear=0
shrinkage=1


Tree=130
num_leaves=1
num_cat=0
split_feature=
split_gain=
threshold=
decision_type=
left_child=
right_child=
leaf_value=0
leaf_weight=0
leaf_count=0
internal_value=
internal_weight=
internal_count=
is_linear=0
shrinkage=1


Tree=131
num_leaves=16
num_cat=0
split_feature=18 91 16 20 96 89 84 96 18 16 70 70 96 77 21
split_gain=204.253 78.5674 54.2664 27.1588 23.207 26.1674 12.6202 27.4653 13.2619 11.1938 10.7224 9.33235 9.25057 7.32916 6.61575
threshold=21.109102249145511 0.040138393640518195 230.1801452636719 81.21319961547853 1.439994812011719 0.015579869505017998 0.11870319023728372 1.254997253417969 9.9484553337097186 297.69439697265631 0.10534006357192995 0.042653828859329231 1.1800003051757815 0.63500213623046886 0.049064654856920249
decision_type=2 2 2 2 2 2 2 2 2 2 2 2 2 2 2
left_child=1 12 -2 6 5 10 -3 8 9 -8 11 -4 14 -7 -1
right_child=2 3 4 -5 -6 13 7 -9 -10 -11 -12 -13 -14 -15 -16
leaf_value=0.032674369803861694 -0.1925197339236592 0.20880157647068068 -0.19706492187026642 -0.19845018365624834 0.24562673208276459 -0.19451290168463337 0.20439474436646196 0.17647328598960615 -0.26698044599037124 -0.29046475807911537 -0.29170682682836618 0.20880721249613998 0.21398791830755168 0.17443305060657247 -0.19398610315570608
leaf_weight=6.0777179468423119 182.39240378513932 144.76265743374825 2.5786426682025256 8.117042647674678 14.069321125745772 27.905790762975816 6.6996594965457934 58.098019473254681 9.550796411931513 2.5147055052220821 2.3370018936693659 18.694226503372192 2.8429899513721457 2.3338397033512583 33.780020982027054
leaf_count=176 5436 1631 80 251 127 793 63 598 183 17 32 209 29 19 916
internal_value=0 0.114562 -0.135694 0.160865 0.0169095 -0.0428477 0.174025 0.108528 -0.101834 0.0693419 0.114935 0.159608 -0.134562 -0.166038 -0.159424
internal_weight=0 272.444 250.311 229.743 67.9188 53.8495 221.626 76.8632 18.7652 9.21437 23.6099 21.2729 42.7007 30.2396 39.8577
internal_count=10560 3864 6696 2743 1260 1133 2492 861 263 80 321 289 1121 812 1092
is_linear=0
shrinkage=0.2


Tree=132
num_leaves=1
num_cat=0
split_feature=
split_gain=
threshold=
decision_type=
left_child=
right_child=
leaf_value=0
leaf_weight=0
leaf_count=0
internal_value=
internal_weight=
internal_count=
is_linear=0
shrinkage=1


Tree=133
num_leaves=1
num_cat=0
split_feature=
split_gain=
threshold=
decision_type=
left_child=
right_child=
leaf_value=0
leaf_weight=0
leaf_count=0
internal_value=
internal_weight=
internal_count=
is_linear=0
shrinkage=1


Tree=134
num_leaves=1
num_cat=0
split_feature=
split_gain=
threshold=
decision_type=
left_child=
right_child=
leaf_value=0
leaf_weight=0
leaf_count=0
internal_value=
internal_weight=
internal_count=
is_linear=0
shrinkage=1


Tree=135
num_leaves=1
num_cat=0
split_feature=
split_gain=
threshold=
decision_type=
left_child=
right_child=
leaf_value=0
leaf_weight=0
leaf_count=0
internal_value=
internal_weight=
internal_count=
is_linear=0
shrinkage=1


Tree=136
num_leaves=1
num_cat=0
split_feature=
split_gain=
threshold=
decision_type=
left_child=
right_child=
leaf_value=0
leaf_weight=0
leaf_count=0
internal_value=
internal_weight=
internal_count=
is_linear=0
shrinkage=1


Tree=137
num_leaves=1
num_cat=0
split_feature=
split_gain=
threshold=
decision_type=
left_child=
right_child=
leaf_value=0
leaf_weight=0
leaf_count=0
internal_value=
internal_weight=
internal_count=
is_linear=0
shrinkage=1


Tree=138
num_leaves=1
num_cat=0
split_feature=
split_gain=
threshold=
decision_type=
left_child=
right_child=
leaf_value=0
leaf_weight=0
leaf_count=0
internal_value=
internal_weight=
internal_count=
is_linear=0
shrinkage=1


Tree=139
num_leaves=1
num_cat=0
split_feature=
split_gain=
threshold=
decision_type=
left_child=
right_child=
leaf_value=0
leaf_weight=0
leaf_count=0
internal_value=
internal_weight=
internal_count=
is_linear=0
shrinkage=1


Tree=140
num_leaves=1
num_cat=0
split_feature=
split_gain=
threshold=
decision_type=
left_child=
right_child=
leaf_value=0
leaf_weight=0
leaf_count=0
internal_value=
internal_weight=
internal_count=
is_linear=0
shrinkage=1


Tree=141
num_leaves=1
num_cat=0
split_feature=
split_gain=
threshold=
decision_type=
left_child=
right_child=
leaf_value=0
leaf_weight=0
leaf_count=0
internal_value=
internal_weight=
internal_count=
is_linear=0
shrinkage=1


Tree=142
num_leaves=1
num_cat=0
split_feature=
split_gain=
threshold=
decision_type=
left_child=
right_child=
leaf_value=0
leaf_weight=0
leaf_count=0
internal_value=
internal_weight=
internal_count=
is_linear=0
shrinkage=1


Tree=143
num_leaves=1
num_cat=0
split_feature=
split_gain=
threshold=
decision_type=
left_child=
right_child=
leaf_value=0
leaf_weight=0
leaf_count=0
internal_value=
internal_weight=
internal_count=
is_linear=0
shrinkage=1


Tree=144
num_leaves=1
num_cat=0
split_feature=
split_gain=
threshold=
decision_type=
left_child=
right_child=
leaf_value=0
leaf_weight=0
leaf_count=0
internal_value=
internal_weight=
internal_count=
is_linear=0
shrinkage=1


Tree=145
num_leaves=1
num_cat=0
split_feature=
split_gain=
threshold=
decision_type=
left_child=
right_child=
leaf_value=0
leaf_weight=0
leaf_count=0
internal_value=
internal_weight=
internal_count=
is_linear=0
shrinkage=1


Tree=146
num_leaves=16
num_cat=0
split_feature=97 16 96 89 75 16 18 16 94 18 98 18 18 75 7
split_gain=218.74 75.4559 59.9613 51.7867 21.2028 17.6365 8.22602 9.87636 7.96415 12.4658 9.06044 6.79231 6.63917 6.0327 3.91946
threshold=0.43000030517578131 187.05112457275393 1.439994812011719 0.0092432750388979929 0.60499572753906261 247.70401000976565 54.849479675292976 264.86479187011724 9.3661813735961932 27.979025840759281 0.54999542236328136 9.7945261001586932 60.344745635986335 0.62000274658203136 0.61431905627250682
decision_type=2 2 2 2 2 2 2 2 2 2 2 2 2 2 2
left_child=4 -2 3 13 6 -6 -1 -8 11 -10 -11 14 -4 -3 -5
right_child=1 2 12 8 5 -7 7 -9 9 10 -12 -13 -14 -15 -16
leaf_value=-0.18848514707489361 -0.18537226132484605 -0.19994379173895768 -0.19455923425935101 -0.1993356333635716 -0.14804763052726563 0.2043214479785648 -0.19897726009148772 0.23564390406954547 -0.22594251569665247 0.21341697353693823 -0.15551954505839691 0.20852651247962362 0.21695175502655639 0.22220397583459373 0.23239406454995765
leaf_weight=187.75638412684202 32.416856493800879 16.125929249450568 22.191737590357665 2.6020076386630531 11.624382294714453 11.113777376711367 4.2643963601440174 4.1042331829667091 4.3316785208880928 15.589025743305685 3.2110457867383948 205.42769737355411 1.6874838471412648 1.478197470307349 1.242914170026779
leaf_count=5373 944 513 601 64 243 92 115 35 75 166 26 2277 15 12 9
internal_value=0 0.103164 0.137315 0.166236 -0.158642 0.0241805 -0.179838 0.0141743 0.191288 0.0799279 0.150403 0.203597 -0.165479 -0.164497 -0.0597742
internal_weight=0 306.305 273.888 250.008 218.863 22.7382 196.125 8.36863 232.404 23.1318 18.8001 209.273 23.8792 17.6041 3.84492
internal_count=10560 4702 3758 3142 5858 335 5523 150 2617 267 192 2350 616 525 73
is_linear=0
shrinkage=0.2


Tree=147
num_leaves=1
num_cat=0
split_feature=
split_gain=
threshold=
decision_type=
left_child=
right_child=
leaf_value=0
leaf_weight=0
leaf_count=0
internal_value=
internal_weight=
internal_count=
is_linear=0
shrinkage=1


Tree=148
num_leaves=16
num_cat=0
split_feature=91 89 18 97 92 95 16 19 74 2 16 20 97 90 15
split_gain=163.813 37.2079 13.257 11.5379 9.07079 8.26258 11.0203 10.9072 10.7531 10.4105 13.3365 8.45524 7.99679 13.638 9.80704
threshold=0.03277364373207093 0.0019558400381356482 22.138760566711429 0.38500213623046881 -4.3324668407440177 2.9181088209152226 82.734546661376967 29.607842445373539 1.0349970459938052 0.97782072424888622 89.07153701782228 60.03437805175782 0.30500030517578131 0.0067065204493701467 106.77083206176759
decision_type=2 2 2 2 2 2 2 2 2 2 2 2 2 2 2
left_child=1 -1 -3 4 -4 6 -6 8 -7 10 -9 -11 13 -2 -15
right_child=12 2 3 -5 5 7 -8 9 -10 11 -12 -13 -14 14 -16
leaf_value=0.17025732116709189 -0.19617559416314326 0.18636072063554501 -0.14654226819938559 -0.15697469446163126 0.32994203491200791 -0.013418966522674195 -0.14397626107727612 0.35487457744474532 0.39488035935502075 -0.049399358894185508 -0.050544821011235523 0.1405220619446936 -0.16672553205595841 -0.12168274684107105 0.11441142088784587
leaf_weight=155.33504183962941 20.701322043314576 18.035258550196886 10.775205342099069 15.770647389814256 2.2717854529619244 3.917386716231702 14.424070317298172 8.3647111281752569 7.5579590834677219 36.020672589540482 5.3033262323588124 12.676120657473801 128.01833416335285 12.035893009975554 16.946810699999332
leaf_count=2173 833 201 140 439 18 58 240 70 62 448 98 100 5030 377 273
internal_value=0 0.103495 0.0267431 0.00215563 0.0269267 0.0475722 -0.0794908 0.0763022 0.255498 0.0433296 0.197568 3.85339e-05 -0.140295 -0.0721911 0.0163666
internal_weight=0 290.452 135.117 117.082 101.311 90.536 16.6959 73.8402 11.4753 62.3648 13.668 48.6968 177.702 49.684 28.9827
internal_count=10560 4047 1874 1673 1234 1094 258 836 120 716 168 548 6513 1483 650
is_linear=0
shrinkage=0.2


Tree=149
num_leaves=16
num_cat=0
split_feature=16 16 96 16 18 89 18 86 52 20 68 44 70 10 17
split_gain=182.955 39.2789 18.2104 18.9767 14.9929 14.5962 9.53181 8.23501 7.51287 6.91649 23.2562 9.88218 7.8616 10.7924 6.00008
threshold=210.3037033081055 78.22552871704103 0.69499969482421886 155.19482421875003 53.976566314697273 0.0043317577801644811 20.044004440307621 0.97040468454360973 0.48567695915699011 49.767232894897468 0.0039518349803984174 0.97722283005714428 0.063780128955841078 0.088600307703018202 52.861692428588874
decision_type=2 2 2 2 2 2 2 2 2 2 2 2 2 2 2
left_child=1 5 3 4 6 -1 -3 -5 -7 10 11 -8 -12 -14 -11
right_child=-2 2 -4 7 -6 8 9 -9 -10 14 12 -13 13 -15 -16
leaf_value=-0.19853325322763704 -0.17957538296994952 -0.22679905059972749 0.1794963991284878 -0.73065956704839974 -0.28502093378208843 -0.11023967957477401 0.21441651772128154 -0.12783247287806304 0.12549133296949425 0.16687027679099811 0.16945517801837603 -0.28314153770274014 0.21497637925869795 -0.37924313227749262 0.0044940039737392211
leaf_weight=22.148185603320599 149.00152193009853 3.3842012137174597 114.74810466170311 1.0015573948621739 4.0694962572306386 9.072338595986368 1.9242698065936554 9.5443846620619279 13.389071732759474 74.628620024770498 30.244416005909443 9.3798564542084915 2.2828641608357421 2.6324001178145409 10.367277355864642
leaf_count=788 6270 63 1655 5 78 70 17 176 108 716 303 137 24 24 126
internal_value=0 0.0902627 0.119572 0.0735643 0.0932001 -0.0833245 0.104615 -0.185083 0.0302777 0.113146 0.0510996 -0.198444 0.13133 -0.103262 0.147065
internal_weight=0 308.817 264.207 149.459 138.913 44.6096 134.844 10.5459 22.4614 131.46 46.4638 11.3041 35.1597 4.91526 84.9959
internal_count=10560 4290 3324 1669 1488 966 1410 181 178 1347 505 154 351 48 842
is_linear=0
shrinkage=0.2


Tree=150
num_leaves=1
num_cat=0
split_feature=
split_gain=
threshold=
decision_type=
left_child=
right_child=
leaf_value=0
leaf_weight=0
leaf_count=0
internal_value=
internal_weight=
internal_count=
is_linear=0
shrinkage=1


Tree=151
num_leaves=1
num_cat=0
split_feature=
split_gain=
threshold=
decision_type=
left_child=
right_child=
leaf_value=0
leaf_weight=0
leaf_count=0
internal_value=
internal_weight=
internal_count=
is_linear=0
shrinkage=1


Tree=152
num_leaves=16
num_cat=0
split_feature=18 70 16 85 96 96 89 97 70 20 23 74 70 77 18
split_gain=138.091 51.2511 37.5139 19.8006 20.6473 15.7739 17.0128 12.3669 8.55801 7.6725 41.6642 6.72659 6.38375 5.53772 5.45093
threshold=21.109102249145511 0.031773209571838386 230.1801452636719 0.71966576576232921 1.1800003051757815 1.439994812011719 0.015579869505017998 1.194999694824219 0.10534006357192995 78.213470458984389 0.9993225932121278 0.44979922473430639 0.042653828859329231 0.54000091552734386 17.325075149536136
decision_type=2 2 2 2 2 2 2 2 2 2 2 2 2 2 2
left_child=1 7 -2 -3 -5 6 8 9 12 -1 -11 -6 -4 -8 -13
right_child=2 3 5 4 11 -7 13 -9 -10 10 -12 14 -14 -15 -16
leaf_value=-0.19663372434670889 -0.1887394141370716 0.19902896002516235 -0.19523251999290081 -0.16469306999658875 -0.19290829357992184 0.23153311527681428 -0.19841377245561698 0.20481098569990361 -0.30867092783594952 -0.21067705819828128 1.4846705944561358 0.17203448587551351 0.19892742608086633 0.10605415230452808 -0.083839258899639058
leaf_weight=26.728406710550193 133.28022919083014 114.7154424265027 1.8671132475137735 13.299874601885675 2.505537834018468 10.561605196446179 19.259375421330336 4.2643725350499144 1.8014366216957558 3.097184587270021 0.71339465677738179 32.613144313916564 13.728368930518625 2.7279640715569249 3.7090092096477738
leaf_count=973 5436 1771 80 377 22 127 772 63 32 84 20 459 209 40 95
internal_value=0 0.106533 -0.133341 0.152584 0.0503743 0.0144902 -0.0437138 -0.114232 0.104063 -0.158782 0.106716 0.124043 0.151738 -0.160639 0.145906
internal_weight=0 201.646 183.226 166.843 52.1276 49.9459 39.3843 34.8034 17.3969 30.539 3.81058 38.8277 15.5955 21.9873 36.3222
internal_count=10560 3864 6696 2724 953 1260 1133 1140 321 1077 104 576 289 812 554
is_linear=0
shrinkage=0.2


Tree=153
num_leaves=1
num_cat=0
split_feature=
split_gain=
threshold=
decision_type=
left_child=
right_child=
leaf_value=0
leaf_weight=0
leaf_count=0
internal_value=
internal_weight=
internal_count=
is_linear=0
shrinkage=1


Tree=154
num_leaves=1
num_cat=0
split_feature=
split_gain=
threshold=
decision_type=
left_child=
right_child=
leaf_value=0
leaf_weight=0
leaf_count=0
internal_value=
internal_weight=
internal_count=
is_linear=0
shrinkage=1


Tree=155
num_leaves=1
num_cat=0
split_feature=
split_gain=
threshold=
decision_type=
left_child=
right_child=
leaf_value=0
leaf_weight=0
leaf_count=0
internal_value=
internal_weight=
internal_count=
is_linear=0
shrinkage=1


Tree=156
num_leaves=1
num_cat=0
split_feature=
split_gain=
threshold=
decision_type=
left_child=
right_child=
leaf_value=0
leaf_weight=0
leaf_count=0
internal_value=
internal_weight=
internal_count=
is_linear=0
shrinkage=1


Tree=157
num_leaves=1
num_cat=0
split_feature=
split_gain=
threshold=
decision_type=
left_child=
right_child=
leaf_value=0
leaf_weight=0
leaf_count=0
internal_value=
internal_weight=
internal_count=
is_linear=0
shrinkage=1


Tree=158
num_leaves=1
num_cat=0
split_feature=
split_gain=
threshold=
decision_type=
left_child=
right_child=
leaf_value=0
leaf_weight=0
leaf_count=0
internal_value=
internal_weight=
internal_count=
is_linear=0
shrinkage=1


Tree=159
num_leaves=1
num_cat=0
split_feature=
split_gain=
threshold=
decision_type=
left_child=
right_child=
leaf_value=0
leaf_weight=0
leaf_count=0
internal_value=
internal_weight=
internal_count=
is_linear=0
shrinkage=1


Tree=160
num_leaves=1
num_cat=0
split_feature=
split_gain=
threshold=
decision_type=
left_child=
right_child=
leaf_value=0
leaf_weight=0
leaf_count=0
internal_value=
internal_weight=
internal_count=
is_linear=0
shrinkage=1


Tree=161
num_leaves=1
num_cat=0
split_feature=
split_gain=
threshold=
decision_type=
left_child=
right_child=
leaf_value=0
leaf_weight=0
leaf_count=0
internal_value=
internal_weight=
internal_count=
is_linear=0
shrinkage=1


Tree=162
num_leaves=1
num_cat=0
split_feature=
split_gain=
threshold=
decision_type=
left_child=
right_child=
leaf_value=0
leaf_weight=0
leaf_count=0
internal_value=
internal_weight=
internal_count=
is_linear=0
shrinkage=1


Tree=163
num_leaves=1
num_cat=0
split_feature=
split_gain=
threshold=
decision_type=
left_child=
right_child=
leaf_value=0
leaf_weight=0
leaf_count=0
internal_value=
internal_weight=
internal_count=
is_linear=0
shrinkage=1


Tree=164
num_leaves=1
num_cat=0
split_feature=
split_gain=
threshold=
decision_type=
left_child=
right_child=
leaf_value=0
leaf_weight=0
leaf_count=0
internal_value=
internal_weight=
internal_count=
is_linear=0
shrinkage=1


Tree=165
num_leaves=1
num_cat=0
split_feature=
split_gain=
threshold=
decision_type=
left_child=
right_child=
leaf_value=0
leaf_weight=0
leaf_count=0
internal_value=
internal_weight=
internal_count=
is_linear=0
shrinkage=1


Tree=166
num_leaves=1
num_cat=0
split_feature=
split_gain=
threshold=
decision_type=
left_child=
right_child=
leaf_value=0
leaf_weight=0
leaf_count=0
internal_value=
internal_weight=
internal_count=
is_linear=0
shrinkage=1


Tree=167
num_leaves=16
num_cat=0
split_feature=86 16 96 91 97 15 98 77 16 18 20 93 31 63 55
split_gain=150.158 94.0066 45.6294 20.1325 14.881 6.85732 7.18063 6.18557 15.4283 5.82736 14.1383 5.45706 5.10839 4.04063 3.47418
threshold=0.97206246852874767 187.05112457275393 1.439994812011719 0.11543396115303041 0.11499786376953126 206.01503753662112 0.83499908447265636 0.48999786376953131 223.22734069824222 17.971126556396488 70.190933227539077 -2.3745350837707515 0.44926165044307714 0.12975659221410754 0.35499572753906256
decision_type=2 2 2 2 2 2 2 2 2 2 2 2 2 2 2
left_child=1 14 4 12 -3 -5 -7 9 -9 10 -6 -10 -2 -12 -1
right_child=3 2 -4 5 7 6 -8 8 11 -11 13 -13 -14 -15 -16
leaf_value=-0.19561743243681978 -0.19581097321687779 -0.17693217441433987 -0.16817846843387541 -0.19735660398233576 -0.23079275987834574 0.20819601884449865 -0.23380866676389944 -0.43294643990277271 -0.11658343310926021 0.20951096845802836 -0.14412916219982955 0.21645232565019978 0.22815474615262815 0.21340929678001685 0.16212901678316793
leaf_weight=40.114920487860218 131.39550152979791 4.6779790986329308 16.924867950379848 3.1924654301255933 4.2235094271600273 9.0388211067765933 1.7557494658976782 2.1721041873097411 2.4891913980245581 143.19828661903739 1.3876072578132141 9.4003221504390222 1.1467159539461125 14.232408091425894 1.1160375718027342
leaf_count=1629 5311 52 576 122 80 121 55 15 32 2140 45 124 11 207 40
internal_value=0 0.0888899 0.145915 -0.16806 0.175159 0.0601473 0.136303 0.184459 0.0571853 0.195436 0.0938633 0.146728 -0.192143 0.181647 -0.185934
internal_weight=0 239.937 198.706 146.529 181.781 13.987 10.7946 177.103 14.0616 163.042 19.8435 11.8895 132.542 15.62 41.231
internal_count=10560 4940 3271 5620 2695 298 176 2643 171 2472 332 156 5322 252 1669
is_linear=0
shrinkage=0.2


Tree=168
num_leaves=1
num_cat=0
split_feature=
split_gain=
threshold=
decision_type=
left_child=
right_child=
leaf_value=0
leaf_weight=0
leaf_count=0
internal_value=
internal_weight=
internal_count=
is_linear=0
shrinkage=1


Tree=169
num_leaves=16
num_cat=0
split_feature=70 84 16 18 97 94 97 52 5 87 19 18 85 97 52
split_gain=101.125 21.8419 14.7303 13.1298 10.6823 8.51877 8.12491 7.6651 7.12534 7.64988 6.92231 6.55042 6.45532 6.11556 5.88347
threshold=0.031773209571838386 0.064162980765104308 83.184139251708999 22.138760566711429 0.37000274658203131 5.0540437698364267 0.10499572753906251 0.77983477711677562 0.0032467304263263945 0.80268403887748729 44.117647171020515 44.019844055175788 0.76050600409507763 0.80500030517578136 0.42689505219459539
decision_type=2 2 2 2 2 2 2 2 2 2 2 2 2 2 2
left_child=1 -1 12 13 5 -5 8 11 10 -10 -7 14 -2 -3 -8
right_child=2 3 -4 4 -6 6 7 -9 9 -11 -12 -13 -14 -15 -16
leaf_value=0.16715496881350178 0.26700245806754269 0.21489095394262081 -0.13200607325511945 -0.12417359687536807 -0.17040944080485348 0.22996790041187701 0.35177041324602587 0.56711889629780277 0.055305958023153391 0.51664123150743668 -0.10615566379243445 -0.012197470785512143 -0.084167195104361076 -0.19399496967387975 0.11414810408243777
leaf_weight=99.812891930341721 5.5120975412428361 19.643327871337537 138.29567121248692 11.76896336302161 11.457187084481118 2.7528142165392664 5.4843753110617426 1.5227519907057274 15.996935030445458 1.5797221511602391 22.341262444853783 11.822876021265982 3.3764144815504551 1.5809162585064758 17.363532824441791
leaf_count=1923 72 252 6416 178 501 36 53 21 224 16 258 193 125 88 204
internal_value=0 0.0976025 -0.115966 0.0413056 0.0115496 0.0345515 0.0582382 0.127941 -0.000883913 0.096769 -0.069283 0.108652 0.133606 0.184435 0.171187
internal_weight=0 223.128 147.184 123.315 102.09 90.6332 78.8643 36.1935 42.6707 17.5767 25.0941 34.6708 8.88851 21.2242 22.8479
internal_count=10560 3947 6613 2024 1684 1183 1005 471 534 240 294 450 197 340 257
is_linear=0
shrinkage=0.2


Tree=170
num_leaves=16
num_cat=0
split_feature=16 16 96 16 89 18 18 95 7 17 75 54 96 85 95
split_gain=118.137 25.5988 11.7569 13.2408 11.601 9.20075 9.50734 10.2623 8.70326 8.26257 10.2289 8.30074 7.08017 7.05702 5.98698
